662 300
אוכל 0.0009997919 0.0025244043 0.0011318076 0.00081402983 0.000654906 0.0014089879 0.0006537205 -0.00056455773 -0.0009073445 -0.00068936317 0.00057913177 0.0008690317 0.0024041042 0.0013762581 -0.0016265434 0.001259889 0.0014289459 8.89164e-05 0.00082130916 -0.0013778883 0.00056909287 -0.0017028523 -0.0019810465 0.0020053177 -0.0009021036 -0.00067879213 -0.0003185214 -0.0007469967 -0.00038429425 0.00073946745 -0.0013568383 -0.0014865132 -0.00020482343 -0.0006059698 -0.00016079561 0.00022699352 -0.00024200768 0.0015182785 -0.00071258773 -0.0027449434 -0.002456045 -0.0013111914 0.00088164635 0.00044051764 0.0012214232 -0.00014758753 -0.0008734712 -0.0005440342 0.0011978465 0.000511311 -0.00048606397 0.00047231666 -0.0007136344 -0.0011947205 0.00010470896 -0.0016164839 -0.0009910095 -0.001176607 -0.0008840172 -0.00015423691 -0.0011794157 0.0020197227 -0.000276084 -0.00045049813 0.0004014348 6.657571e-05 -0.0013116925 -0.0014760816 -0.0020911272 0.0009264899 0.0014363262 0.0014264296 -0.0003775907 -0.0003157146 0.00042676675 -0.0013533965 -0.0006578675 -0.0010019932 -0.0006608445 -0.0026830158 0.0009747185 -0.000994201 0.00031246018 -0.0009404657 0.0009587017 0.0008168545 -5.7793073e-05 -0.0016785916 -0.00045747816 -0.00029519273 0.00087682734 -0.00038365985 -0.0003525129 -0.00035299812 0.001263272 0.00042806347 0.00060599955 0.0010723483 -0.00025342355 0.0005606229 -0.001691146 -0.00033737894 -0.0025158592 -0.00032251538 -5.0343155e-05 0.00013266163 -0.0009949374 -0.0024066225 -0.001596404 0.0004876813 -0.0007382205 -0.0017530292 0.00239233 0.00049627037 0.00045601942 -0.00052831834 0.0004383084 0.00010775103 -0.0008627169 0.00046055677 0.0014379289 -0.0012429304 0.00019282571 0.00041984525 0.0019124286 -0.00062298484 -0.0009924987 0.0007140571 -0.0016387845 0.0016713602 -0.00030221802 -0.00081033394 0.00014073723 0.0011846564 -0.00044117705 -0.0006115033 -0.003014595 -0.0016949571 -0.00046039314 0.0016728245 -0.0013635996 0.002132675 -0.0004807142 0.00031056156 -9.9199104e-05 0.0005363867 0.0018577571 -0.00067107216 0.0011603653 -0.0027399813 0.0016208101 -0.0014222482 -0.0012252674 -0.00015921732 -0.0009475296 0.001630496 0.00029648052 -0.00038323333 -0.0012664208 0.00027902835 0.001638316 0.00071310095 0.00043627442 0.0011365237 6.728535e-05 0.003042542 0.0009653157 -0.00016213648 0.00072663685 -0.0011803329 0.0003468599 -0.00027942745 -0.0019969533 0.0015697314 -0.0008837585 0.0006103242 -0.0007889371 -0.00011798364 0.001706514 -0.00015562633 0.0008948099 0.00084764493 0.0005378993 0.0008856864 0.0011727773 0.0011792119 -0.0016147564 5.0062168e-05 0.00095978304 0.0019046548 -7.076143e-05 0.0016981909 0.0021434827 0.00067115744 -0.00018556039 0.001473034 0.0009780332 0.0005608217 0.0001809723 0.00027631506 0.0003445183 0.0016480968 0.00022357714 0.000372029 -0.00078696146 -0.0010947139 0.0010488878 0.0004516395 -0.0004154095 0.00056188274 0.00010819574 0.0015289142 -0.00025134886 -0.0014974744 -0.0006001236 -0.0008100978 0.0005993896 -0.0019275283 -0.0013363323 0.0013584262 -5.3594762e-05 -0.0016530184 0.0020230934 0.0001470613 -0.0014968914 -0.00048177512 -0.0018000967 0.0012969871 0.00030084298 0.0010585014 0.0006239363 -0.0007234241 0.00048604063 0.00059438497 -0.0029069188 1.1461004e-05 0.0005032337 0.0018696539 0.002051541 0.0006237939 0.00069186086 -0.000477798 -0.00160975 0.0005648109 -0.0010175757 -0.0008852195 0.00014812856 0.00088534434 -0.001904933 -0.001871006 0.0005363916 0.0021842748 0.0016812673 0.00021922236 0.000972325 0.000910228 0.0012762895 2.904623e-05 0.0014309031 -0.0013868503 -0.00057505025 0.0004851025 -0.0014632682 -0.0014961477 0.002070841 -0.00035461472 -0.001362005 -0.0013552709 -0.0010226005 0.0014481479 0.0011523945 7.357241e-05 -0.000789208 -4.5187106e-05 -8.0468075e-05 -0.0009012533 -0.00034042026 -0.0008477183 4.5214772e-05 0.0011529375 0.00019861787 -0.00077473914 0.0003468031 0.0007872062 -0.0025473689 0.0008478093 0.0011101887 -0.0011072122 -0.0015150413 -0.0015118801 0.0011779681 0.0005357905 0.0008107561 -0.00075889035 -0.00034096776 0.0022425489 0.00077396154 -0.00153351 0.0015737737 -0.0017777353
אני 0.00091020495 0.002175681 0.001261913 0.0016566016 0.0014813056 0.00064327515 0.00035068754 -0.0026351498 -0.0007998605 0.0004920699 -0.0010988392 0.002041244 0.0031544648 0.0020027878 0.00023708196 0.0014756316 -0.00010012685 0.000118949894 4.8701768e-05 -2.1720782e-05 0.0021344705 -0.0007524036 -0.0007931934 0.0007670646 -0.00023821362 -0.00030984942 -0.0015454405 -0.0006392662 -0.0018750859 0.0012670475 -0.0012764521 -0.0006724491 -0.0025322305 0.00202698 -0.0018031747 -0.00086318055 0.0021686873 -0.00077033526 -0.0019002856 -0.0032314793 -0.0025827135 0.0006917889 0.0001000452 0.00076067937 -0.0016611572 0.00013045206 -0.0015643428 -0.0017848451 -0.001354168 0.0018598462 -0.0032099434 0.0004084817 -0.0020664542 -0.002038057 -0.0020392826 -0.0030585486 -0.00084935705 -0.0004152673 0.00043064982 0.0013416435 -0.0013696942 -0.0002750243 0.0007958362 -0.0011813748 0.0010471462 -0.0010483019 0.00033017143 -0.0014539764 -0.001990333 -0.0017853124 0.0028354046 0.0015230256 -0.0011623803 0.0015682774 -9.145851e-05 0.0015938801 0.00039155743 0.0012590591 -0.0037691763 -0.0025918777 -0.0006331681 -0.0003936823 0.00018924798 -0.0006302725 -0.0012479784 -0.00074420683 -5.4555653e-06 -0.0017639117 0.0005636014 0.001705948 -0.00045512925 0.0011894119 -0.0010506001 0.0029972196 0.00060443155 -0.00014879041 -0.00046913986 -0.001359514 0.00082367624 -0.0024822068 -0.0016812788 -0.002473643 -0.0006515218 2.0154153e-05 0.00017182992 -0.0010622656 -0.0008382194 -0.0024039492 -0.0008726071 0.00018775766 -0.0011486674 0.00092555146 0.003678235 -0.0022588705 -0.0011518553 0.0019022524 0.0020224785 -0.0017510845 0.0006167422 -0.0011781359 0.002398175 -0.003088395 0.0010281017 0.0041191205 0.00248676 0.00035724766 0.0009764936 0.0013819678 -0.0018477387 0.0023919144 0.0012707299 0.001265818 0.0023415086 0.0016651747 0.001561459 6.585375e-05 -0.0039515696 -0.0018768548 -0.0010256813 0.0010872849 -0.002666744 0.0024269023 -0.0015040291 -0.0016171203 -0.00012967971 0.00402775 -0.00070401985 0.0021505372 -0.00052520644 -0.0018684409 -0.0012818484 -0.00086769165 0.000756079 0.0014488515 -0.0012157654 0.00078806194 -0.0018274819 0.0010053717 0.0014122647 0.00024280479 0.0016668799 -0.00012566407 -0.0019414356 -0.001511276 0.0018915565 0.001854649 -0.00087053014 -0.00080993865 -0.0014918544 -0.0009405239 -0.00067036046 0.0021623096 -0.00019387116 0.00029820052 0.0015698383 0.0018643242 -0.0027610718 -0.0015826978 0.0020769946 0.00024965618 0.00074225664 -0.0008459047 0.00074592227 0.0012167229 0.0010354626 0.00049215794 -0.0017896415 0.0014378239 7.914438e-05 0.0023131857 -0.00022624285 0.0020073815 0.0017501615 -0.0017553653 -0.001199323 0.0016707766 0.00011093721 0.00025542718 -0.0016916039 0.0024565388 -0.0017007038 0.0019580899 -0.0004007626 0.0014099445 -0.000369215 -0.0009758102 0.0011750049 0.00096734386 0.0030452088 0.00025653394 -0.0025146066 0.00061840884 0.0004024054 -0.0027336385 -0.0009007063 -0.00071428996 -0.0009563443 0.0004694267 0.00024998334 0.0014308591 0.0024799937 -0.0021324318 0.00025109175 -0.0009480293 -0.0021735986 -0.0005353742 -1.8145427e-05 0.0001444838 0.00029294624 -0.0008169633 -0.0013011408 0.0018429948 0.00052538275 0.0006547111 -0.0015417346 -1.871004e-05 -0.00294211 0.0033394035 -0.00056169694 -0.00040990644 -0.00010119246 -0.00022203116 -0.00085513684 -0.00046415988 0.0022836372 -0.00062958384 0.0036692116 0.0003998663 -0.0012767876 -0.002286394 0.001703554 0.0020447404 0.00236928 0.0037797648 -0.0005893985 0.0036748447 -0.000101045676 0.002701128 0.0009449577 0.00036119885 -0.0002016956 0.0014049485 -0.0004866644 0.0011942398 -0.0007355228 -0.0012989201 0.00023387728 -0.00096357986 -0.0015429487 -0.0020028045 0.000737772 0.00027366463 0.0009754112 0.003391885 -0.0018822995 -0.00037229687 0.0007224161 -0.0019938264 -0.0004329928 -0.00048143123 -0.00015175204 -0.0007595773 0.0027713561 0.0021737264 -0.0013840436 -0.00080866803 0.00048283226 9.594046e-05 -0.00040691672 0.00039296094 -0.0005219806 0.001949561 0.0028369492 0.0017524082 0.00022396591 0.0010628016 -0.0011916399 -0.00028791442 1.4939555e-05 0.00096296816
גם 0.0004768293 0.00013034984 -0.00039124026 -0.0012589858 0.0009506479 0.00045404906 -0.0006486241 0.00048145838 0.00053408765 0.00048771335 0.0011614535 0.0017354529 0.00112224 0.0011277169 -0.0012426171 0.00041690902 -0.00043732987 0.0010963967 -0.0011696826 0.00010236898 0.00085273763 0.00020329791 -0.0003674245 0.0011445817 -8.6838765e-05 -0.0026009076 -0.00069257745 2.004472e-05 -0.0019000596 -0.0014013875 -9.9105164e-05 0.0006548544 0.0011283706 -0.0009382226 -0.00176755 -0.0014715359 -0.00042373344 0.002067882 -0.0010073895 -0.0017147477 4.5990633e-05 -0.0006319551 0.0001847555 -0.0010149665 -0.0018068147 0.00080757716 0.00031210968 0.0010137208 0.00037602062 -0.0012589942 -0.0011279559 0.0017276122 -0.0013246868 -0.0017881003 -0.0013654433 -0.0019081845 0.0014440251 0.0005993171 -0.0005805294 -4.2928474e-05 0.0009487751 0.0008159345 -0.00028718455 -0.0012765392 0.0011413784 0.0002294915 0.001235732 0.0010430708 -0.0024387806 0.0005819887 0.0029025916 -0.00031397716 0.00014300406 -0.0013586894 -0.001550277 0.00062061 0.0015755643 -0.0010526386 -0.0026372867 -0.0020501753 -0.00049972226 -0.0011972098 -0.0007956423 -0.0012354281 0.0010190923 0.0011000646 -0.0011090473 -0.0010799257 0.0017412427 -0.0002903192 0.0008085994 -0.0012473868 -0.0012715259 0.0023973356 0.002539781 -0.00090746104 -0.00097043876 0.00077453157 0.0008849962 -0.0012221992 -0.0018649548 -0.0015644338 -0.001191965 0.0013375498 0.0009972489 0.00017137063 -0.0028946886 -6.888817e-05 0.0006367471 8.059146e-05 -0.0017373894 0.00065382343 0.00044402605 -0.0013170472 0.000968276 -1.11428135e-05 -0.00059697597 -0.0002887397 0.00016702665 -0.0015687183 0.0015955118 -0.0024497828 -0.0008819166 0.003111249 0.001033917 -0.0009527499 0.0018301286 -0.0003802077 -0.00027183528 -0.0011433397 0.00076020474 0.0006789773 -0.0006057069 0.0016736939 0.00016137291 0.00057520217 -0.0030720355 0.00023854096 -0.00058337464 -0.0011256181 0.00017156934 0.0006890573 -0.000939549 0.00040701072 0.001033655 0.0009827618 0.00027983938 0.0013404035 -0.0002839045 0.00017751151 -0.0012356219 0.0012852048 -0.00035542587 0.000114184935 0.0004616134 0.0015167078 -0.000480344 0.001870891 -0.0008275599 0.001976518 -0.00030825508 0.0016619136 -0.0017072413 0.0002964393 0.0006130106 0.0014846649 0.00010357868 -0.0011556417 -0.0010005428 0.00073745125 -0.0015024942 0.0024684262 0.0005621903 -7.3584815e-05 -0.0003170279 -0.001006169 -0.0018863013 0.0006297585 0.0005608252 -0.0016576461 0.00015914478 -0.0006728664 -0.000632153 0.00064385665 0.00022714898 -0.0014618658 -0.0011498177 0.00072284555 0.0006923311 0.0021859377 0.00072614395 -0.00018433608 0.0004061433 -0.00075046637 0.0011603971 -0.0001464783 0.00073411834 -0.0012497072 -0.0013325863 0.0010769956 -0.0018408521 0.0011164162 0.0004675422 -0.00029338128 0.00040399726 -0.0010024194 -0.0005673305 0.0019007566 9.620915e-06 -0.00047547836 8.8995534e-07 -0.00060463743 -0.00013692799 -0.002165701 -0.001596362 -0.0014512156 -0.00024151146 -9.96359e-05 0.0010253848 -0.000871581 0.00089941797 -0.00034092244 2.4327092e-06 0.001348842 -0.0019645686 -0.0016326038 -0.0021372905 0.0017709278 0.0007317564 -0.00093239447 -0.0014519006 -0.00011438357 0.00056340836 0.0012643372 -0.0011845618 -0.00018819635 0.00019499223 0.0009459006 0.00022927916 6.4280495e-05 0.00019766713 0.0004663822 -0.001247143 0.001214843 0.0017631123 -0.0010985908 0.0009836319 -2.3940931e-05 -0.00037086866 -0.0020933999 -0.00014109518 0.0024046686 -0.00014082853 0.001300277 0.00043215966 0.001508841 0.00040298235 -0.00011129926 -0.00044250497 -0.0012771821 -0.0021833386 0.0007833114 0.0009989135 0.0014526006 0.00013166337 0.00077008305 0.0004622734 -0.0011918601 0.0014047879 0.0009894815 -0.0015346346 8.2201914e-05 -0.0010727737 0.00074472814 0.00027790456 -0.0011399403 0.00023715004 -0.00070086424 -0.0010999339 -0.00020244936 -0.00027745808 -0.0028066582 0.0010135453 0.0016887326 -0.00073797617 0.000992657 -0.0007450869 0.0015623011 0.00013328952 -8.2941806e-05 0.0006038822 0.00083328015 0.0013742441 -0.00062505517 -4.2474745e-05 0.00022671849 0.0006693021 0.00035857828 0.00086162414 5.3399086e-05
הזמנתי -0.000974715 -0.0008025864 0.00052633166 0.0013285035 -0.0009210254 -0.00026191905 -0.0004274603 -0.00044049096 2.8542949e-05 -0.0013969039 0.0011762256 -0.00021278886 0.0012489915 0.0011750472 0.00028312992 0.0010716217 -0.00151695 0.0014203923 -4.030239e-05 0.00065847544 0.0007633579 0.00022441936 0.0008689746 0.0012580564 0.0015069959 -0.00032156444 0.0016274493 0.0003140179 -0.0016736476 -0.0015171071 0.001039532 -0.0015100046 -0.0004781053 0.00018489169 0.0014881318 -0.0005128429 0.00050249265 -0.0005297049 -0.00017682575 -0.0011386338 -0.00013722692 0.0011548012 -0.00035459944 0.0010223622 -0.0013478984 -0.00030153926 -0.0009954231 0.0007565637 -0.0010235928 -0.00082232826 -0.00082044385 -0.00083811354 -6.6201756e-05 -0.0013378012 -0.00154481 -0.000106474894 0.0005211402 0.0009987819 0.00067321194 0.0008859564 -0.00064609264 -7.8033285e-05 0.00085628143 0.0014276026 0.0008915254 -0.00028421657 -0.0011756397 -0.0010485138 -0.000758315 0.0015045595 -0.00046025487 -0.00046394588 0.0012596933 0.0010305649 0.0010287724 0.00065772946 0.00012092248 -0.001676461 -0.00015359254 -0.0017577502 0.0002624685 -0.0015729796 -0.00062479154 -0.00074680505 -0.0013965643 -0.00058677787 -0.0014032194 7.8859e-05 0.00022343734 0.0008747937 0.0011553207 0.00065226044 0.0008980529 6.610284e-05 -0.00014146193 -0.0005001428 -0.00034184867 -0.0014289861 -0.00031009968 -0.001726604 -0.00048553283 0.0015157615 0.0011912263 0.0006174194 -0.0007882251 -0.00047290165 0.0012716237 -0.0015170693 -0.0010021534 -0.0016121145 -0.0014436115 -0.0010283961 0.00084555306 -0.0005890048 -0.0015515458 -0.000900067 0.00020466409 -0.0008982283 -0.0010047349 -0.00028335213 -0.00035 -0.0007985901 0.0011592117 -0.0015120485 -0.0014482596 -0.0007106624 -0.0008378874 0.0014622859 -0.0012615479 0.00064447016 -0.001487771 -0.00047620808 0.0007170992 8.166143e-05 -0.00062446593 -0.0014995411 -0.0007396922 0.00054204225 -0.0009724984 0.0010479161 0.00048943586 -0.00067222706 -0.00014666801 0.00016775673 0.0015343692 0.0009906417 0.0016717637 0.0015348657 -0.0006428368 0.00091062224 -0.0003875823 0.00064927747 0.0002436036 -0.0012839214 0.0010413692 -0.0015971574 0.00019137455 -0.000964637 -0.0004622888 -0.0010933732 -0.001332313 -0.0010818925 0.00096674863 -0.0012012674 2.690851e-05 -6.936497e-05 -0.0015248397 0.0009790983 0.0015854281 -0.0006044715 0.0010337973 -0.0002601322 0.00090519374 0.0014878764 -0.00060600415 0.0008587085 0.0007153612 0.0015029081 0.0008741857 -0.00072873617 -0.0015439398 -0.00086482515 0.0016660088 -0.00053800276 -0.0003882029 0.0011456896 0.0006360538 0.00068132207 -5.3749547e-05 -2.3396764e-05 -0.00018868681 0.0007346934 0.0003469633 0.00092273654 0.00051890063 -0.00050688954 -0.00094194664 7.1756986e-06 -5.8166e-05 0.00062650384 -0.0003908134 -0.0014862905 -0.0011164694 0.0010391065 0.0004147802 0.0005987955 -0.0014788698 -0.00027135998 2.334139e-05 0.0015244476 -0.0009831392 -0.0004661592 -0.00053829374 0.0015512834 -0.00055520405 -0.00017592251 -0.0006893476 0.00046731267 -0.0009296892 -0.0010796818 -0.00072984275 -0.0005624015 0.0015094598 -0.00017591316 -0.001692073 -0.00014981875 -0.00063087756 0.0002826782 0.0004201492 -0.00049516535 -0.0012377219 0.0015039741 0.0010205349 0.00036811669 0.0015512067 -0.00026987793 0.00058416085 -0.00034331766 0.0005601015 -0.001338781 -0.0010240222 0.0004585308 -0.00061766314 0.0010283794 -0.00032082878 -0.0007653654 -0.0007784396 0.00023878213 0.00015345897 0.00040549852 -0.00017774968 0.00030542782 0.0010446524 0.00048159275 -0.00054619793 -0.001350274 0.00095936056 -0.0012918708 -0.00057688967 -0.0005756855 -0.0012057589 -0.0004516389 -0.00095443113 0.0009448681 0.0012579765 -0.0013390338 0.0010340267 -5.574999e-05 -0.0013333125 -0.0014101928 0.00071780593 -0.000110591856 -0.0013041043 0.0006622868 0.00017146721 -0.00057526334 -0.0013741617 -0.000819432 0.00062648806 -0.00030877386 0.0008932003 -0.0011995255 -0.0005360949 -0.0010419146 0.0012039838 0.0006483161 -0.0015178972 -0.0010519301 0.0011423819 -0.0014608108 -0.0014024407 0.00073599437 0.0005758046 0.00037562102 -0.00044792925 -0.00019411545 0.0016158985 -0.0011242902 0.0011296646 0.0012837477
לאכול 9.9428675e-05 0.0019527607 0.001267811 0.0016369005 -0.0007467286 -0.0011621813 -0.00022039363 -0.0006338925 0.00033013153 -0.00025561888 0.00028996007 0.0030031286 0.0022298 0.0018187875 0.00086813036 0.0027527714 0.0011290767 -0.0005080861 -0.00028058392 0.00043466562 0.00039311335 0.0009668445 -0.00092652434 4.128337e-05 -0.001499005 -0.00093845784 0.0006528894 0.0014921459 -0.0025904658 -3.7522528e-05 -0.0012671641 0.0011917866 -0.0021706722 -0.0013234807 -1.1738671e-05 0.0010114618 0.000255234 0.0018578744 -0.0009019349 -0.0019384628 0.000369428 0.00025030354 0.00016748237 -0.0009957195 -0.0009863542 -0.00021727562 -0.00017124324 -0.0011869281 -0.0013487318 -0.00037305002 -0.0007210153 -8.784203e-05 0.0013306579 0.00012420067 -0.0017532174 0.00018238396 -0.00012712402 0.0010461225 1.7473109e-05 0.0011143032 -0.0016365881 -0.0007640823 -0.0010526599 -0.0013075132 0.00076675793 -0.002289623 -0.0012445892 0.0013246936 -0.0019192055 -0.0007363838 0.0028006209 0.00075283274 0.0005969542 -0.0014813138 0.00033143925 -0.00013408925 -8.276246e-06 -0.00019323306 -0.0027732528 -0.0025952416 0.0008878618 0.00027609288 -0.0012402928 0.0008825335 0.0011249759 -0.001892921 -0.0015876599 -0.0018742197 0.0022419803 0.0010899825 0.0014887992 0.00031993585 -0.000757742 0.00012962265 0.00033483712 -5.8262267e-05 -0.0013187489 -0.0016648681 -0.0004585816 -0.00034012337 0.00010190037 -0.0013235639 -0.00095942407 -0.0008124859 0.00047677488 0.0013063389 -0.0028532983 -0.0005158719 0.0011939257 0.0015591866 0.0010717909 -0.0006159147 -0.00014595079 -0.0017587382 -0.0018968775 0.0007849013 0.00020883007 0.0004696792 -0.0004166544 0.0012099214 0.00028517388 -0.0018972183 0.0010557739 0.001603471 -0.0005828234 -0.00011620769 -0.0010836828 -0.00081648515 -0.001024335 0.00038076332 0.00063970685 -0.0013648692 0.0014132524 0.0015700068 0.00013759153 -0.0014194027 -0.0033826733 -0.00024515315 -0.0001356702 -0.0014550686 -0.00025946743 0.0018539862 0.00042884346 -0.0005880934 0.0015224868 0.00036649898 -1.4355627e-05 -0.00089020893 -0.0008491106 -0.0017620093 0.000622265 -0.00028997616 0.000401683 0.0022308254 0.00082547433 0.00047304438 0.00079598185 0.0013932846 0.00047039162 0.000109399014 0.0005387261 0.0009855672 -0.0024355573 0.00097077375 0.001143999 0.00037084238 0.0002316808 -0.00027304058 -0.001059006 -0.0013750902 -0.0003502054 0.0014694704 0.000546026 -0.0015524885 -0.0006311552 0.0014649695 -0.0016902054 -0.0023203047 0.0012230979 -0.0021575002 -0.00035570393 0.0008395164 -0.00022560323 -8.94798e-06 -0.0006797199 -0.000721351 -0.0012943052 0.0007319306 -0.0018786123 0.0023439077 6.208039e-05 0.0003090117 0.002610127 0.00027761963 0.0012336548 0.0002404129 0.0019568678 0.0009506748 -0.0023629125 -0.00017344016 -0.0015188345 -9.375335e-05 0.0009217187 -0.0014793233 0.00023085647 0.0007121124 0.002162427 -0.0008788138 0.0017498571 -0.00028479876 -0.0007198902 -0.001030507 0.0008714868 -0.00096239126 0.00089865533 -0.0006678664 -0.0005330625 0.0007052831 0.0014964216 0.0011273222 0.0026391814 -0.001950003 0.00045381428 -0.0011647663 -0.0010443176 -0.0010452209 -0.0013556614 0.00064720627 0.0015855284 -0.0015588094 0.0010354354 -0.00035968662 0.001161379 0.00019302538 -0.0026850163 0.001998582 0.00049818325 0.0010252239 0.0022609471 0.00021633672 -0.0016925343 0.0019563327 -0.0013583603 -0.0006448214 0.0011104663 -0.0007239709 0.0018939386 -0.0015336879 -0.0021532713 -0.00023156416 0.0015599988 0.0023637412 0.0025793158 0.0017439058 -0.0019956138 0.0011802284 0.00097541965 0.0024817616 0.0011420521 -2.0080188e-05 -0.0021803482 0.0007713998 -0.0009200794 -0.0013340056 -0.0011203678 0.0006911535 -0.00078171416 0.00032559806 -0.0010768073 0.00019389507 0.00093466433 0.0007383717 0.0002912545 0.0019104112 -0.0009424709 0.0012301432 0.00219256 -3.074144e-05 -0.0013142657 -0.00022882385 -0.0010829448 -0.0015443597 0.0020393974 -0.0008268291 -0.0025813729 0.0016649519 0.0011115369 0.00066612044 -0.00018599333 -0.0006420607 6.37533e-05 0.0008145136 0.002617332 -0.00069831585 0.0009702651 0.0006149826 -0.0017149798 -0.0012607444 -0.00064286776 0.00029418018
יאללה -0.0009990208 -0.00062984653 -0.0010879564 -0.0011631183 0.00029094963 0.0013110896 -0.0005742845 0.0012090891 0.0008681373 -0.000871785 0.0010613435 0.0013552518 -0.0006408332 -0.00050950114 -0.0010446119 0.00087685825 -0.00071492494 -0.0013179248 0.0005613242 -0.0011415264 0.0011979879 0.00095462415 0.0009586745 0.00064633065 -0.00043719128 0.0012973136 -7.430881e-05 -0.00056320586 0.0011073444 -0.0014952045 0.0008514242 0.0010379021 0.0014112456 -0.00064334064 -0.000717173 -0.0012024648 0.0008982523 0.0010653019 -0.00027747237 0.00015532754 -0.00010861258 -0.00051925215 2.6951398e-06 0.001154894 -0.0012121103 -0.0006814742 0.00016051982 -0.000119513345 0.00024514794 -0.00049684977 0.0002008931 0.0003879873 -0.00011397819 -0.0017803701 -0.0008240786 -5.1674906e-05 0.0014316562 0.0008141538 0.0014768353 0.0014427704 -0.0008787881 0.0003828072 0.00014537064 -0.00040940422 -0.0012508207 0.00038422772 0.0015860918 -0.00014445656 -0.0016153287 -0.00017366266 -0.00039476936 0.001585928 0.0011215445 0.0014371708 0.001380624 5.6840734e-05 -0.00154249 -0.0007305399 -0.0016225823 -0.00037767368 0.00090439897 0.0004008275 0.0001635608 0.0009401077 -0.0013374683 0.00089882046 -0.00024532707 -0.0005742752 -6.1746716e-05 -0.0013788547 -0.0002146744 -0.001185672 -0.0007927707 -8.9778834e-05 0.0005131062 -0.0012232072 0.0015446862 -0.0016152245 -0.0008957137 0.0010376481 -0.00028884172 -0.0009415596 -0.00018245379 0.0014355311 0.0016144945 0.00047503464 0.00039873045 -0.00044502557 0.00023805595 0.000513521 -0.0009185786 -0.0005026369 -0.0003468613 0.000721407 -0.00043059632 -0.0015379941 0.00060423894 0.00022361526 -0.001423526 -7.999816e-05 -0.0015470608 -0.0017606547 0.0001028767 0.00042565417 0.0014971964 0.0016797865 0.00026670517 -0.0004123368 0.00097651355 -0.00062343583 0.00095789495 0.0017029415 0.0006691757 -4.2816573e-05 -0.0009180231 5.0663406e-05 0.0001156925 0.00019243963 0.00031499352 -0.00032321337 -0.0016649504 -0.0009444407 0.00045541214 -0.00079724827 -0.00051129895 -0.00014564044 -0.0009015286 -0.0011620278 0.0003865727 0.0010594451 -0.0014659965 0.0006041138 -0.00060236367 0.0005898856 0.0015929032 0.0012401827 0.0005105015 0.0012537146 0.0004965398 0.0007629721 0.00084942044 0.0010751829 -0.0006885329 -0.00075593 0.000691622 7.113972e-05 -0.00030872595 0.0015563527 -0.00058087637 0.00095295324 -0.00091713725 0.0009370051 -0.0016142399 -0.0011530111 -0.001533197 0.0011433605 -0.0003078732 -0.0009480068 0.00071694015 0.0003840913 0.00012724797 0.001252435 0.0002810561 -0.001319873 -0.00021062267 -0.0011499311 0.0013462373 0.00022007011 0.00063951476 0.0007752199 4.055849e-05 0.00044680346 0.00093653845 0.0011886153 -0.001349681 -0.00016827119 0.00035831946 -0.0009170356 -0.0018376077 -0.00057800446 -0.0011461667 0.0017675774 0.0003787699 0.0014584954 -0.0012490349 -0.00066664215 3.073111e-06 0.0017055117 -0.0011101202 -0.00030536554 -0.0017359925 -0.00067429635 -0.0001497026 -0.0013268436 -0.0018251629 -0.0007197195 -0.0007521464 -0.00061015424 -0.00070222456 -0.00067577686 0.001585983 -0.00030712585 -0.00032723468 -0.0006816409 -0.001474039 0.0007633361 0.0009616154 -0.0007111539 0.0015359714 0.000969463 -0.00037770337 -0.00039325733 -0.0014162859 0.0009027668 0.00039448522 -0.00048341046 0.0010465119 -0.0009931076 0.0012641335 -0.00032380063 0.00069651403 0.00076853577 0.00123221 -8.316721e-05 0.0016169463 0.0013517217 0.0001522061 -0.00031766243 -0.0007260358 -0.0005961245 0.0006750492 -0.0010791076 -0.0010039865 -0.0011857868 0.00018557876 0.0014188276 0.00062402186 0.00012713237 0.000287196 -0.0002947167 -0.00052074686 0.001500376 -0.00028005606 0.0015443836 0.0011862593 -0.0013171011 0.00047432745 0.0010021825 0.0016181149 -0.00070883427 -0.0007257507 -0.0005385821 0.00033322806 -0.0013068706 -0.0008100336 -0.00055498595 0.0010556238 0.00025441425 0.0016324699 0.0005534125 0.0010214862 0.0008044025 0.00060282473 -0.00074125675 0.00017359848 -0.0011065635 -0.00016876281 -0.0013240791 0.0015177134 -0.00023306569 -0.000110634166 0.0006581763 0.0018473545 -0.0004405031 0.0009845551 0.0009484418 0.001006871 0.0012047349 -0.0006786099 -0.0010431821
לא 0.0011277657 0.002544532 0.0016609216 0.001486328 0.0012714835 0.001981231 -0.001921499 -0.001426041 -0.00043262978 0.0017372867 0.0016321327 0.0032025196 0.0017899446 0.0031003621 -0.0012126907 0.002025146 -0.00031795783 0.0008506055 -0.00085029163 -0.00072676287 0.0025365641 -0.0015802501 -0.0025811293 0.0023460477 -0.0025386787 -0.0031333896 -0.00071602646 0.0021675504 -0.003970866 0.00025708927 -0.0017097365 0.0016560301 -0.0016631167 0.0007374222 -0.00036170322 -0.0012534468 0.0018937977 0.0013458349 -0.0010598616 -0.0017539664 -0.0027882468 0.00042877375 0.00027851245 -0.0002046519 -0.0012693038 0.0020965317 0.0005806534 -0.0002150949 -0.00050135347 0.0007215096 -0.0041089137 0.002588034 -0.0016718338 -8.8723e-06 -0.0020111275 -0.0022722825 -0.00089258066 -0.00088730996 0.00024329485 0.0018906086 0.001187099 0.0026632643 0.0014482602 -0.00039606373 6.376278e-05 -0.00038761043 0.0013329096 0.0006136604 -0.0035860213 -0.001566423 0.0051865065 0.000114616334 -0.0012373658 0.00049863855 -0.0012070588 -0.0016874277 -0.0006149189 -0.00035560125 -0.002197892 -0.0032206182 0.00067998446 -0.00044889576 -0.00294063 0.0003171063 -0.00044897164 0.00039682531 -0.000293452 -0.0017916488 0.0014441737 7.249111e-05 0.0028919822 0.00044169516 -0.0003658199 0.0021506462 0.0028276418 -0.00042718946 6.938242e-05 0.00045771187 0.00085384893 -0.001245289 -0.00045566427 -0.00032570562 -0.0030365624 0.0023809688 0.0017783128 0.0020045752 -0.0019452162 -0.00091904786 -0.002014005 -0.0007521452 -0.0015709772 -0.0016335835 0.003936625 5.153307e-05 -0.0020375517 -0.00083097105 0.0016635653 -0.00020045551 0.0009336106 -0.0010393577 -0.0005823282 -0.002364984 0.00010108232 0.0041601406 0.0027602776 0.001329849 0.00024308755 0.0005811872 -0.004397205 0.0024519789 -0.0009965562 -0.00093629054 0.0028480522 0.00035509566 -0.0016963016 -0.0017535237 -0.0035515113 -0.00034113764 -0.00054811634 0.0005498157 -0.000860105 0.0024381601 -0.0011806731 -0.00050572405 -0.0003481342 0.0036216273 0.00096820534 0.00031519964 -0.001975784 -0.0014377143 0.0015251768 0.0007402532 0.001003692 0.0019810365 0.0018026901 0.00024303264 0.0006136191 0.0023974373 0.0010194347 0.0032351888 -0.00068311644 -0.0009139599 -0.0016086765 -0.0014743456 0.003094972 0.0022790094 -0.0009850889 0.0014793156 -0.0005596584 -0.0011857486 0.0002804589 0.0011955504 -0.0021393122 0.0016811608 -0.001115037 0.0009835478 -0.0018877926 -0.0034442975 -0.000698958 -0.0013780667 0.00043673272 -0.0011295683 0.0014445056 -0.0018152889 -0.0012474095 -0.001581443 -0.0020241393 0.0011008736 -0.002263291 0.0031626266 -0.00074581796 0.0011994991 0.0036538143 -0.0003141036 -0.00052830554 0.0016853977 0.00038528393 0.0006353519 -0.00350409 0.00090552995 0.0004594866 0.0023512675 -0.00029692872 0.0016284416 -0.00067480933 9.484211e-05 -9.559559e-05 0.0009516876 0.0015488598 -0.002154523 -0.0023389782 -0.00032069656 0.0011984538 -0.0021763267 -0.0023707924 -0.0013483855 -0.0024966458 -0.0026183352 -0.0006079609 -0.0003440585 0.0043578856 -0.0034545574 0.0015305507 -0.0003800407 -0.0035522692 2.9986923e-05 -0.0031207872 0.0027204438 0.0018992672 -4.5202065e-05 -0.002750922 0.0016526271 -0.000121195924 0.0017978894 -0.00300386 -0.00013557798 -0.0028075639 0.0017710839 0.0005602967 -0.00295347 -0.0015409554 0.0018726877 -0.00010038647 -0.0007283888 0.0007900963 -0.00068301585 0.002646152 0.0010284099 -0.002039146 -3.4169178e-05 0.00171048 0.0019467121 0.0034591544 0.0042997883 -0.0027769688 0.0028063108 -0.00014228557 0.0020193476 0.00028113867 0.0008479767 -0.00072260556 0.0023266722 -0.00015214333 -0.0014456245 0.002927411 -0.0017415415 0.00040849246 0.0014107714 0.001445767 0.0001639684 -0.0003117367 0.0013989954 -0.0012827424 0.00078341994 -0.0010889975 -5.166121e-05 0.00038078756 -0.0005368112 0.00029257694 0.0030185757 -0.0006770309 -0.0033558072 0.0033872924 0.0016989266 -0.0039085415 0.0009791466 -0.0016448399 -5.7597743e-05 -0.00084264955 -0.0009018736 0.0008382786 0.003176513 0.0007292843 0.0005254358 0.001310572 0.0015095606 -0.000727741 -0.0006417214 0.002898735 -0.000104854
כן -0.00076238805 -0.0008342324 0.0004930383 -0.0012695557 -0.0014335765 0.0005230949 -0.0009923776 0.0014304657 0.00024068663 -0.0012321577 0.0002480557 0.000793243 -0.0010448874 0.001582163 0.001012447 0.00029443248 0.00096608856 0.0014819014 -0.001470752 0.0001392159 -0.00117543 0.001480669 -0.0010227027 -0.0014817015 0.0006509514 5.4282176e-05 -0.000936323 0.0005159618 -0.0015040359 -0.001612348 -0.0003608108 -0.0011219464 0.00053410814 0.0008372255 0.0012668819 0.00035596415 -1.6732809e-05 0.0012100792 -0.00051067484 -0.0016755847 -0.0015589881 0.00017859708 -0.00073009235 -0.0016363184 -0.0014837718 -0.00042743015 0.000766894 -0.0010836825 -0.0010174379 0.0016032833 -0.0007090051 -0.0014650307 -0.00031576128 -1.7151511e-05 -0.0008814614 0.0009526253 -0.0005049265 -0.0012669901 0.00035575972 -0.0015737246 -5.6876732e-05 -0.0013040096 0.0012910753 -0.00063775136 -0.0016461118 0.0010705387 5.3619788e-05 0.00053321145 -0.0008065407 0.0015294367 -0.0009376894 -0.0007658661 0.00040203132 0.0016009469 -0.0008486057 -0.0011141276 -0.0013392791 -0.0015364898 0.0009740481 0.0013237782 -0.0007013967 -0.00038549793 -0.0016693727 -0.0012677857 -0.00058250246 -0.0015674768 0.00056997023 0.00035799466 0.00011841699 0.0014592585 0.0013390221 -0.00029748405 -0.0010678911 4.4167915e-05 0.0004954493 0.0014231417 -0.0012688076 0.0014585456 0.00033161955 0.00023945601 -0.0003523813 0.001021982 -7.986525e-05 -0.0011291573 0.00020711601 -0.00033345685 -0.0018087673 0.0002303437 0.00039024663 0.0012138293 -0.0011641805 0.00038264104 -0.0009878487 0.0009916036 0.0013567589 0.00076523423 0.00047664062 -6.570751e-05 -0.0008873618 -0.0011624541 0.0015323405 -0.0009899733 -0.0008633639 7.952499e-05 0.0013962847 -0.0009661869 -0.00022934475 0.0010708482 0.0013916576 -0.0013017359 -0.001243669 0.0011056259 0.0010126574 0.0007117745 -0.00078712165 0.0013255279 0.00043624997 -0.0013489781 0.0008130708 -0.0005208548 0.0014616034 -0.00034456965 0.0008844297 -0.00019745583 -0.0014069878 0.00048906443 -0.00090464414 -0.0010098399 0.0009487686 -0.0015253711 0.0003205447 0.0001576932 -0.0015842154 0.0006228665 0.0002539781 0.0006862546 0.0015699052 0.00029725573 -0.00030484056 0.0011656912 -0.0010393531 -0.0015509878 -0.000111418805 -2.05849e-05 6.269296e-05 -0.00015632124 -0.0012714171 0.00035504618 -0.0006571848 -0.00017477525 0.0012649563 0.001742289 0.0011116088 -0.0009372193 -0.0006861498 0.0004537409 0.0004979495 -0.0012587284 -0.0009048087 0.0007074591 0.00080579234 0.00025590963 6.179926e-05 0.00082682417 -0.0010972022 -0.00035287792 0.00066436914 -0.000107507025 -0.00023474362 -0.0012823044 -0.00015406222 0.00026738725 -0.0006994437 0.0008630759 0.00097287033 0.0009947271 -0.0015052784 4.214601e-05 -0.00039923863 -0.0006517341 0.0010644505 -0.00014081095 0.0009424973 0.00072962075 0.0013751836 -0.0010860377 -0.0014104526 -0.0004000971 0.0004038815 -0.0013134419 0.0010776948 -0.00073599094 9.529315e-05 -0.0017126647 0.0011359307 -0.00026492446 -0.00033136137 -0.00041435106 0.0015539186 -0.0011799894 -0.00035970224 0.0008229032 0.0015777292 -0.0012736622 -0.001256006 -0.000247358 0.0006521934 -0.00035221296 0.0007783027 0.0006549786 0.0015005475 -0.0003078415 0.0005822043 -0.00051289715 0.0012672726 -0.001199166 -0.0003088594 0.0015854205 0.00072822126 0.001138248 -0.0009307052 0.0013579921 -0.0015449425 5.196035e-05 -0.00060526584 -6.337798e-05 1.0744516e-05 0.00044232243 0.0013481672 -0.0001663031 -0.0012004102 0.0002716351 -0.00023479389 -0.0005785103 -0.0012199726 0.001733137 0.0016324171 -0.0015616106 -0.001115127 -0.0011448489 0.00089910463 -0.00014804174 -0.0016560496 -0.0012593726 -0.001167924 -0.0007566055 -0.0012253373 -0.0001478875 0.0008092062 0.0014972006 -9.361692e-05 0.0013663223 0.0014138531 0.0016463083 0.00086768804 0.00034846616 -5.9583163e-06 -0.0012206448 0.00076657353 -0.0010708281 -0.0017007922 -0.00034095743 -0.00089389074 0.0002318836 0.00090871606 0.0005620067 0.0016188485 -0.0007380116 0.0005859939 0.0014175934 0.0013485246 0.001280799 0.0007604868 -0.0005466241 0.0009515878 -0.0006684521 -0.0011016824 -0.00079300936 -0.0012905205 0.00092591473
אנחנו 0.0003130214 0.00040417555 -0.0005063153 -0.0007336321 0.0016487067 0.00058837456 -0.00042302947 -0.0011419121 -0.00095811393 0.0011230852 0.00058030064 0.0017210491 0.0012658493 0.003298102 -0.00094269123 0.0016287414 -0.000786398 -0.0011986828 -0.0013971807 -0.0009287744 0.0006443373 -0.001717081 -0.00026247225 0.0013707294 -0.0013871014 -0.0007789715 0.000643145 0.0004686196 -0.0028557393 -0.000545827 -0.0018244684 0.0011757732 -0.00072033517 0.000768729 -0.0018020587 -0.0012524195 0.001853085 0.0003390134 -0.00021229562 -0.0013308753 -0.002664013 0.0012488312 0.00027579538 -0.00019805564 -0.0022600454 1.9762332e-05 0.000521461 -0.0010000248 -0.00060488953 -0.00068213703 -0.0038453876 0.00036922112 -0.0012046722 0.00015652725 -0.0019109043 -0.002661911 -0.0012940132 8.988903e-05 -0.00041247843 0.0015584234 -0.0010759452 0.00058680674 -0.0012358163 0.0011393836 0.00022912584 0.00015362991 -0.0010105125 0.00015677973 -0.0032012071 -0.00088298856 0.0037537408 0.0015980012 -0.00012448951 0.00078877975 0.0008690729 -0.0008909231 0.0004214714 -9.1991074e-05 -0.0031926208 -0.003003716 0.00011899358 -0.0014818194 -0.0011517556 -0.0010346913 0.0013273193 -0.00259671 0.0015427297 -0.0018841433 0.0015731602 -0.0012531836 0.0009738735 -0.0015157436 -0.001958401 0.0015033995 0.0018568435 7.666253e-05 0.0007879825 -0.0015886835 0.0005359966 -0.0017012678 0.00035024056 -0.0014385046 -0.0023554894 2.2189447e-06 -0.0013549702 0.0013106243 -0.0032224737 -0.0025782397 -0.0010636994 0.0006454087 0.00040068428 -0.0018052 0.0031483404 -6.7900844e-05 -0.002291894 0.0008965678 -0.00050552207 -0.0021180846 0.001523744 -0.00093187136 0.002276983 -0.0030584447 -0.0010583278 0.0013066684 0.0020136205 0.001682331 0.002334492 0.0012206287 -0.0016267424 0.00040169325 0.00010309472 6.7535904e-05 0.0017582664 0.00043423934 -0.0005790078 -0.0017806205 -0.0040814304 0.00010908453 -0.0027455043 0.001166975 -0.002193871 0.0002838771 -0.00071421295 -0.0014358503 0.00020424182 0.0014736933 0.00043638045 0.0011436985 -0.00069739926 -0.0036169786 7.701613e-05 -0.00015209384 0.0002434306 0.0021989585 0.0011182873 6.0627182e-05 -0.00066876266 0.0031347882 -0.0006202648 0.0009853129 -0.0006803674 -0.00076229224 -0.0017253397 -0.0009139751 0.002137355 0.0039786366 -0.0022491224 0.00026883377 0.0001612621 -0.0024435848 0.00036208882 0.0023300548 0.0007475323 -7.968972e-05 0.0018927255 0.0018468378 -0.0019903476 -0.0031797453 -0.0010856696 -0.00039419485 -0.0010005292 0.001001509 0.0018185911 0.000740695 -0.00024084961 1.7169667e-05 -0.0006889279 -0.00021565653 0.0004470552 0.002397062 -0.0001678627 0.0002585551 0.0028202697 -0.0017471713 0.00068889256 0.0029270197 -0.00033502598 -0.00040291555 -0.0012526967 0.0028837572 -0.0021924018 0.0006533438 0.0007610796 0.00030261817 -0.00069120986 0.00017665073 0.00011443691 -0.00036351412 0.0027360206 0.0003156769 -0.0018385078 0.0012515576 0.0015646052 -0.0023872093 -0.001574736 -0.0014734451 -0.0022422443 -0.0011389235 -0.0005760129 0.00033589712 0.0024681303 -0.0036193435 0.00018195901 0.00084727956 -0.0023898215 -0.0015409313 -0.0018384322 0.0029716257 -0.0004297373 -0.00033567022 -0.002608672 0.0018458217 -0.00085720624 0.0025981804 -0.002947109 0.00023349353 -0.0008350282 0.0030889409 0.002186352 -0.0014515875 8.738535e-05 0.00046278245 -0.00093035016 -0.0007640817 0.0029458192 -0.001290451 0.0026400245 0.00030231936 0.00027013253 0.00028655177 0.0024136535 0.0016433147 0.0031440135 0.0024528536 0.00024846842 0.0032564022 -0.0009172267 0.0029450168 -9.4544266e-05 -0.001030468 -0.002347137 0.0005623549 0.0019038328 0.0013496798 -7.5383185e-05 -0.0022104993 -0.0015097716 -0.0013024354 -0.0015062551 -0.0011520045 -0.00045164526 0.0008250241 -0.0015667733 0.0030076376 -0.0021716673 0.0002709964 0.0022253557 0.0011174461 -1.6294936e-05 0.0023393882 -0.0009805437 -0.0014167144 0.001019774 0.0009579053 -0.0032667157 0.0010399421 -0.0020114144 0.0009192332 3.285319e-05 -0.0014426823 -0.0008086941 -7.494567e-05 0.0009200744 0.0017348985 0.0014172258 0.0017919388 -0.0016996943 -0.000589871 0.0005265069 -0.0007455859
שי 0.00091015286 -0.00026339295 -0.0015952025 -5.2496307e-05 0.0016635914 -0.0007898658 2.9479352e-05 -0.0024019547 0.0006723406 -0.0012244582 -0.0007562092 0.0013216814 0.0031080535 0.0025997316 -0.0006512825 0.0033683302 0.0001496076 -0.001128836 0.0008242541 -0.00077426864 0.001188749 -0.0016863474 0.00018496832 0.0011441901 -0.0008406173 -0.0018720572 5.041606e-05 -0.0009865639 -0.0027081163 3.6658097e-05 -0.0020160447 -0.00016009441 -0.0017164083 -0.0004654475 0.00056236243 -0.0015170216 0.0007312724 -0.00025481792 0.0002073956 -0.00258893 -0.001994692 -0.0014019818 -0.0013518382 0.00062375533 -0.00026574635 0.0005380588 0.00040619873 -0.00017511581 0.00012335731 -3.090219e-05 -0.0024773898 0.002035344 0.001005013 6.8891895e-05 -0.00068556797 -0.00021924597 -0.0015266121 -0.002032956 -1.7714934e-05 0.0019853918 -0.0014822788 -0.0002937327 -0.00051917083 0.00014534633 -8.624248e-05 -0.0014644095 0.0001122145 -0.0011043574 -0.0016253454 0.00012480063 0.001794914 0.0004902024 0.00034111805 0.00068485027 4.0280505e-05 0.00059897447 -6.827452e-05 0.0002792061 -0.0019637453 -0.0032828657 -0.0006401497 -0.0013766679 -0.00049432 0.0010811856 -0.0005872972 0.0004909964 0.00054694834 -0.0015914561 0.0025148941 -0.0005479875 -0.00032590333 0.0010470768 0.00024567184 0.002608792 0.0018555153 -0.00043504869 0.0012086536 -0.00094612694 0.0017242576 -0.0019730667 -2.7549622e-06 -0.0019037515 -0.0023690849 0.0018181661 0.0011946461 0.00048041335 -0.0032025792 -0.0004548936 -0.0005711132 0.001818885 -0.000999048 -0.00093495374 -3.6360207e-06 -0.0004571043 -0.00030393293 0.0017187702 0.0005538447 -0.0020179346 0.0022043376 -0.0007941419 0.001643859 -0.0011042317 -0.0003764596 0.0037748574 -0.00043849592 0.0010661295 0.00258002 -0.00048918405 -0.0032520427 0.0012567044 -0.00076223153 -0.0010797399 -0.00034808478 0.002602821 0.0007847853 0.0010997613 -0.0006177624 0.00049014774 -2.2455451e-06 -0.0009121303 -0.00029536244 0.003050063 -0.0017827168 -0.0011286583 0.0020190424 0.00327384 0.0007735436 0.00016744481 0.000771031 -0.003239491 3.1544503e-05 -0.0011914436 -0.0005895464 0.0016056381 -0.0005355345 0.0010700311 0.0011213402 0.0018862233 -0.00021492224 0.0003171873 0.00027725406 -0.0013179067 -0.0019185634 -0.0011196288 0.0016260346 0.0015821031 -0.0013926597 0.0006436109 -0.00035376014 -0.00054077373 -0.000110971196 0.0015935578 0.0006844296 0.0015317737 -0.0009013494 -0.00047221105 -0.002238282 -0.0011314101 -0.0011891034 -0.0018629106 -0.0018950704 -0.0006040157 0.0017343224 -0.0006896382 -0.00086948025 -0.0016728868 -0.00090199657 0.0021931822 0.00024192045 0.00013317868 0.0021285992 -0.00021529355 0.0030752448 -0.0016471096 0.0014434444 0.0025533726 0.0020270867 -0.0010869084 -0.001868542 0.0027398844 0.00030117435 0.0012859475 -0.0001851363 -0.0011784448 0.0016923646 -0.00060910237 0.001350475 0.0017909062 0.0006263005 0.00054277905 -0.002750615 0.0012460111 0.00022196368 -0.00022075463 -0.0018613692 -0.0010052403 0.00023694322 -0.0010307492 -0.00025075622 0.0020648497 0.0013341535 -0.0004263237 -0.0010333165 0.0014821087 -0.001248033 -0.00039608654 -0.0019353486 -0.0004898283 0.0012019972 -0.0014883383 -0.0015801948 -9.812475e-05 -0.0012325578 0.0005949992 -0.0035005095 0.002218375 -0.002551901 0.0022877313 0.001124286 0.00021203847 -0.000551796 0.0027662704 0.001548613 -0.0010838795 0.0019544372 -0.000673756 0.0023395089 -0.0012542591 -0.0016738904 -0.001479749 0.002400608 0.0018941207 0.0019910752 0.0020045515 -0.0010408058 0.0033249154 0.00031923 -4.2516513e-05 -0.00090374355 0.00075198204 -0.0021759588 0.0022929304 -0.0006674127 -0.00039107766 0.00053553225 -0.0021551594 -0.00049214676 0.0020582813 0.00012660726 0.0013434492 0.0012689923 -0.00022348778 0.0012636381 0.0015087352 -0.0013089153 0.0019049124 -0.00039243922 -0.00044779005 0.0012478671 0.0024411622 -0.0018449961 -0.00013479791 0.00030795496 0.0022895904 -0.002264482 0.0005407399 7.984283e-06 0.000899296 0.0016556897 -0.0015797482 -0.00032549506 0.002319121 0.0024182317 0.0006466981 -0.0003447645 0.0013347949 -0.00011790096 -4.6200395e-05 0.001237634 -0.0014956548
בחוץ -0.0014371596 -0.00088701973 0.00096811884 -0.0009709094 0.0005951556 0.001486849 0.0008785974 -0.0011144506 0.0014274714 -0.0012771146 -0.00021242557 -0.0005989681 0.0016730231 -0.00012516578 -0.0011395488 0.00024570347 -0.00029745995 0.00078758935 0.0013753267 -0.000662898 0.0019476981 -0.0005362979 0.00028385335 0.00058593135 -0.0012249362 -0.0020195176 0.00060608954 0.00055863487 0.0004081547 -0.0010984174 -0.00074868783 0.00039157656 0.000869893 0.0007149423 -2.7758404e-05 0.0006467942 -0.0012951571 0.0004306583 -0.001478232 0.0001426966 -0.0014594092 -0.000807852 -0.0004102434 0.0015838149 -0.001788922 0.00079553365 0.0006062118 0.00028638882 0.0006825118 0.0009773681 0.00069873966 -0.00023700707 0.00013629302 -0.0013122776 0.001077133 -0.000627784 0.0011298453 -0.0007316059 0.0013214049 -3.49012e-05 -0.001503735 -0.00097058265 -0.00029022293 -0.00075668783 0.00024773015 -0.001708029 -0.0007518301 -0.0018950948 6.0278773e-05 -0.00093338935 0.0013563796 0.0017397908 5.592714e-05 0.0011819575 0.0016067857 -0.0013628341 0.00042145772 0.0015505123 -0.00096726674 0.0002129734 0.0007793188 -0.0013639021 0.00064061454 0.0014983256 0.0012624932 0.00012970246 0.00074234436 -0.0013444202 -0.00018612605 0.0012349578 -0.0011267771 -0.0014216357 -5.4614226e-05 -0.0007007727 -0.00044830292 0.0003643004 -0.0009132289 -0.0013317912 0.002000421 0.000424 0.00094784977 0.00042198377 0.0001638054 -0.00042656067 -0.001492318 -0.000820306 -0.00021168831 0.0009832736 0.0014036288 0.0012309551 -0.0016002085 -0.0009867911 0.0008194592 0.00037245936 0.00041792876 -0.0002925346 -0.00070053054 0.001282099 -0.001058701 -0.000117324416 -0.00071619585 0.00090535247 0.0014261286 0.0012192287 0.00030995553 0.0018600118 0.0011919907 -0.0014137591 0.0005069022 -0.0011516182 0.0016664779 0.001603114 -0.00073152344 0.0015202587 -0.0005587518 -0.0009623764 0.0007137291 0.0006293768 0.0009887451 -0.00083523145 -0.0014493981 -0.00040755776 0.0010875986 0.0007020823 -0.0012010724 0.0021220187 -0.0010003023 0.0015889704 0.00041837056 0.00028646493 0.00021122611 -0.000453035 -0.0014663215 0.00010468931 -0.0012295328 -0.0009045883 -0.0006988073 0.0018574238 0.0008791556 0.00017855466 -0.00091899995 -0.000990048 -0.0018987376 0.0011205658 -0.0002765764 0.0005391792 -0.001996087 -0.0014631619 0.0009083235 0.00023886423 -0.0017176892 -3.440023e-05 -4.537101e-05 0.00033252063 0.00025362914 -0.0002449793 -0.0018173623 -0.00033085534 -0.00092222006 -0.0001867057 -0.00083125633 -0.00082649646 0.0009251188 -0.00060170185 0.00035217789 0.0011678844 -0.00083513046 -0.0003565053 0.0010674155 -0.00029452916 0.0013407443 0.001446698 0.00052830856 0.00089002884 0.0013020963 0.0005140654 -0.00042347843 0.00090525416 -0.0014630104 -0.00034721568 0.0013465516 -0.00067100057 0.0008502873 0.0009927213 -6.491669e-05 -0.0011776726 -0.0010529278 0.00066565763 0.0007022133 0.00054147665 -2.2360505e-06 -0.00040408585 0.0005451472 -0.001172432 -0.0013336153 0.0014599458 0.0008675961 0.0010777261 0.0008217365 -0.0006667161 0.0019142175 -0.001967275 0.0016471536 -0.0016728945 -0.0023296634 0.0013180077 -0.00038142814 -0.00060062273 -2.5719542e-05 0.0015017738 -0.0015923531 -0.0008548685 0.0010893559 0.0008220473 -0.0015813139 0.0010351704 0.000295845 0.0013796061 5.7870828e-05 0.000704647 0.00106043 -0.0010315578 -0.00094868755 -4.4098946e-05 0.0016792612 -1.2597798e-05 0.00094639225 0.0016181727 -8.783909e-05 -0.00034279143 0.0010547596 0.0009542406 0.00077818957 -0.00015840166 0.0011109816 -0.0004938542 2.3978673e-05 0.0013774411 -0.0014706827 0.0013469337 -0.0019596694 0.0012643455 -0.0005971575 -0.0013393785 0.0007645128 -0.0007094397 0.0003373026 -0.0012324566 -0.0010660203 0.0006092759 -0.0014778257 -0.0007066515 -0.0011947665 -0.00069371925 -0.000618287 -0.0010897112 -0.00012887908 -0.00037983735 -8.0659825e-05 -0.001154659 -0.00019488133 -0.0009435595 0.0015015353 -0.0011241885 -0.00010764561 -0.0012326363 -0.0002488892 -0.00075775216 -0.0010777696 -0.00028417032 -0.0014923317 0.0019838454 -0.00039951917 0.0018336804 0.00074017857 -0.0005111744 0.0012688981 -0.00054219284 0.002030953 -0.0008530771
מה 0.0016872755 0.0006530276 -0.0012115781 -0.0008654026 0.000106411186 0.0003271879 -0.000111466186 -0.0012036561 0.0006080524 0.00023040765 -1.7214716e-06 0.002681055 0.0011824087 0.00043494394 0.0012218561 0.001898468 0.0011707741 0.0007224812 0.0008784065 0.0014028053 0.00039325308 0.0005680421 -0.00048048786 0.0016584414 -0.00073397474 -0.0010970016 0.000249696 -0.001115668 0.000114573406 -0.00059301686 -0.0015972811 -0.00079559034 0.00064353895 0.0017149837 -0.0007083406 0.0013470313 0.00013052132 -0.00062793185 -0.00019713731 -0.001745259 -0.002082714 0.0009083568 0.00025663228 -0.00020297137 -0.0017628124 0.0017260211 0.00072608417 -0.0013146132 -0.0010963713 0.0013172867 -0.00012855398 -0.0008543074 -6.8126275e-05 -0.0014975041 -0.0015180589 -0.0016314569 0.001266273 -0.0003555746 0.0008820828 0.0012066566 0.0014557883 -0.0009794573 -0.00062680244 0.001113987 0.0011427552 0.00045216433 -0.0009710476 -0.001261143 -0.0020081494 0.001378778 0.000647472 0.0014553574 -0.00056533015 0.0002852074 0.0008352843 0.0007446201 -0.0016526193 0.001675089 -0.0013055752 -0.00020518542 -0.0004536455 0.00167105 -0.0014082151 -0.0015474525 0.0012447868 0.00015925804 0.0006590324 -0.0023617272 0.0009610073 -0.0013695793 0.0015174261 0.0012903354 0.00022606067 -0.0006002368 -0.00018265752 0.0015682683 0.000767425 -0.000895218 0.0013145427 -0.0008526238 0.0004295355 -0.0017446878 -0.00248089 0.0026372082 -0.00087855925 0.00025137243 -0.00032694044 -0.00063895 0.0012950738 0.0007437114 -0.0011471453 -0.0016515924 0.0026183396 -0.0007569532 -0.0011534748 -0.0011253092 0.0014072472 0.00028493514 0.0022215613 -0.0004333451 0.0010421209 -0.0017708311 0.0010818352 0.0028103099 0.00028469553 0.0018430626 8.510145e-05 0.0013988888 -0.0021429353 0.0011231015 0.00025515433 -0.0007439313 0.0015222613 0.0009875905 0.0004253903 2.1588601e-05 -0.0029978934 0.00089139875 -0.0019499408 -0.00017856079 0.00025069976 0.0026651926 -0.0011183064 -0.00057481084 -0.0013393619 0.0016674862 -0.001074036 5.1657946e-05 0.00041475508 -0.0020632276 -0.001494738 0.0007758839 0.001785681 0.00028297518 0.0013891398 -0.00054385676 0.0012287815 0.00026614376 -0.0007016939 0.0016980575 -0.0013390387 0.0011486365 -0.001182657 -0.0014607989 0.0025102391 0.003491247 -0.0024527218 0.00043169115 0.00023121238 -0.0021859705 -0.0017301617 -0.0005141968 -0.00042899756 0.0010325089 -0.0009966951 -0.00010390707 -0.0018726916 -0.002239645 0.00148366 -0.0022262642 -0.0008687858 3.797265e-05 0.0006838676 0.0013588781 0.0008036921 -7.011663e-05 -0.0022044173 0.0023603856 -0.0015268956 -0.00022346555 0.0008670039 0.0018978895 0.0020228834 -0.00069120043 0.0004706174 0.0012068006 0.00015605918 -0.0016476503 -0.0001657932 -0.00015549902 -3.5632685e-05 0.0012543914 0.0014927278 -0.00018307447 0.0016104069 0.0010372535 -0.0008917649 0.0008551966 0.002005546 0.0010944484 -0.0010223875 -0.00034762 -0.0005778833 -0.0016259877 -0.0012267126 -0.001232489 -0.0015531873 0.00016019895 -0.0007899382 -0.0006225611 0.0011868742 -0.0023002736 0.0017855522 -0.0016180627 -0.0019530755 0.0008765993 0.00084668293 0.0022277662 0.00073381106 -0.00036839183 -0.0014356811 -0.00014503987 0.0006204938 0.0018628613 -0.0032959527 0.0020952153 0.0001712709 0.0022303916 0.0017987841 -0.0013961171 0.00016077067 0.002133332 0.00065003196 0.0006739808 0.0013480692 -0.00036147406 0.0015994137 0.0015516707 -0.00031782992 0.00029208406 -0.00029651634 0.0008851012 0.0021946079 -9.467491e-05 0.0009099882 0.0017641908 0.00085027685 0.0012770372 1.1422871e-05 0.0012414568 -0.001964851 0.0016332713 -0.0011120273 0.0017322539 0.00094022317 -0.0017888309 -0.00075384043 -0.00025462746 -0.0008980834 0.001003681 0.000979691 0.00026868994 -4.216863e-06 0.0006186275 -0.002078521 -0.00087600236 -0.0009767509 -0.0010733192 -0.0005024871 -0.00086062134 2.4588697e-05 -0.00020395509 0.0008402162 -9.159936e-06 -0.0011712728 0.0016039928 0.00045860658 -0.0010576955 0.00012646266 0.0003259977 -0.00044522778 0.0011134503 0.0015440125 0.0013961969 -0.0008967541 0.002409878 -0.0018576252 -0.002262063 0.001725169 -0.0006884147
הולכים 0.0016050854 0.002156255 0.0008619013 -0.0015382987 -0.0006295181 -0.00043377257 -0.0018183168 0.0006013126 9.766113e-05 0.00035929546 0.00065186573 0.0005996666 0.0021480364 -0.00029505265 -0.0005813545 0.002474532 -0.0013278811 0.001504195 -8.6443856e-07 0.0013761161 0.0019546002 0.0015343338 -0.0014324964 -0.00097225927 0.0005174124 -0.0015741081 0.0001596186 0.0011348699 -0.0011340117 0.0006277237 -0.0011484638 -0.0014449782 0.00044297305 -0.0010512101 0.00070405315 -0.0013473422 0.00050129415 0.00035782138 -0.0011899987 -0.0011630541 -0.0025038572 -0.00034941695 -0.0012627108 0.0011506644 0.0006469094 0.0013143946 0.0010526899 0.00051119877 -0.00031841002 -0.00056604884 0.00055064185 0.001847336 -0.00017480734 -0.0004533322 -0.0014510016 -0.0013831522 0.0015983112 -0.0017179538 -0.00058270904 -0.0001042201 -0.0006926026 0.0020740305 -0.0011478146 -0.001123697 0.0010456862 -0.0002195125 0.00047007104 0.0006658651 -0.0018814397 0.00053883635 0.0013755996 0.0018323188 -8.5806554e-05 -0.00018744708 0.00080821716 0.0013771892 -0.00023362841 0.0007007658 -0.0009981389 -0.001674793 -0.0007464543 0.0010379056 -0.00049590715 0.0013046359 -0.0013196453 -0.0008369983 0.00074705295 -0.00044324482 0.0008699993 6.997491e-05 0.00022168891 0.000327154 -0.0012152807 0.0010339015 0.00050844485 0.0018884073 0.0014497824 0.00074066274 0.00086609076 0.0011303469 0.00080684916 0.00084105716 -0.00050795154 0.0011823568 0.0014410855 0.00063984824 0.0005404032 0.0010215428 -0.0010752507 0.00030509187 -0.00021852451 0.0014169771 0.002378819 -0.00021045591 0.00030475584 0.0015828407 -0.001058046 -0.001191473 -0.0010350248 0.00040839548 0.0005825852 -0.0022917462 0.001284695 0.0020738167 0.00040375593 0.0019335371 9.8633085e-05 0.0014733193 -0.0010251368 0.001363148 0.0017530535 -0.0007881477 0.0011952859 8.4391024e-05 0.00013993717 -0.00082374766 1.2181282e-05 0.00088798086 -0.0015040601 -0.0011422671 -0.0018219021 0.0012602824 0.0015447484 0.0012044444 -0.0010077654 0.0025740806 -0.00027979544 0.00048628516 0.0013621704 -0.0006179331 -0.0014445243 -0.0010136752 -0.001204249 0.002336341 -0.00092474924 0.0018394822 -0.00081660313 0.0012708089 -0.0007242945 -0.0005124213 -0.0014291626 -0.0011561702 -0.00035156915 -0.00030521047 0.0007880552 0.002670672 6.9767026e-05 0.0015900225 -0.0020212643 -0.0014616343 -0.0015128158 0.0024764456 -0.0011551254 -0.0013814169 -0.0012573701 0.0011029255 0.0003274042 0.00024415622 0.0016399672 0.0009673798 -0.0005338039 0.0008803219 -0.00048663784 0.0015562989 0.0010438715 0.0013739018 -0.0011325295 0.00074856455 -0.0007976083 0.00028601245 -0.0009554654 0.00058990344 0.0021005154 -0.000642922 -0.0007523979 0.0011168547 0.0018988117 -0.00062490965 0.00043312326 0.00085356453 0.00024717924 0.0009524923 0.00038001876 -0.00024255614 -0.00033122615 8.2585415e-05 0.0009519743 0.0015354069 0.00021578252 -0.0014287859 0.0008085735 0.0020050844 0.000114147406 -0.0009848354 -0.0017164083 0.0017089022 0.00074995484 -0.00064422644 -0.00026000978 -0.0004989215 0.0008335051 -0.0010077518 -0.00074488705 0.0013767076 -0.0019377425 0.00039005282 -0.001709617 0.0011315098 -0.00015960044 0.0013997041 -0.0011862628 0.0010644578 -0.0007071049 -0.0005401286 -0.00037265467 0.0016635386 -0.0004400795 0.002096029 0.00078206655 -0.0002799514 -0.0009687696 -0.0007200109 -0.00077968085 -0.001342434 0.00012352828 0.0016708276 0.0017352669 0.0007534703 -0.0010319086 -0.00085857796 -0.00081545324 -0.00066044886 -0.0008803601 0.001336201 0.00037296617 0.00013756787 -0.00083021366 0.00045149136 0.0011227262 -0.0012776377 0.00051591976 0.0010179122 0.0014432338 -0.0012363899 -8.663415e-05 -0.002091234 0.0007721413 -0.00017609303 -0.0015543057 -0.0005574395 0.00095041015 -0.0009738451 0.0010541115 -0.0007487336 -0.00014967995 0.00026396205 0.0013996126 0.0008356644 -0.00018980923 0.0021371932 0.00090953684 -0.0020590986 0.00018791924 -0.0006333694 -0.0002643283 0.00018205192 -0.00017268301 -0.0016613943 -0.0016901158 0.0013982031 0.0015755235 1.4116456e-05 -0.0003503774 0.00034714112 0.0014649585 0.0003118631 -0.00027876627 -0.00083214283 0.00063581625 0.0006497508
בלובי -0.0011630207 -0.00037283186 -0.0004219211 0.00089911866 -0.00083410356 0.0010253623 -0.0011591574 0.0012073662 0.0009864334 0.0015195365 0.0015597811 0.0017720072 -0.0010090737 -0.00106781 -0.0006906979 0.00083133864 -0.0006725544 -0.00043159703 0.00039263262 0.00079838495 0.0019202491 -0.00059553166 -0.0020507902 0.0003616445 0.00026912836 -0.0016101712 -0.0018000959 0.0010813237 -0.0008098176 -0.0013342109 0.0006936012 0.0010981528 -0.0005719368 -0.0013230403 0.00047198404 0.0014191684 0.0009359103 -0.0013583843 -0.0013928665 -0.0002601588 0.00041498453 0.00026705675 -0.00046552863 0.00075025106 -0.0007727308 0.0014327926 -0.001514087 -0.0018680989 0.00081312726 0.0012078825 -0.00063789997 0.00067662593 0.0010119228 0.0010761963 0.001023213 -0.0006533051 0.000744129 0.00046827554 8.975218e-05 -0.0014898877 -0.00011723277 0.00017979663 -0.00087432825 -0.0014730499 -0.0003275535 0.0009156719 -0.0010417763 5.8101036e-06 -0.0018207005 -0.0008846029 0.00017205451 0.0013232026 -0.0010148061 -0.0014852798 0.0012895197 -0.0007041489 -0.0016581948 0.0006547606 -0.0013952116 -0.0021742145 0.00046070167 -0.0011212882 -0.0006478567 0.00020424709 0.0014539276 0.00085008866 -8.2065424e-05 -0.0009997343 -0.0005636843 0.00015937423 0.00051924284 0.0015269497 -0.0008249812 -0.00041664697 -0.00034740535 0.00048900663 0.0010726298 0.00046793657 0.0014433236 0.00037891988 -0.0017918128 0.00093541865 -0.00018286909 -0.00018641622 -0.00014915699 0.0010839656 0.0008167897 -0.00037917358 -0.000768629 0.0006383336 0.001296359 -0.000575356 -9.9518074e-05 -0.00082226295 0.00024876406 0.0012629513 -2.2491087e-05 -0.000643198 0.00090258504 0.0010183934 -0.00053524657 -0.00073428726 0.00085501745 0.00038465654 -0.0008077083 0.0017191005 -0.0004060412 0.0015129857 -0.00017117927 -0.00020997583 0.0002350198 0.0013940481 0.0019018541 -0.00035059082 0.00124672 0.0012339386 -0.0009296578 0.0010993456 0.0011501965 -9.6901036e-05 0.0009511296 0.0004992493 0.00059592555 -0.00041635253 -0.0009525965 0.002256756 0.0014562024 0.00047719083 -0.00019608546 -0.0008433594 0.0014033001 0.0010085297 -0.0010326228 0.0008402214 -0.0012628878 0.0014245068 0.0010816938 0.00021505707 0.00024380279 0.0017022839 0.00084394787 0.00013072976 -0.0018908432 -0.00087041757 0.00023654698 0.0017041605 -0.0015551879 -0.00039087338 0.0010971603 -0.0010020692 1.0729639e-05 0.0014290843 0.00089322275 0.0011086182 -0.0012912899 0.00044044145 -0.0018424763 -0.00019439631 -0.0009363776 -8.6522065e-05 -0.0017971498 -0.00037131534 0.0013080377 -0.0014389558 0.0015812177 -0.0009324849 0.00042089153 0.0009320112 0.00038037036 0.001088525 7.142896e-05 0.0016677439 -0.00022341247 0.0013468411 0.0016420006 -0.0011577914 0.00027605705 -0.00088111684 0.000628439 -0.00052780577 -0.0010784857 0.001876943 -0.00050055626 -0.0014397815 -0.0010502937 -0.00040261942 0.0014525645 -0.0015465141 0.0002821384 -0.00079897017 -0.0014658949 -0.00086601294 0.00075813493 0.0009323464 -0.0017898264 0.0004594133 0.0014168528 -0.00015648441 0.00038360522 -0.0010350052 0.0012819013 -0.00047514058 -0.0013892862 -0.00021423599 -0.00029524267 -4.2222535e-05 -0.0010283322 0.0009912674 0.00017199916 0.00074149127 2.0717944e-05 -0.0010706357 -0.00042948424 -0.00027962003 -0.0006178699 0.00011154664 -0.002061034 -0.0009907299 0.0014746889 -0.00022124757 -0.0017808276 0.0005520838 0.0011136672 0.0006799142 0.0015052474 -0.0012533955 0.00022952567 -0.00042744927 0.0012128594 0.0008787831 -0.0012043332 0.00051751273 -0.001061896 -0.00027146598 -0.0002968973 0.002028581 -0.0002488448 0.0010220432 -0.0010952783 -0.0015835359 0.0011939638 0.001448131 0.001033624 -0.0010218637 -0.0007620913 -0.0019148395 -3.7031867e-05 4.4227425e-05 0.0011049901 -0.0014050652 -0.0017668456 -0.00057324494 -0.000100141646 -4.8514714e-05 0.00071295106 0.0017043026 0.00033133433 -0.0016598498 -0.0014039174 0.0014335463 0.0003306518 -0.0011340481 -9.4384395e-06 0.001587717 -0.0014153505 0.0010467521 -0.0008267675 6.1414526e-06 0.00096039526 -0.0007732921 0.0011799653 -0.0012746017 -0.00014323376 0.00032314545 2.0155381e-05 0.0015518148 -0.001922365 -0.0011671273 0.0014607686 -0.00047915007
היום -0.00029974384 0.0028928362 -0.0007033771 0.0008955231 0.0020451578 -0.00039429404 0.0009614749 -0.0011515036 0.00039445868 0.0015172377 -0.00037373436 0.00043494324 0.00290456 0.0011095314 0.0005315693 0.00231385 -0.00030332655 0.001712525 -6.714308e-05 -0.000132114 0.0006130268 -6.8465095e-05 9.057396e-05 0.0026952666 -0.0006532088 -0.00087293074 -0.00034510507 0.00090073823 -0.002834487 -0.00016583405 -0.001650412 -0.0005714066 -0.0020897794 -0.0011751094 0.00095408224 -0.001383426 0.0010585039 0.0011114484 -0.0027079738 -0.0008712411 -0.0010520522 -0.0007848432 0.00055262545 0.0004861199 -0.000455803 -0.0006422178 -0.001217377 -0.0022719929 0.0010165671 -0.000990412 -0.0030986206 0.00026792762 -0.0008822148 0.00015898331 -0.002511307 -0.0028139048 -0.001616309 -0.0017235344 -0.0010243183 4.1588788e-05 -0.0003088649 0.00014464794 -8.719944e-05 -0.00010196278 -0.0014241 0.00044486157 0.0014245568 -0.0008778291 -0.0027761646 0.0013727699 0.0008786892 0.0022906093 -0.001942825 -0.00014197387 0.00040346113 0.0014350569 0.00055433495 0.0016284975 -0.0005954389 -0.0011808613 0.0014374957 0.0015011777 -9.861953e-05 -0.00088022527 -0.001094569 0.00024107286 -0.0009588875 -0.0018660134 0.00088928256 0.0013895002 0.0018153081 0.0015494569 0.00056304963 -0.00032939872 0.00060233794 -0.0011100288 -0.000937116 -0.001892635 -0.00046572197 -0.0021709881 -0.0019156832 0.00015423409 -0.0016838996 0.00028270567 4.4440018e-05 0.0011982858 -0.003422657 -0.00058905553 -0.0013482783 0.00031967147 0.00013900251 -0.0018723982 0.00072741765 -0.0016216264 0.00077132345 0.0016196104 0.00019142212 -0.0022160024 -0.0001048978 0.0006478516 -0.0007943786 2.0349271e-05 -0.000819652 0.0034662355 -0.00045573004 -0.00022370745 0.0015874504 5.159995e-05 -0.00341477 0.0011511734 0.00076224835 0.00048173906 0.002441439 0.000695878 0.00120167 0.00017222736 -0.00090965827 0.0011181197 -0.002520465 -0.0007766696 -0.0022678287 0.0002020024 -0.0014933359 -0.00092346396 -0.0006454379 0.00376597 0.0021203235 0.0016929592 0.00092800177 -0.00010560405 -0.00070717203 0.00020016618 -0.00041567112 0.002414185 0.0017601054 -0.00023556642 1.8908613e-05 0.0022104718 0.00069335924 0.002092043 0.0011072009 0.001672019 -0.001989852 8.412134e-05 -0.00040700685 0.0020251817 -0.0015372067 0.00015374405 -0.0020901617 -0.0015678013 -8.115434e-06 0.0005594492 -4.7597994e-05 0.0009889952 0.0019537606 0.0002859768 -0.0031251549 -0.0008830903 0.0015904484 -0.0024801304 -0.0016325293 0.00084081484 0.0020059857 0.0012373668 -0.0013261433 -0.00083086593 -2.7726162e-05 0.00253029 -0.0023771462 0.0024913393 -0.000912123 -4.1946398e-05 0.0017894419 -0.0004909624 0.0018010276 0.0018030687 -0.0007396307 -0.00063485623 -0.0017429423 0.0004787318 -0.0009951543 0.002442287 0.0003243004 0.0004711769 1.3243677e-05 0.0006800801 0.00041546286 0.0014190137 0.0022127905 0.0005608535 -0.0015173067 -0.00062666705 0.001507882 -0.0029233033 -0.00040670825 -0.00036172877 0.0003132057 -0.00052897877 -0.0012758087 0.002318098 0.0033347334 -0.00071963464 9.4232295e-05 0.00073893636 -0.0011172385 0.0011706209 -0.00121307 0.00083870895 0.0013108273 0.00012282834 -0.00022400201 0.0019668331 0.0014391922 0.0006303953 -0.00096012634 0.0017328605 -0.0020550087 0.0025851193 0.0009782052 -0.0014886119 -0.0018273891 -0.00034973066 -0.0008197146 0.001692347 0.0006542045 0.00079332717 0.00157469 -0.00058543636 -0.0011330476 0.00044680978 -0.0005698288 0.00035561618 0.001135232 0.002593382 -0.00078703713 0.0036732575 0.0007207381 0.0001894511 0.0016776423 0.0015399405 -0.0018889023 0.00223939 0.0010827526 -0.0014923903 0.00082692964 0.0004055953 -0.0012275543 0.00060411985 -0.00094040507 -0.0009922903 0.0005059783 -0.000786393 0.0004305826 0.0008983441 -0.0018023615 0.0010469663 0.0015531026 -0.00077540055 0.000670981 0.00066840486 0.00023963288 -0.0034838787 0.002644925 0.00092648575 -0.0026339204 0.0015387092 -0.0008863902 0.0014372743 -0.0012403929 0.00047582528 -0.0010287814 -0.000376767 0.0027228945 0.0008560024 -0.00036750795 0.0014561862 -0.0024940453 -0.002444086 0.00060077646 -0.00047276635
עם 0.0002300446 -0.0005437838 0.0010286715 0.0011421434 0.0006395021 0.0007707751 -0.0019420983 -0.0020339724 0.0015982268 0.0019539378 -0.00043517712 0.0020952695 -0.00034518607 0.0029143712 0.00060950767 0.0004944545 -0.0015269391 0.00016311437 0.0012046495 0.0016655647 0.0010879642 -3.2672826e-06 -0.0020358916 0.0019471346 0.0002109691 -0.0021107085 0.0009068694 0.0005343119 -0.0020222652 -0.00016569589 -8.959631e-06 -0.0009710376 -0.0021327473 0.0006835949 -0.0013528287 -0.0012130211 -0.00041179854 0.0021537165 -0.0005095779 -0.00029579594 -0.0026822295 -7.762279e-05 -0.00050269935 0.0009814362 -0.00025253248 -0.0008885104 0.0008246352 0.0004068775 -0.0012470025 -0.0012055611 -0.0023322604 0.001778602 -0.0009292626 -0.0015304292 -3.27391e-05 -0.0014335621 0.00034640724 0.00124804 0.00079055567 -0.00024424682 0.00060965266 0.000845786 0.00175346 0.00017391436 -0.0006067791 -0.0019783871 0.001514539 0.0001147021 -0.002327863 -0.0014156254 0.0009404135 0.0019170265 -0.0012141546 -0.0014273343 0.00060041895 -0.0002790146 -0.0016154475 -0.00015810017 -0.0032325205 -0.0025450243 0.0013108356 0.0011053032 -0.00020759435 -0.0003766835 0.0018308896 0.0001778373 0.00010031133 -5.8188747e-05 -0.0007880793 0.0008164322 -0.0006130014 -0.0012839668 -0.0003911138 0.0007493662 3.9632025e-05 -0.00031852548 0.0004072434 0.0009071654 0.001906627 -0.0017288675 -0.0012276957 0.00041815234 -0.0012789622 0.0019289784 -0.0014506949 0.0017936192 -0.0031214927 0.00037709568 -0.0021453095 -2.4142266e-05 -0.0024263528 -0.001281684 0.0022027008 -0.00033791465 -0.0018748217 0.0019883749 0.0013590642 -0.0014992355 0.0020563141 -0.0020816508 -0.0009078222 -0.001410907 -0.0006918119 0.00046274788 4.831316e-05 0.0017904943 -0.000768546 0.00036282308 -0.0014645094 -0.00092904223 0.0014040613 0.0009639587 -0.0007544107 0.0005473742 -0.00093260437 0.0007021417 -0.0010126102 -0.00083647436 -0.0019850438 -4.9343016e-05 -0.0025386023 0.0019416006 -0.0009692179 -0.0014548261 0.00095277117 0.0024589207 0.00042967297 0.0019712585 -0.0004973949 -0.001507917 -0.000981486 0.00067721383 -0.00039540653 0.00075041794 0.0013384498 3.308116e-05 0.00057814264 0.0031371166 0.000743148 0.0020012099 0.0010728958 -0.00087810925 0.0007265005 -0.001499079 -0.00020473394 0.0018634057 -0.00032070608 0.00081540376 0.0006047458 -0.0014391659 -0.00017387087 0.001915044 -0.0017704263 -0.00016777928 -0.0011557679 -0.0002865307 -0.002538695 -0.0020212352 0.0006911853 -0.00058594777 0.0010951317 0.00035323558 0.001412063 -0.00043196828 -0.0002691804 0.00019867836 0.00044055164 0.0019986203 -0.001114434 0.0011996839 -0.0010844255 0.0009751164 0.00043674934 -0.000905529 0.0002570258 0.00036188195 -0.00062359916 0.0009194273 -0.00094161084 0.00028541527 -0.0012761063 0.0010636324 0.0008103208 -0.0007494488 -0.00017176234 0.00042418667 0.0008173648 0.0009984411 4.2983513e-05 -0.0018156656 -0.0024924055 0.0021946395 0.00038622314 -7.5782096e-05 -0.0021901673 0.0010672201 -0.0021556565 -0.0005459737 0.0008423847 0.0009737564 0.00030649448 -0.0022898754 0.00062154117 -0.00033147528 -0.002513866 -0.0011182633 -0.0014660946 -0.00048896676 0.0015572644 0.0010843442 0.0004123954 -0.0005425496 -0.00028314238 0.0020061545 -0.0016773471 -0.0010074716 -0.0028946649 0.001127826 -0.00050306186 0.00022658694 9.286169e-05 0.0019390259 -5.217897e-05 0.00082104356 0.0022479424 -0.00014916684 0.002909217 -0.0006755367 -0.0018443927 -0.0002529383 0.0014349669 -0.00015196268 0.0010616044 0.0015086427 0.0006520726 0.0026915947 0.00040227905 0.00075338973 -0.0004562414 0.00014817574 -0.002173287 -0.0004213612 0.0012138622 0.0007927987 0.0004276867 -0.0010975014 -0.0008699445 -5.5999182e-05 -0.0014866116 -1.931053e-05 -0.00016662794 0.0010531528 -0.0005008853 0.0017874321 -0.00259527 7.156032e-05 -0.0009858949 0.000523883 -0.0004956475 0.0019386153 0.0007736062 -0.0015891553 0.0011184408 0.0018641939 -0.0027607738 -0.00096827047 0.00070639007 -0.00070106896 0.0010524672 -0.0006034338 0.0008129943 -0.00030218475 0.002005045 -0.0002306857 0.0019303766 0.0021700223 -0.0002233149 0.0005810903 0.0018411636 -0.0012732263
את 0.0017202329 0.0013560007 0.0008949912 -0.00022838962 0.0039484063 0.003135013 -0.0012613487 -0.004187987 -0.0003346324 0.0028988926 0.0014098759 0.0053149327 0.0026711666 0.0047724983 -0.0016245749 0.005958654 -0.00027273997 0.0027081855 -0.0002261964 0.0012113863 0.0006305772 -0.0005765553 -0.004446943 0.00235132 -0.0024942374 -0.0027381205 -0.0012969605 0.00082367804 -0.005530371 0.000612482 -0.0015443168 -0.0012022576 -0.00034285864 0.0015390761 9.4258285e-05 0.0016700865 0.0004329656 0.0013449334 -0.003605656 -0.0055296365 -0.0022744532 0.00060416677 -0.00037371318 -0.000109335 -0.0022696047 0.003007832 -0.00010383569 -0.00040215446 -0.0019122396 0.0022064522 -0.004795088 0.0017707453 -0.002772592 -0.0016405359 -0.0011208422 -0.0018209614 -0.0019114271 -0.00048058195 0.0011518722 0.000203054 -0.0015236846 0.0016897467 0.0016235167 0.0016657436 -0.0017087233 -0.0038789748 -0.0011161786 -0.0009027961 -0.0016782095 0.0004884746 0.0067106155 0.003303973 -0.003336132 -0.0007271347 0.0011902362 -0.0002091056 -0.0018687111 0.0022228973 -0.00470227 -0.004342693 -0.0012895175 -0.0008906494 -0.0021992973 0.00050045265 0.0005899805 -0.0008781434 0.00060489593 -0.0018975633 0.0036309024 0.00065555546 0.0022213825 0.0005602228 -0.003149423 0.0040044216 0.0042255027 0.000336719 -0.0018137344 -0.001970647 0.003191239 -0.00082820223 -0.0032299818 -0.00016488998 -0.004047543 0.002677081 -6.616832e-05 -0.00043425456 -0.004484269 -0.0028609252 0.00037674504 0.0013641354 -0.0034240743 0.00072876323 0.005046103 -0.00196954 -0.00018296886 0.0012805228 0.0020891367 -0.0015020985 0.0013668702 -0.0018684864 0.0032003708 -0.002961998 -0.00020680593 0.00508141 0.00071752485 0.0022660017 0.002071976 -0.0019914208 -0.004327345 0.0013379412 -0.00083528657 0.002025257 0.0034264913 0.0023152696 -0.0016040115 -0.0018534191 -0.0041519743 0.0008250247 -0.003582413 -0.00062070973 -0.0039226366 0.00390756 -0.0008424925 0.0006377293 0.00092762435 0.0048277196 0.0021206706 0.0018063606 -0.0013120845 -0.0029306263 0.0006072138 0.00043758977 0.0016301798 0.0027809464 -0.0010019782 0.00090638344 -0.0006526626 0.0034379729 0.00023965303 0.0007306475 0.000777985 0.0013968146 -0.0008300925 -0.000615439 0.0028694826 0.0055308538 -0.0041139 -0.0009480812 -0.0008194315 -0.00400618 -0.00092880736 0.0031576497 -0.0016149227 -0.0012704311 0.0008611191 0.0013143455 -0.0018978807 -0.005076792 5.744807e-06 -0.0015338155 -0.0009050101 0.00042158487 0.0035198887 -0.0011913154 0.000548948 -0.0022504036 -0.0015418628 0.0030937446 -0.002772105 0.0027647985 0.0002983242 -0.00020780136 0.0038617065 0.0012941541 0.0019265988 0.0006050383 -0.0005151582 0.00013962986 -0.0038856408 0.0028840955 -0.00044675256 0.0017964924 0.0006542597 -2.7320813e-05 0.0007867669 -0.00021292792 0.0037221499 0.0020611142 0.0032025026 -0.0004662818 -0.0025898372 0.0017682334 0.0013722474 -0.003772575 -0.0025313094 -0.0009699636 -0.0004891794 -0.002982762 0.00037373684 0.00071308424 0.004783589 -0.0027556608 -0.00021485632 0.0001136964 -0.003198152 0.000339674 -0.002597406 0.002090093 8.420584e-05 -0.0023149457 -0.0010253576 0.001689001 -0.00093460275 0.004335599 -0.006353902 0.0031283973 -0.0043838886 0.0026680916 0.001330494 -0.004081325 -0.0022078387 0.0034536463 -0.00023702705 -0.001217278 0.00078760803 0.0009629413 0.005505087 0.0005401211 -0.0027274736 -0.0012745986 0.00026336298 0.003700102 0.001546045 0.005758184 -0.0033233908 0.006135358 -0.0010439528 0.0044962703 0.0015305792 0.0010208616 -0.00350318 0.0013529279 0.0019563066 0.0012310453 0.0002139241 -0.0029643802 -0.0012534113 0.0016732407 0.00061196176 -0.0020141455 0.000917109 0.0006749521 0.00037880297 0.004320442 -0.0038151671 -0.0006545985 0.0008675774 -0.0018768841 -0.0011758084 0.0023510656 0.0006042607 -0.0047431123 0.0044616815 0.001733521 -0.0065443222 0.001539393 -0.00027123987 0.0019171702 0.0009413047 0.00050256023 0.00020033348 0.0040216655 0.004197949 0.0023637991 0.00058071397 0.001967335 -0.0027896173 -0.0026368636 0.001319632 -0.0015852958
איפה -0.00062327925 0.0015744354 0.0003084531 0.0011363243 -0.0004660196 0.00032572154 -0.0016716415 -0.00012590611 -5.37454e-05 0.0008845219 -0.0010447325 0.00093319674 0.0013707604 0.0018990119 -0.00054763595 0.0017131465 -0.0003251348 -0.00061536493 -7.841484e-06 0.001475685 0.0009441026 0.0013856421 0.00044746895 0.0019109286 0.00074300775 -0.0013149885 -0.0015643609 0.00085846416 -0.0017597812 -0.000592035 -0.00082214654 -0.0008941076 0.0002543469 -0.000988106 0.0005418248 0.0008848615 -5.1988587e-05 1.254184e-05 -8.387067e-05 -0.0020625407 -0.0016772671 -0.00058559136 0.0014638113 0.0009978395 -0.0017799455 -0.0013364299 -1.6086402e-05 0.00025955486 -0.0009814322 0.0011811256 -0.0011867994 -2.0995929e-05 3.9056937e-05 -0.0017737793 -0.0010374582 -2.0179468e-05 -0.0008180854 -0.00034716044 -0.00068258756 -0.0010357456 -0.0005814724 0.0006877545 -0.0013177429 0.0003941381 -0.00033645064 0.001032892 0.0010909096 -0.0007579703 -0.0016346993 -6.113778e-05 0.0012024805 0.0018333414 -0.00081913633 -0.0005587311 4.438291e-05 0.0010268239 0.00013327929 0.00010607857 -0.0003208384 0.00017632399 -0.00078535103 -0.0009085916 -0.000973201 -0.00034599687 -0.001561673 -0.0016004001 -0.0016779564 0.0009143888 0.0015678016 0.0010348565 0.0007285893 0.00082905486 -0.00037627088 0.00088324316 0.0004987181 -0.0004600576 -0.00014399974 -3.2082058e-05 0.00064744416 -0.001347327 -0.001191356 0.00044807568 0.00070800463 0.0009037962 0.00011882389 -0.00014978081 -0.00025275204 0.00022173839 -0.0011191397 -0.00084949797 -0.0015587112 0.0006189173 0.00087557617 -0.0015045803 0.0011358229 0.001832811 -0.0011006806 0.0011782728 0.00094471226 0.0007735386 -0.00027431155 -0.0012384461 0.0017909601 0.001958128 0.0005433508 0.0004656717 0.0018712106 -0.0010716105 -0.0023416171 -0.0002278813 0.0004127818 9.660032e-05 0.00039712543 0.0016584963 -0.00016295804 -0.0002446875 -0.0001788702 -0.0016201228 0.0009684371 -0.0008313099 -0.0016750302 0.00011759105 -3.7503114e-06 -0.0014649894 0.0016749571 0.0011540875 -0.00023288825 -0.0011239684 -0.0017312332 -0.0017759402 0.00039541908 -0.0011517614 -0.0012637137 0.00024793635 0.0015045983 -0.0011788297 -0.00013105069 0.0018599329 0.0007888993 0.00026726347 -0.0006801999 0.0017436377 -0.001138 0.0008767532 -0.00021521522 0.002343674 0.00046517074 0.0013896353 -0.0012064162 0.00087624777 0.0007368965 0.0014395586 0.0011200168 0.0014045881 0.0007569969 -0.00064535363 -0.0012747305 -0.002175804 0.00086605846 0.00083081896 0.0008238211 0.0004209733 -0.00039791837 0.0015351907 0.000633488 -0.0016439904 0.0005385623 -0.0011945979 -0.0012973965 0.0022476083 -0.0007130487 0.000605345 0.0020553877 5.3329142e-05 0.0005004056 0.0007146171 0.0007231287 -0.000368026 0.00088624423 0.0017322435 0.000214125 -0.0010011967 -0.0014800064 -7.9632475e-05 0.0013980308 -0.0012022125 -0.00022384834 0.0014618002 -0.00016923063 0.0012332231 -0.00045841938 -0.00029144698 0.0009663519 -0.0009193668 -0.0018348148 -0.0005845139 0.0009675482 0.0008119286 0.0012218744 0.0017823961 0.002007315 -0.00022056478 -0.0013024347 0.0006380277 -0.0014548608 -0.0004636383 0.0007962645 0.0009789334 0.0018104399 0.0011188582 -2.514933e-05 -0.0011130339 0.0018084246 0.00033733548 -0.000117412805 -0.00019454553 0.00017016177 -0.00044641987 -0.0005824154 -0.00057396124 -0.00028241595 0.0014451899 0.0008541861 0.00030264456 0.0006588718 -0.0009748425 0.0014863271 0.0001225713 -0.0006339698 0.0011902775 0.0013128392 -0.000874903 -0.00076664553 -0.00047519628 6.090715e-05 0.0019455145 0.0013538445 0.00090458285 0.00084728515 -0.00072143687 0.0003780223 0.000815406 -0.0013182979 0.0012625558 0.00018133371 -0.0013099964 -0.0008298022 0.0014797823 -0.0013322826 0.001512998 -0.0014033003 0.0016960128 -0.0004211931 0.0006017924 -0.0012653908 0.0006734019 0.0009731759 -0.00051358243 -0.0015903423 -0.0010215486 -0.0007588178 0.00020819368 0.00090196973 0.0001504934 -0.0019383449 0.00045212344 -0.0018646129 0.00012829408 0.00080225983 0.0003579501 0.0014515751 -0.00042276518 -0.00092826126 0.0013095576 0.0019129833 -0.000117066775 -0.002074475 0.0012386809 0.0014563913 0.0004442101
בא 0.00023596609 0.0010817077 -9.5436226e-05 -0.00018364095 0.0013926333 0.0008254178 -0.0012129514 0.0006430962 -0.0011588432 -0.00024592024 0.0006604387 0.0012302564 0.0017650716 0.00080764724 -0.0013934367 0.0013554664 -0.0006003009 0.00030193495 -1.210978e-05 -0.00035479444 0.000924563 -0.0012788269 0.00039977272 0.00040363008 -0.00082421297 -0.0023088863 -0.0012874296 0.0005465239 -0.0020317752 -9.257061e-05 -0.0018572962 -0.00088057696 0.00024208649 -0.00074054115 -0.00012226505 -1.2599699e-05 -0.0011034127 0.0013602031 -0.002062258 -0.000567152 2.0144944e-05 0.0015466938 -0.001598911 0.0009256892 -0.00043667754 0.0006673599 0.0013576937 0.0010599385 -0.0015595991 0.0012618214 -0.002347155 -8.3546314e-05 -0.0009861644 -0.0010243203 0.00059489097 -0.00018096856 0.00015995646 0.00030836652 -0.00014715723 -0.0012888665 0.00041230934 6.9421854e-05 0.0014298327 0.0013229938 -5.9786977e-05 -0.00079051225 -0.00033472307 -0.0003048696 3.001072e-05 -0.0014928263 0.002088087 0.0010177767 0.00050854206 0.0001722953 0.000120503944 3.6343426e-05 0.0016173123 -2.7560463e-05 0.00017578047 -0.0019065415 -0.0007983027 -0.00029399243 -0.0013727185 -0.0011005014 0.0014869345 -2.3281498e-05 -0.0011347439 -5.7825906e-05 -0.0003472716 0.00013815108 -0.0006705851 0.00019536263 -0.0004563261 -0.000749603 0.0016009255 -0.0002461627 0.0002698159 0.0008264994 -0.00031544597 -0.0011531233 -0.0013546363 -0.0014632705 -0.00053391466 -0.0006428106 -2.4709856e-05 0.0017448739 -0.0021717318 -0.0019569842 -1.729296e-05 -0.00036836596 0.0011070829 0.0010643643 0.00061334664 -0.0017026208 -0.0014154277 -0.0001270686 0.0015840313 -0.0007246403 0.0020696593 0.0007652428 -0.0010099022 0.0004865326 -0.0008713193 0.0010769711 -0.0010902985 0.0018417955 -0.00050332927 -0.00056741573 -0.0023364476 -0.00038649875 0.0010396306 -0.0004032865 0.0005601083 0.0004564815 -0.0006119591 0.00010465223 -0.0014769883 -0.00073742843 -0.0001870393 -0.0014606958 -0.0017893288 0.0012654754 -0.0013939821 0.00078290666 0.0015382549 0.0006321715 4.7682603e-05 0.0015114181 -0.0009014406 -0.0018126775 -0.0002192925 0.0016162039 -4.3872595e-05 0.002047297 0.001408778 0.00011731311 -0.0002924638 0.0011189071 -0.00047912326 -0.00025983359 -0.0011836287 -0.0009786701 -0.00073956524 -0.0011565582 0.0014421437 -0.00061198283 -0.0010795229 0.000114461385 -0.0014653296 -0.0006052327 -0.0016743488 0.0018604525 -9.438783e-05 0.0016507342 -0.00040276462 0.00030858564 -0.0019831348 -0.0011465328 0.0015003548 -0.001362807 0.0010155351 -0.0013877475 -0.00051928614 0.00018381188 5.6814693e-05 0.00050032325 0.00029040224 0.0006380773 -0.0012219859 -0.0006141613 0.0002877676 0.001411472 0.0018298489 0.0010423814 -0.0014716026 0.0018868207 0.0002901672 0.000830818 -0.0019279711 0.0002047335 -0.0010825151 -0.00075432536 -0.0012931124 0.0013435226 0.0013544254 -5.3220043e-05 0.0012382218 -0.0013696532 -0.00044603588 0.00055476476 -0.000716494 -5.3542622e-05 0.0008450724 -0.00019688932 0.0011372844 -0.0010503591 0.0011305913 0.00074842194 0.0016118112 0.0006313464 0.0004864988 -0.0015499047 0.0015824343 -0.0011530515 -0.0013811043 0.00078269956 -0.0021760091 -0.00067463896 -8.0315995e-06 0.00058686506 0.0007355215 -0.000889152 0.0014951574 0.0014039321 -0.001065897 0.0018450641 -0.0017774254 0.002036169 -0.0011497618 -0.0011597055 0.0004617781 0.0010012157 -0.0017069773 -0.00039369994 -0.00073780486 -0.0009133943 -0.00048115064 0.00044128456 -0.0002180186 0.0008661836 0.00012450929 -0.00044550473 0.0016486782 0.00017808736 -0.00074417196 0.00028050295 -0.0016677089 0.0017905495 0.00034338312 0.0010745212 0.0005638259 -0.00074361556 -0.0013701699 -0.0010149584 0.0015222705 0.0011269611 -6.0866856e-05 -0.0009812304 0.0008468476 -0.00011712495 0.0006547446 -0.0015663989 -0.001533089 0.0020153814 -0.0017641073 0.00054507423 0.00136125 -0.0015149716 -0.0012121665 0.0018988627 -0.0007377166 -0.0025265233 -0.0001787404 -0.00043632695 0.00026007704 -0.0004606344 -0.00077484956 0.0008446159 -0.0011441911 0.0014243942 -0.0009832128 -0.00044610398 -0.00023197453 0.0016590691 0.0014625354 -0.00055869477 -0.00018688179 0.0006152796 -0.0012000568 0.0011922369
ליאור 0.0016624597 0.0009902435 -0.000322101 0.0010678621 0.00222407 0.0012882751 -0.0018674325 -0.001652093 -0.001569386 0.0012822744 -0.0010293672 -0.0002101953 0.0021571964 0.002454809 -0.00094192335 -0.00022108437 0.001044968 0.00044244734 -0.00031409864 0.0012855685 -0.00021601657 0.001431186 -0.00034538508 -7.713175e-05 -0.0020921563 -0.0010032137 -0.00028841678 0.0002774357 -0.00016739567 0.0010647152 5.552933e-05 -0.0006665961 3.3676268e-05 0.001159126 -0.0017750913 -0.0010272943 0.0017911978 -0.00029759304 -0.0020842964 -0.00162643 -0.0018506795 0.0014245916 0.0012218853 0.0005151342 -0.00056464993 0.0018363114 -0.00032202547 0.0004928541 -0.0014489113 0.00094233383 -0.0006901877 0.00035361652 -0.00032394007 -0.00066358485 0.00037422613 -0.0011052111 -0.0017404673 0.00057375873 0.0012965851 0.0017673561 0.00018078974 0.0009828025 0.0005985723 -0.0010752613 -0.0014888132 -0.00080536737 0.0002001638 3.2160326e-05 -0.0008770073 -0.0010774897 0.0011859485 0.0017023071 0.00016219444 0.0010387028 -0.00081656664 0.00053579995 -0.0011561151 -0.0011723614 -0.002497809 -0.0014804555 0.0015084996 -0.0003861562 -0.0006233243 0.0012069364 0.0017394304 0.00091267825 -0.001687217 -0.0010875682 -0.0004393255 -0.0014844588 -0.00057789806 0.00030365327 -0.0003475064 0.0019900312 0.00087630213 0.001615776 0.0011619254 0.0010205624 0.0005006906 -0.0022706788 -0.0004573622 -0.0007166263 0.0007998321 0.0021430673 -0.00075919984 0.00080030854 8.031704e-05 -0.0007865242 -0.001726309 0.00085463485 -0.00016391759 0.00013475177 0.002459112 -0.0008583202 -0.0014468546 -0.00056317664 0.00010903035 0.00024354646 -0.00026580086 -0.00070310297 -0.00081547885 0.00048418914 0.0011122532 5.24863e-05 -0.00042538045 -0.00040149107 0.0014306626 -0.0013213073 -8.688985e-05 -0.0001851423 -0.0016478467 0.0007810667 -0.00063174067 0.001291182 0.0010380814 -0.0018638793 -0.002320564 0.00012151463 -0.0020975664 0.00036859838 -0.0015226569 0.0017704905 -0.0016518116 -0.0004928631 -0.00016206565 0.00034661114 0.00040463 0.0014107452 -0.00043979054 -0.0002888489 -0.00038304218 -0.0003392036 0.0014673702 -0.00047072952 0.00075986836 0.0003343225 -0.0001358584 0.0021058277 -2.1323525e-05 0.0019511493 -0.0010243723 0.00097314914 0.0005511021 0.00139369 0.001377084 0.0015121455 -0.0012326553 0.00028416805 -0.0016532727 -0.0010412947 0.00017684166 -0.0007458559 0.0009659113 -0.00025771727 -0.00060716266 -0.0006897017 0.00035120474 -0.0018867938 0.00030356698 -0.00020988051 -4.9632117e-06 -0.00073240895 0.001284055 0.0008256821 0.0003512492 -0.0004719124 -0.000676228 0.0017328988 5.3431995e-06 0.0019022396 0.00037971587 -0.00022356313 0.00060470606 0.000301894 0.0016229546 0.0008101213 0.00024599448 -0.00072035287 -0.00037168048 -0.00086163654 -0.0012288851 0.00191917 0.00026735448 -0.00049616105 -5.1333245e-05 0.00083768833 0.0010289996 0.0007706263 0.00096738973 -0.0016357899 0.00015929174 0.0015046658 0.00085285626 -0.0015905849 -0.0012479955 -0.0011241231 -0.0009050492 -0.0007402669 -0.0009731085 0.0017598243 0.00076246663 -0.0024562385 0.000666025 0.0013134441 -0.00130758 -0.0008289009 -0.0018659236 8.006606e-05 0.0015926608 -0.0014541625 -8.803456e-05 -0.0005717412 0.00066664576 0.000210913 -0.00038189752 0.0018420595 -0.0019718541 0.0023664858 -0.00037776373 -0.001249038 0.0009947987 0.0010185916 0.0005297989 0.0012622965 0.00047342523 -0.00096224004 0.00085619075 -0.0015230613 -7.73939e-05 -0.0013336572 -0.00046502994 0.00041817105 -0.0008518204 0.002144643 0.00063513365 -0.00013755093 0.00012620249 -1.2236677e-05 0.00055030116 0.0012640168 -0.0015204898 0.0013672964 0.0014268118 -0.000577244 0.0016218267 -0.0013554939 0.0014070518 0.0007291347 -0.0010941706 -0.0005130911 -0.0006580662 -0.001285966 -0.0006538819 0.000632772 -0.00038043587 0.0005512228 -0.0010022556 -0.00092809054 -0.0012495707 0.0004488334 -0.0010750996 -0.0013026766 -0.000492316 0.0013225055 5.1450577e-05 -0.0012271176 -0.0020471048 -0.0012101834 -0.00083186995 0.0010900737 0.0017257204 0.0022565722 0.0020936148 -0.00037202935 0.0011447035 0.00082815025 -0.0004582065 0.00029953677 0.00064300274 -0.00017855968
מזמינה -0.0015705054 -0.0016198956 0.0010731182 -0.0001039294 9.350198e-05 0.0007353283 -0.0006408096 -0.00093670195 -0.0016493709 0.001000888 -0.0008681295 0.0012784434 -0.0014146033 -0.00013492443 0.0004650774 -0.0016259897 -0.00025374824 0.0012091072 -0.000391653 -0.00018117261 -0.00095794763 -8.892454e-05 0.0011796172 -0.00018637071 -0.0014253512 0.0010744483 -0.00055133394 0.0012407146 0.00054962427 -0.0011387212 0.00018955642 0.0009180913 0.0013282469 0.00091122737 0.0006673492 0.0015276115 -0.0015974393 0.0013695572 0.00022502341 -0.0007123284 0.0011856646 -0.00014961988 -0.0012757335 -0.0015194133 -0.0010026372 0.0013477694 -0.0008665234 -0.00013357514 -2.541775e-05 -0.0002523034 0.00024269191 0.001378857 0.00067497336 -0.0002393899 -0.000227934 -0.0015208541 -0.00086390495 0.000572047 -0.0004924726 0.0003720212 0.0016216001 -0.0012548589 -0.0012566275 -0.00095014425 0.001054873 0.0012001581 0.0008323557 -0.0010574469 0.00022248275 -0.00039762043 0.0015162992 0.0012048817 0.0012445683 -0.0016211458 -0.001208465 -0.00076778716 -0.0010052023 0.0010774668 0.0005065862 -0.0014338609 0.0004306026 0.0016420276 -0.0016639627 -0.0016578396 -0.00021467783 0.00026655628 -0.00055514555 0.00080808805 -0.00077484373 -0.0014163938 -0.0014873754 -0.0013439936 0.00010184548 -0.00076056545 0.0002918006 0.00072438695 -0.00010664307 -0.0004921882 -0.0012957075 -0.0012280106 -0.001230904 -0.00023209023 -0.0006553735 -0.0014892162 -0.0015883109 -0.0013424172 -0.0014409892 0.00077688845 0.0011613786 0.00027505137 -0.0005725077 -0.00023232703 -0.0014092029 0.00021149093 -0.0005349914 0.0013671039 -0.0013764739 0.0006814552 -0.00021729365 3.299121e-05 -0.0012125396 -0.0012675156 -0.00022562618 -0.0008420697 0.0013666127 -0.0012090852 0.00054346427 -0.00060494797 -0.00022270414 -0.0013946885 -0.00074796117 -0.00043972125 -0.00084370177 -0.0015156139 -0.001380044 0.0014151819 0.0012023678 -0.0014001548 0.00066762103 -0.00055093545 0.00095961354 0.00022255683 0.0005145431 0.0012846478 -0.0013169477 0.0015582719 0.0009857784 -0.0007168912 -0.00039651975 -0.00027197166 0.0010112454 0.00014197601 -0.001440197 -0.00061360124 -0.0004951544 -0.001146198 -0.0010094228 0.00060330774 -0.0005037642 -0.0006570684 0.001123049 -0.00065632485 0.0012906913 7.589601e-05 0.00073658803 -0.0014744588 -0.0009631107 -0.0011946661 -0.0011142083 -0.00014807963 0.0007281062 -9.399602e-05 0.0015118619 0.000907279 0.001347144 0.0012651889 0.00043073433 -2.2108565e-05 0.001267727 -0.0006319298 -0.00094323105 -0.00034726973 0.0015543975 0.00018974475 0.0013970423 -0.0003655241 -0.00075509155 0.00031878313 -0.001630323 -0.0012799955 -0.0013398018 -0.0015164382 0.0007076478 -0.00022522468 0.0013974603 0.0010661553 0.0014674148 0.00027251826 0.0006305226 0.0015849167 0.00020516 -0.0014166969 0.00049005676 1.7776572e-05 -0.0015447788 0.0016614292 0.0009655492 0.0014670097 0.0005205436 0.0012396259 -0.0013530592 0.00085739745 0.0011420406 -1.4583939e-05 0.0013756022 -0.00067408953 -0.0005823228 0.00091860176 0.0016205728 -0.0014995408 -0.00049957633 -0.0012916453 -7.280954e-05 -0.0007305339 -0.0008077176 0.0007568247 0.001115948 -0.0011401711 0.0013450468 -0.00032827625 -0.0002903989 0.0006548621 -0.00010882267 0.00028577074 -0.00023430356 -0.00057973684 -0.0016130669 0.0014638217 0.00060038094 -0.00027512858 0.0014100774 0.001630903 -0.00086986856 -0.00014992905 -0.00039097783 0.0012216778 -0.00039684563 -0.00047006764 0.0015762295 0.00011001447 -6.4706386e-05 0.0015305082 8.815624e-05 -0.0015478837 -0.00161998 -0.0015225112 -0.00076829793 -0.00082617387 0.0008553841 0.0006161131 0.00058582524 0.001329063 9.322712e-05 0.0015481272 0.0014662655 0.00035790424 -0.0012633568 -0.0010999352 -0.0008578204 -4.7210524e-05 0.0005285703 0.00063806854 -0.00018419717 0.0009967384 -0.0011807366 -0.0011732886 0.00075254054 -0.0011237036 -0.0008237894 0.0016441095 -0.00078726874 -0.00089159433 -0.0002511112 -0.0011877565 -0.0007160954 -0.00060955493 0.0003116214 0.0011387815 0.0010124731 0.0009856505 0.0012563274 -0.00013945797 0.00025200006 -0.0010005692 0.000312855 0.0011443709 0.00027834295 0.0002340898 -0.0007793379 0.0006375027
מישהו 0.0006483755 0.00093205296 0.00063873956 0.0009172467 -0.0012129556 -0.00012037145 -0.0008652757 -0.000564281 -0.00065610424 -0.00035502462 0.00011051663 -0.0002987205 0.0019262814 0.0014672171 -0.0004953262 0.0022902873 0.0012014091 -0.0014005449 -0.0005483742 -0.0013590762 0.00056027074 -0.0016024517 -0.0011746902 0.00072462007 -0.00022018209 -0.0012509461 -0.001111021 0.0013725496 -0.00022932261 -0.0010236982 -0.0010190066 -0.00012630627 -0.0017340253 -0.00066858233 0.0012214673 -0.0012769875 -0.0008080307 0.00084634614 0.0007086866 -0.0015953806 -0.00076313835 0.000916926 0.00033218955 -0.0010394413 -0.00014145147 0.0013583169 -0.0015326216 -0.00043105579 0.00017143821 -0.0008008719 -0.0015744361 -0.00046621307 0.0015246987 -0.0020608536 0.00013440463 -0.0007903838 0.0015282794 0.00032347965 -0.0009854236 -0.0013714518 5.846782e-05 0.00024369617 -0.0015687535 0.0006137787 8.7880665e-07 -0.00096164306 -0.0009217121 -0.0011061126 -0.0001237645 -0.0008344323 0.0013104661 -0.0007408895 0.00031443874 -0.00071956654 0.00048192719 -0.00014280516 -0.0005164982 -0.00025749535 -0.00027215586 -0.0012963298 0.0014973108 -0.0016767781 0.00074515986 -0.0011068392 0.0005838217 -0.0005850874 -0.0006146658 -0.0011607021 -0.0006747395 0.0013213811 0.0003764329 0.0015631192 0.0008874081 0.001054029 0.00014209584 -0.00094017305 -0.0001271618 -0.00096079137 0.0014236441 -0.0007999453 -0.00022912864 -0.0008398285 -0.0012651071 0.0015071954 0.00050321646 0.00026436851 -0.0003993451 -0.00080217107 -0.0013866505 0.00049152423 0.00043631863 -0.00023039422 0.0016719161 0.0009769821 -0.0004952816 0.0007176522 0.0012691501 -0.0007258244 -0.0008295168 -0.00024570062 0.00062260585 0.0008077727 -0.00071698683 0.000648997 -0.00054578565 0.00045145545 7.805538e-06 0.00034552382 -0.000848028 0.0012971965 -0.0012791876 -0.0012876925 0.0013774281 0.0019686897 0.0010655331 0.0005012752 -0.0020088318 0.0010025722 0.000237577 -0.0008545479 -0.0011606833 -0.00023368071 -0.0015416687 -0.0016804576 -0.00022745185 0.00025630594 -0.0011565113 0.0003052484 0.0014109752 -0.0007233485 -0.0011931398 0.0016055583 -5.3686632e-05 -0.00080800685 0.0003184971 0.0007815457 -0.00043015293 0.00048347292 -0.0012311062 -0.00061689754 0.0008547256 0.0017822246 -0.0012996554 0.00022350067 -0.00044069614 0.0007890469 -0.0005150513 -0.0012454599 0.00017470849 -0.00028402588 0.00038787577 0.0014749356 0.0008455394 -0.0007446786 0.00074569404 -0.0005826994 -9.4222905e-06 0.0006469419 0.0014903761 -0.0008531058 -0.00056736596 0.0003418213 0.00094816135 -0.001675896 0.000850581 -0.00093023694 0.0009810454 -0.0010716391 -0.0005474531 -0.000638491 0.0001652204 0.000116021794 0.0014041298 0.0005417561 0.0004466413 0.00052717683 -0.00043802377 -0.00046768103 0.0009426022 0.0016998444 -0.0011592854 -0.00060626416 -0.00015387402 0.0006041008 0.0019029841 -0.0001532561 -0.0005317617 -0.0007721308 0.0009992834 -3.908909e-05 0.00092099357 0.0015646702 -0.0009823609 0.0009855782 0.00023887632 -0.0015721635 -0.0001290276 -0.0015232057 0.00092829403 -0.00020275917 0.0019008378 -4.5781577e-05 0.0014237447 -0.0010913404 -0.0016118063 -0.0016236111 -0.0014956457 0.0005219945 -0.00015029348 0.001435128 -0.0010629733 0.000656404 0.0011944092 0.0017010017 -0.0010516864 -0.0009326065 0.0007103354 0.0011128568 -0.00087095884 -0.001081997 -0.0016399368 -0.000499855 0.001147156 0.00031599737 0.0017204891 0.00062189135 0.0015046383 0.0014642429 -0.0003338289 0.0010302988 0.00043436664 0.00055379816 0.00073916774 0.0022310065 0.0003363798 0.002031477 0.00042297223 0.0007339042 -0.00024072203 -0.001361088 0.0005930455 0.00057249865 -0.0005437952 0.00027782944 0.0011137767 0.0012074682 -0.0013198742 -0.00061396015 -0.00015666567 0.0002582935 0.00017405584 0.00042053754 -0.001155966 0.0013208917 -0.001752379 0.001346181 -0.0003153219 -0.0005164958 0.0005382822 0.0016716107 -6.4214924e-05 0.0008471724 -0.00068128493 0.0017537709 -0.001609695 0.00095448695 -0.0003603378 0.0002743034 0.00052579545 -0.0010598482 -0.0014050712 0.00034550927 0.0003932635 0.00012160677 0.0018476981 0.0012904527 0.0010225505 -0.0015571206 -0.00018656133 0.00041400452
מזמין 0.0012354159 -0.00024042687 0.0004489792 0.0005898324 0.0007064691 -0.00034271952 -0.0008283102 -0.00053079147 -0.00087154866 -0.00023779104 0.00084337965 -0.0010139233 0.0015861656 -0.0005258223 8.943595e-05 0.00025395484 0.001142501 -0.00024119293 -6.5591594e-05 0.0015350472 -0.001270973 0.00074782287 -0.001365844 -0.00011963091 0.0005928443 0.0014264224 0.00048536024 0.0009448492 -0.0017549236 0.0008370031 0.00021178792 0.00095113757 0.0013084657 0.00060666277 0.0014957679 -0.0015247655 -0.0004544534 0.00088165 -0.00014009993 -0.00014536628 -0.001064188 0.0013220963 0.0015179975 -0.0015799728 8.921634e-06 0.00047656745 -0.0016059959 0.00043355272 0.0012589974 0.000603535 -0.0017762453 -0.0011557967 0.0009928982 0.0011409238 8.038295e-05 -0.0012828863 -0.0008468686 0.0014551013 -0.00012793127 -0.00010280219 -9.36611e-05 0.0012266084 0.0015635354 -0.00022037537 -0.001356744 4.4597153e-05 0.0007166127 0.0011367674 0.0005427739 0.0011240548 -0.00026333128 0.0013576162 0.00072023476 -0.000893578 -0.00055229914 -0.00084534317 -0.00021282068 2.6356764e-05 0.0008218871 0.00066296343 0.000202684 -0.0009338915 0.0011759824 9.698631e-05 -0.0011501526 -0.00024445972 -0.0008535162 -0.00018196294 -0.00018976729 0.0009953317 0.001462433 0.00020541539 -0.0010258197 -0.0007506278 0.00022094755 -0.0015456066 0.0002821406 0.0005115543 0.0016250133 0.0004681219 -0.0006576763 0.00093219406 -0.0014345794 0.0011524225 -8.8697154e-05 0.0001924352 -0.0014065909 -0.0016216746 -0.0009069774 0.00019541485 -0.0016193526 0.0013151764 0.0016550816 0.0015012195 -0.0010859604 -0.00089724053 0.0015154406 -0.0016438336 0.00075842725 0.00096607197 -0.0013534836 0.00021778098 0.0010463633 -0.0006043531 0.0013987037 -0.0013016608 8.114514e-05 -0.0004633943 -0.00038970754 0.0015776842 0.0008995419 4.3898992e-05 0.0004300709 0.0017149021 -0.0012511523 0.0011753048 -0.0018154164 -0.00071176357 -0.00016413024 0.0010461289 0.0010465573 0.001265662 -0.0012476805 0.00096619816 0.0008503358 -0.00029019476 -0.00022478242 0.00034277176 0.0006282633 -0.001881885 -0.000120437806 0.00059325644 0.0008011422 0.00050843664 0.00066652324 0.001074267 0.0015945936 0.0018591733 0.0007067629 0.00010683959 -0.0002814965 0.0004740835 0.0011060814 -0.001250375 0.00036112635 -0.0008881402 -0.0013312604 0.00021540672 -0.0014509865 -0.0004408518 -0.00089095044 0.0009830694 0.0013357834 -0.0009589522 0.0012698398 -0.00027282577 -0.0008961371 0.0011124035 0.00039014866 0.00023482858 4.1572905e-05 -0.00053049554 0.0007443902 -0.0014391093 0.00034331 0.001381172 0.001039244 0.0017452667 0.00039772605 -0.00023657066 -0.0009463907 -0.001233492 0.00082358735 0.001069969 -0.00067329383 0.001587396 0.0011557444 0.000705521 1.2871666e-05 0.00071394193 0.00044882097 0.0010916468 0.0013820964 -0.00033936766 -0.000510883 -0.0016663097 -0.0008344482 0.0007479719 0.0005068026 -0.00074995967 -0.0014629143 -0.00050307653 0.0015393723 -0.0005676593 0.00021230991 0.00092393864 -0.0002653652 0.0008237585 0.00071953447 -0.00062091555 -3.138281e-05 -0.0010498994 0.0006712837 -0.00072167674 -0.0016912873 -0.0013284052 0.0007823599 0.0007037951 0.0010698382 -0.0016000618 -0.0005627794 -0.0013705442 0.0013548787 2.204367e-05 0.00029966416 0.0003442841 -0.0008718329 -0.0007864921 0.0010912258 0.0009319689 -0.00026480795 0.00032776277 -0.0009681997 -0.0015593678 0.00042424162 0.0014026008 -0.0003187424 0.00033545351 0.0012489512 0.0011175328 -0.00146716 -0.00030140774 -0.0004504564 0.00079606374 0.0013363035 -0.00043246776 -0.0016225432 -5.930744e-05 0.0014874503 -0.0004106234 0.00078243995 -0.0005756636 0.0007790514 -0.0002591368 -0.00019520962 -0.0013854147 -0.0006353009 -0.0009173383 -0.00023974753 0.0008171592 0.0014063265 0.0015130073 -0.0010148132 -6.807173e-06 -0.00043320982 0.00081599306 0.0016859506 0.00029355002 -0.0014327099 0.00015112874 -0.0016649867 0.0013435042 -0.00046722713 -0.0009765032 0.0010208626 -0.00070328475 0.0013134157 0.00050414907 7.619569e-05 0.0013178822 -0.00040765092 5.2815452e-05 -0.0005132123 -0.00075787224 -0.00083208695 0.0015162057 -0.001365917 -0.00059264165 0.001158299 -0.0006171556
אתם 0.0008003795 -0.00070455455 0.0013520649 0.0007618592 0.0003497647 0.0021051995 0.0007547585 -0.0021783737 0.000634252 0.0012243118 0.0003052898 0.0005237118 0.002242381 0.00090553553 -0.0008692851 0.00021519714 -0.0012713864 0.0013317973 0.00023315808 -0.0011933622 0.002008743 0.0002372457 -0.0008287974 -0.00035240402 -0.0004925379 -0.00046382172 0.0006724485 0.0014162651 -0.0011185714 -0.0013176368 -0.0005426173 -0.0012960484 -0.00078955456 -0.00018220555 0.0010511623 0.00078510627 -0.00088033144 0.0013326441 -0.00076827576 -0.0022073863 -0.00037089878 -0.00031424535 1.0467145e-05 -0.0010233263 -0.0004418683 0.000463484 0.001295827 -0.0018810182 -0.0015127031 -0.00094894104 -0.0026128325 0.0010406007 -0.00044451546 -0.0005024103 -0.0011133294 -0.0016702325 -0.0012931946 0.00041894108 0.0016347297 -0.00054686033 -0.0009494157 0.0017799684 0.0016664189 0.000790952 -0.00071803865 0.00018616205 0.0013957297 -0.0015396915 -0.0003797595 -0.0015186814 0.0020763308 0.0014468209 -0.0017306636 -0.00034483467 -0.0009775069 0.0009376295 0.00045297167 0.0009679414 -0.0012657192 0.0006065663 -0.0016105891 -0.001301783 -0.00087154657 0.00021041342 -0.0009897576 -0.0005554526 0.0008861811 0.00064603955 0.0015773849 0.00060511887 0.00013902795 -0.0015184288 0.00042255365 -0.00042677257 0.0011310249 -0.0013480072 0.0013307806 -0.0016965502 0.0017544192 -0.00028988425 0.0005650347 -0.0010194131 -0.001923503 0.0013217989 -0.00088543666 0.0016938709 0.00033309107 0.00017152764 -0.0013730454 0.0007728863 -0.0011021717 -0.00017392517 0.0022841855 -0.0013808071 0.0012689091 1.6742064e-05 0.0018388436 -0.00086889503 -0.0010274403 0.00058572117 0.00090188644 -0.0014333521 0.0009714877 0.0029643069 -0.00028911515 0.0020957596 0.0010890868 -0.0011317928 -0.0009952358 0.0018358474 -0.00093739067 -0.0007037556 0.0014919806 0.001980749 0.00159204 -0.0014821906 -0.0027736453 -0.0012794771 0.0006090928 0.0011677318 -0.00035593295 5.374732e-05 2.9802446e-05 -0.0010778024 0.0011849599 0.0014864781 0.001501888 -0.0002868998 -0.0018317158 -0.0027023975 -0.0016712805 0.00063040416 0.00054877705 5.2350555e-05 -0.0011208106 0.0012687754 -0.0012400406 0.0013473826 0.0009419222 0.0013871795 -0.0011750921 0.0017581142 0.00034623823 -0.00058174576 0.0018863899 0.0015966613 -0.0016169487 0.0004922477 -0.0015398975 -0.00027388474 -0.00085720286 0.0024001724 -0.00036945537 0.0014632463 0.00037252158 -0.000770335 -0.0017287394 -0.00019201712 0.0014032312 0.000525938 -0.0009149686 0.0014091443 -0.0009623808 0.00091132586 0.0007825992 -0.00043152898 -0.0021609322 0.0010137948 0.00050546415 0.00029994122 -0.0008568296 0.00091916654 0.0023186263 -0.00081529416 -0.0015329897 0.0021195612 -0.0011572929 -0.0010783259 -0.002502946 0.0013523919 -0.0004193343 -0.0005407266 0.00032751862 -0.00028989004 0.00079221127 -0.001996186 0.002272351 4.564754e-05 -0.00080365676 -0.00093110336 -0.0023035626 0.0009681833 -0.00082459307 0.00026607595 -0.0016216002 0.00022040016 -0.0017562436 -0.0006290939 -0.0011050776 -0.0010056322 0.0004725267 -0.0005308972 -0.00050476 0.0012603705 -0.0012570397 -0.0016746409 -0.00044597828 0.0011907982 -0.00031715882 0.00014993666 -0.0015880072 0.001105402 0.000115125265 0.0003277809 -0.0025294865 0.002110748 0.0007808506 0.00029102695 0.00016805003 -0.0010947065 -0.0007656957 0.0017175964 0.0014258096 0.0015031509 -0.0009873097 0.0005269503 0.0023848815 -0.0003705573 0.0007180723 -0.0018990582 0.000347779 0.00034459808 -0.000459505 -0.0001459619 0.00076744414 0.0012607852 -3.2813386e-05 0.0007285473 -0.00048917 0.00059308356 -0.000953255 0.0010479103 -0.00091462774 -0.000300094 -4.3275682e-05 -0.0019180668 -2.305276e-05 -0.00036264336 0.000649272 0.0013403754 0.0013194397 -0.00094716385 0.0002210096 0.0015061365 -0.0008399389 0.0011992534 0.0022205824 0.00060741516 0.0011872138 0.0013032776 0.00028643553 -0.00077904837 -0.00012953971 0.0009421391 -3.4779056e-05 -0.0015341797 1.5995976e-05 -0.00042674685 0.00020974313 0.001093372 0.0005433646 0.0013589936 0.0005842631 -1.4871249e-06 -0.0009043932 0.0018882351 0.0006393509 -0.00065440923 -0.000780683 -0.001807844
