662 300
אוכל -0.0011403714 -0.00076794834 -0.0017170627 0.00095286005 6.929242e-05 -0.0004136762 -0.00016070886 3.4707642e-05 0.0015820378 0.0025405625 -0.00028620343 0.0016008809 -0.0020643007 0.00083887996 -0.0012831794 0.0007035842 -0.0008138127 0.0008417887 -0.0004608328 0.0023228046 0.00028306537 -0.00021869173 -0.0013277746 0.001388567 -0.0019131118 0.0011385201 -0.00072771683 0.0017401276 0.00058855576 -0.00061490986 -0.0014282882 0.0006191028 0.0009423235 0.0017102531 5.3822012e-05 -0.002081696 0.0012152301 0.001565412 -0.0014679832 -0.00012694791 0.0008146897 0.00019069432 -0.0016605367 0.00029264027 0.0010232445 -0.000339742 0.0005756115 -0.002011349 0.00036237264 0.0015730208 0.00015614406 0.0005647892 -2.02657e-05 -0.000788702 0.0015523566 -0.0017872988 -0.0015825987 0.00056367274 0.002156621 -0.0012506534 -0.00088606135 -0.00040645577 -0.0011210218 0.0009815338 0.0007713185 -3.2460965e-05 0.0007376173 0.0016344446 -0.00014305241 0.0015251717 0.00046312503 0.0011740807 0.00055443065 -0.0009229297 -0.00067332113 0.00024241766 0.00058033975 -0.0006492799 -0.0014435307 -0.0006818502 -0.0015919082 -0.0009297586 -0.0011725692 0.00037379566 -0.0016663646 -0.0013563449 0.000112589754 0.0007826207 0.0013725075 5.213694e-05 -0.0018606819 -0.0012504037 -0.0008072754 -0.0009773358 -0.0019120197 0.0011078848 0.00075081934 -0.0015242376 0.0006491418 -0.0013169263 0.001541857 -0.0015874243 -0.00012016188 0.0007574874 -0.0001048845 -0.00026347407 -0.0011319112 -0.000625906 -0.0004974208 0.00029927102 -0.00085024285 -0.00076499034 -0.0013435391 -0.00074702624 3.9535327e-05 -0.00020423214 0.00075315626 0.0008597987 0.0010714337 0.00047355238 0.0013657382 -0.0011998636 0.0010771439 0.0016154288 -0.0008694846 -0.0020773814 0.0010066078 -0.0009521977 -0.0014506496 0.00055265275 0.00050288124 0.0017758247 0.0015098692 -0.00034825952 -3.5689343e-05 0.00087304576 -0.0006900876 -0.0014073773 0.0015431058 -0.0019038602 0.0016063096 -0.0005122885 -0.0018439369 -0.00030544252 0.00071589637 8.087467e-05 -0.0012909833 -0.002208202 -0.00062184024 -0.0014025231 -0.0016905187 0.00049652404 -0.0017666408 0.0013127885 0.0011193379 0.001035687 0.0009164786 9.450883e-05 0.00013270382 -0.00073616445 -0.00050570705 -0.0021550949 -0.00040245187 0.00023130725 -0.00037239207 0.0013694582 0.0009455157 0.0005160277 0.0029306605 0.0006917869 -0.0020701203 0.00041238335 -0.0010817067 0.0016225189 -0.0017154498 -0.0018711044 -0.0015138516 -0.0014770624 -0.000747249 0.0009887782 -0.0018809981 -0.0011707454 -0.00043185573 -0.00065120903 0.0013113084 -0.00019489098 0.002285326 -0.0014169709 0.0012315786 -0.0024804687 0.00073936384 -0.0017035073 -0.0023233956 -0.00089856866 -0.0002648129 0.0011826681 -0.00049135904 -0.0009245581 -0.0005050124 0.0009511397 -0.00045852718 0.0014211603 0.0013955141 -0.0009042465 0.0011377464 -0.00066257146 -2.1398748e-05 -0.0011410469 -0.0018754656 -0.0009760937 -0.00013182034 0.00032485116 0.00040755002 0.0011794646 0.0014325387 -0.0013935413 0.00013480696 -0.00097562413 0.00015700917 -0.000101885955 -0.00021230365 0.00016224597 -0.002186889 -0.00042429168 -0.0007121373 0.00073619786 0.00037085547 0.00046307303 0.00092730654 -0.0013608763 0.0012835235 0.00040265275 -0.00025335798 -0.00052120944 6.190375e-05 0.0005685844 -0.0012937436 -0.0014269918 0.0017351097 0.0019835152 0.0011703593 0.0014474245 -0.0005491154 -0.0014849713 0.00047745215 0.001356282 0.0020238946 -0.0007514592 -0.0027959908 0.002912691 0.00054372713 6.1757755e-06 0.001327645 0.0008541737 0.0005076729 -0.00064006104 -0.0011580682 -0.0006176267 -0.0012549522 -0.0008693265 -0.0007987332 0.0014292959 -0.00058220996 -0.0015749544 -0.0011086311 -0.00021502457 0.0024546846 0.001554385 0.0009656596 -0.0012625272 -0.0014740422 -0.0011861871 -0.0006146851 0.0004174819 -0.0009284525 -0.00041449725 -0.0015520086 -0.00026001455 -0.00047294062 -0.0020384293 -0.0008809673 -0.0003084596 0.0011401402 0.00075824605 0.00086696836 0.00066620304 -0.0018991577 -0.0012231134 0.00016415847 -0.0018166912 0.0014816537 0.0004754071 -0.00078426755 -0.00015636666 -0.00090853305 -0.0009178835 -0.000376998 1.1605812e-06 0.0008445645 0.0006365083
אני -0.0016257811 -0.0034166775 0.0009146562 0.0013160675 -0.0006717487 0.00019018765 -0.00013422483 -0.0014126839 0.001566761 0.0019335055 0.0015905981 0.00022112866 0.0004017288 -0.0022000489 -0.0021074226 -0.00044741435 -0.0015168485 0.0010227108 -0.0001402865 0.0023512535 -0.0015183288 0.0007677704 -0.000791262 1.3917269e-06 -0.0035499567 0.0024110645 0.001798462 0.00093592075 0.00054272666 -0.0013177905 0.0003138862 0.00096343714 -0.0016256636 0.0017042222 -0.002156574 0.00047182717 -6.0625094e-05 0.0010645248 -0.0019089907 -0.00071575056 -0.0004506525 0.0033263338 -0.0024924546 2.3189921e-05 -0.00090610376 -0.0020997978 0.0004930257 -0.0016910846 -0.0005290955 -0.0013945613 -0.0006133453 0.0014794433 0.0013635197 0.0016509339 0.0034648618 -0.0014800373 -7.3425486e-05 -0.002223558 0.00036717093 -1.9047391e-05 -0.0021480003 0.0005999825 0.00011941264 0.0008493461 0.0012533293 -0.0007060058 -0.0007230106 0.0018925127 0.0014480241 0.0014183635 -0.002770874 0.0006569995 0.0026328252 -0.004416193 -0.00033940424 0.003789572 0.0006034035 -0.002094101 -0.00066034193 -0.0030015046 0.0002554821 -3.7581438e-05 -0.002642718 -0.0003528596 -0.0010252253 -0.0009875317 0.00093539857 -0.0023163238 0.0015936167 -0.0010582323 0.00087458023 -0.002335852 0.00086610526 -0.0014758654 -0.001207696 -0.0023512708 -0.0020862033 0.0009780164 -0.0022308212 -0.0035887198 -0.00017057944 -0.00036017713 -0.0007712006 0.00040646282 0.0006216412 -0.0009967644 0.0007115808 0.0010092354 -0.003228322 0.0003919046 -0.00018871471 0.00035268816 -0.00054940645 -0.002291299 -0.0033730948 0.0004246124 0.0012916273 -0.0003042682 -0.00096607243 0.0017597063 0.0014082133 0.0006018039 -0.002111957 -0.00025905078 0.0014122569 -0.0012154101 -4.6471527e-05 0.0027126214 -0.0010139996 0.001200803 -0.0010688907 0.001179181 0.00097254576 0.00045299536 0.0020062693 -0.0003998029 -0.0012903418 0.0014545701 0.001407621 -0.0011819568 0.0020514438 0.0011693184 -0.0018032466 -0.0028166322 0.0021703928 0.00019428515 0.00033713083 -0.0019058672 -0.0016685326 0.0004012411 -0.0023917623 0.0020969568 0.0007164177 -0.0010928811 0.0021430075 0.0032417902 0.0014934272 -8.544113e-05 0.0023662825 -0.0018560233 0.0028799712 -0.00035448498 0.0016572621 -0.0004415279 0.0016211516 0.0004883983 0.0006180803 0.0013373812 0.0032843812 -0.00063457486 0.00020537377 -0.0020522447 0.0015264055 0.0015896746 -0.0029589566 -0.0016666063 -0.0013861514 0.0006291884 -0.0011076503 -0.002474984 -0.0018143043 -0.0024459264 0.0012720148 -0.00067738805 0.0019530636 -0.0007568335 0.003915199 -0.0016091606 -0.0002929736 -0.0007248113 -0.0011385726 -0.0030628885 -0.001473353 -2.4131014e-05 -0.0012222992 -0.0007859021 0.0021950118 0.0018845056 0.0028172717 -0.0018394751 -0.000700203 0.0010550356 0.00058789353 -0.0019439801 0.0019067375 -0.0009933773 0.0022136315 -0.0012221864 -0.0024556718 0.0006430129 0.0008516653 0.0032654498 -0.0006626487 0.0010690701 -0.0010307276 -0.00028191812 3.6345406e-05 -0.003048146 -0.00028702302 0.0017742269 -0.0026093605 0.0007091683 -0.00014784565 -0.0009592815 0.0029025623 0.00035948723 -0.0017932815 -0.0019271255 0.0012783332 0.00038669852 0.0010420053 0.00038899385 -0.0016094601 -0.00046878427 -0.0026645293 0.0015997385 5.3522985e-05 -0.0013430163 0.0019029108 0.003404299 5.5964912e-05 0.00068128784 0.00066742953 0.00091801543 0.0005889284 0.0005312101 0.0013277135 0.0002581367 -0.0016131616 0.0033302992 0.0010370867 -0.0018020953 0.002827686 -0.00021547696 0.00181105 -0.0005867695 -0.0011898141 -0.003301674 -0.0014138694 0.001930781 0.0013447201 -0.00068818673 0.0006582382 -0.0028369739 -3.8290396e-05 0.00028167907 0.0010043769 -0.0009044378 -0.0009396287 -0.0017593415 0.001649262 -0.00077218714 -0.001196745 0.00049385364 -0.0005213658 -0.001371255 -0.0011319424 0.002493579 0.0017854644 -0.0006029172 -0.0005261783 0.00049225654 -0.001607099 -0.0019767242 -0.00044649007 -0.0012387021 -0.004821304 -0.001542764 0.0011699863 0.0008305326 -0.0012780781 -0.002925477 -0.0016707195 0.0018886253 0.0024664127 -0.0004575443 -0.001653199 0.0025101055 -0.0010592893 0.00045617775
גם -0.00021645946 -0.0024675839 0.00091002305 -0.0010384083 0.0004842157 0.00030028285 -7.9821526e-05 7.258886e-05 4.8714654e-05 0.0023276631 0.0002481368 0.0018684154 -0.0016213252 0.00042021603 -0.00074741355 -0.0010169476 -0.0007172744 -0.0007195046 -0.0005066728 0.0014779262 0.0009525324 0.0009306678 0.000986551 0.00019608453 -0.0027298965 0.0011833996 -0.0005972817 0.0007684998 0.0017412958 0.0010720397 -0.00016826497 -0.0011493912 -0.0013215774 -0.00012028768 -0.0022177645 -0.0017274688 0.0010173273 -0.00050589786 0.0003375321 0.00065106904 -0.0003041036 0.0013671567 -0.0006176666 0.0012848796 -0.0018879608 0.00014213863 0.0009777726 -0.0008965105 0.0012245869 -0.00064881647 0.00056613755 -0.00032048547 -0.0009880718 -6.929881e-05 0.0006143395 1.6333865e-05 -0.002305509 -0.0018140819 0.00032488094 -0.001281565 0.00032885422 -0.00040431911 0.00075811555 0.00025143905 -0.00033829553 -0.0012243118 -0.00053848396 0.000759395 0.0010876599 0.0020249467 -0.0016853828 0.0005692806 8.47085e-05 -0.0009020945 0.000609077 0.0016131147 0.00047304985 -0.001849925 -4.7865276e-05 -0.00014802377 0.0007546381 -0.0004918229 0.0006636003 -0.00096984627 -0.0017440352 -0.00026491904 0.0010217289 -0.0003804114 0.00060769456 0.001131001 0.0006623589 0.00059756316 0.0009784298 -0.0011493738 -0.0014760811 -0.0018825425 -0.0024701674 -0.00088566716 0.0011260599 0.00046232008 -0.0013194307 0.00023540373 -0.002108226 0.0016617574 -0.0015866843 -0.00063617545 8.896064e-05 -0.00087138393 -0.00027805753 0.00220787 -0.0009113892 0.0006060248 -0.00055393414 -0.00016758234 -0.00026468435 0.0006574884 0.0014372814 -0.0017230846 0.00029203418 -0.00018237463 -8.8230816e-05 0.0010246212 -6.794533e-05 -0.00030937925 -4.5496067e-06 -0.0013265238 0.0012048857 0.00035509575 0.0007226967 0.0016946176 -0.0015057726 -0.0009810572 0.00026966396 5.7166217e-05 0.0017204654 -0.0014329148 -0.0008681658 -0.0009089158 0.00143339 -0.00064425456 -0.0004550908 0.00077081943 -0.00039630767 -0.0006088724 -0.00024763442 0.00088402175 0.0011676063 -0.0013943053 0.0004830015 -0.00041925284 0.00052841 0.0015377306 -0.00013725125 -1.8271945e-05 -0.0002310935 0.0008038057 -0.00081860204 0.00087137846 0.00039405192 -0.0016416132 0.0026575706 0.0011018305 0.0012815943 0.00088334037 0.0012135704 0.0014416345 -0.00093979476 -0.0007032143 0.0013636053 0.0012735751 -0.0013099515 -0.00016272551 0.0015454282 0.0004185783 -0.0016800631 -0.0014669565 -0.0008130482 0.00077433593 -0.00089022814 2.816178e-05 -0.0002845641 0.0008030995 0.00014727713 -0.001299285 -0.0005940573 0.0020426586 0.0033333448 -7.957777e-06 -0.0018190414 -0.0010657598 8.182601e-05 -0.0018680394 -0.0011792735 0.0007538378 -5.003233e-05 -0.00016023872 0.00039750163 -0.0011576343 0.0020819525 0.00027267373 0.00071074505 0.00034480396 -0.00064173545 -0.0010011337 0.0017575013 -0.0018750221 0.00069938635 -0.0013158561 -0.0014501995 0.0015830712 -0.0011601776 0.0005454391 -0.0016645194 -0.00048521542 -0.00068441656 -0.0005216027 0.0014442883 -0.0021641934 -0.00042942874 0.002265494 -0.0017913791 0.0014246204 -0.0017270203 -0.0006835787 0.0024248108 -0.0010994255 0.0006783843 -0.0014332192 0.00019262174 0.0003639616 -0.00087947503 -0.0012775135 -0.0013621573 -0.00069652114 -0.0005444635 -0.0015450865 -0.001953257 -0.0007642242 0.0020313428 5.6526675e-05 0.0010871777 -0.0016980019 0.00060262904 -0.0014977156 -0.00044064672 0.0012197904 0.00055225805 -0.0010781274 -0.0017557472 0.000958041 0.000596994 -7.8749305e-05 -0.00016133445 0.0011775219 0.0017213072 -0.0005567627 -0.0016074876 -8.784016e-05 0.00023980184 0.0011559831 0.0005092903 -0.00037490524 0.00020724545 -0.0011196353 0.0015658555 0.0012049065 0.0012533981 -0.0016825671 -0.00069395447 0.0006765394 -0.00023350613 -0.00062408514 0.00023760663 -0.00050168514 -0.0005403243 -0.00022030044 -0.00043077677 -0.00048273575 -0.0015251589 -0.001528734 -0.0019223212 0.0010491069 0.00022082141 0.0011399053 0.0014454103 0.00071387104 -0.00041538203 -0.0007631506 -0.0003980521 -0.0010242178 -0.0013072303 -0.0017402186 0.0014786526 -0.0011919988 0.00015066264 -0.0008737454 -0.00087040354 0.00018155314 -0.00034076706 -0.00041506824
הזמנתי 0.0010913571 0.0004270258 0.0013633451 -0.0004120939 0.00085951335 -0.0013670955 0.0013060196 0.001245026 0.0016506922 0.0016483881 -0.00080106856 -0.00020316151 -0.0016835695 4.952261e-05 -0.000119024364 0.0016246511 0.00014172906 0.00060180185 -0.00065595517 -0.00013520318 0.00086995645 -0.001571882 -0.00092182885 -0.0011260423 -0.00013806952 0.0006222156 0.0015115471 -0.0016215891 0.0009871045 0.0010660045 -8.1063954e-05 0.0012180995 -0.0011166251 1.628057e-05 0.0013048104 -0.00066004717 0.0001552494 0.00035735185 -0.0011714132 -0.0004997941 0.001127891 0.0001846748 -0.0012989596 -7.476888e-05 0.00051654136 -0.00052101194 0.0010468378 -0.001076146 0.0003564682 -0.0006183977 -0.0001785914 0.00085869373 0.00044227214 -0.00029015835 -0.0011640819 -0.00096364756 0.0005584543 -0.0008371391 -0.0006209573 -0.0014229125 -0.0006322206 -0.0014230622 -0.00020549072 -0.0006030477 0.000110472974 0.00016020294 0.0015500757 -0.0012546699 -0.00032863108 -0.0004754138 0.00073706923 4.927526e-05 0.0012418113 -0.00045353785 0.00045747013 0.0009934369 -0.001403237 -0.00070652936 0.0014046954 0.00048111574 0.0014712329 0.0010585132 -0.0010567417 -0.0010768519 0.0013197951 -0.00074185035 0.0010696162 -0.0011773857 -0.00026367482 -0.00025413928 -0.00042845303 0.00090050383 0.0016144911 -0.00026150674 0.000108489505 0.0015124606 -0.00045995746 -0.0010885925 -0.0002499324 0.0008741846 -0.000120622484 -0.0006318838 -0.0016657355 0.00076870923 -0.0011538445 0.00021295469 0.0016220636 0.0005081356 -0.0014589364 0.00021707073 0.0010051177 0.000368063 -0.0012703101 0.0014856755 -0.00089448725 -0.0010446317 -0.00012177463 0.00053986895 0.00018153431 0.00037202713 -0.0015462489 -0.0010499184 0.00028410333 -0.00071067625 -3.277311e-05 -8.347137e-05 0.0007820706 0.0007577764 -0.00035046978 -0.00058139564 3.9632992e-05 0.00075469585 0.00063866144 -0.0015716958 -0.00026867256 0.0011674965 -0.00018437815 -0.00064885675 0.0010239711 0.0008700839 0.0010866732 0.00027272312 0.00019393137 0.00054261903 -0.0012840383 0.0007481407 -0.0011067057 0.001525847 -0.0004141797 -0.00021326596 -0.0017041564 0.0008668807 -0.0007662013 -0.00045316308 -0.0010912231 0.0007703152 -0.00055898476 0.0004976708 -0.0010619214 9.313079e-05 3.0058403e-05 -0.0014406935 -0.0015962269 -0.0007108545 -0.0005664542 -2.669088e-05 0.0015492258 0.0015728512 -0.0007606377 0.0011383591 0.00032756722 0.0008212633 -0.0013804602 0.0001300239 -0.0014357475 0.00014561799 -0.0007555898 8.762312e-06 -0.00094044063 0.0014614684 0.0008854894 0.00095983007 0.00020848795 -0.0013293966 -5.399499e-06 2.0859354e-05 0.00073432777 0.001506913 -0.0014811142 0.0002175107 0.00019022574 -0.0015530355 -0.00035620978 -0.00012230569 0.001395954 0.0015985828 0.0005640923 -1.4001188e-05 -0.0012055287 0.00020709062 0.00079455494 0.0011555977 -0.0010281684 -0.0013227261 0.00020590733 0.00023583965 0.0015864188 -5.707792e-05 0.0001465475 0.00066080573 0.000721256 0.00090228405 0.0014274019 0.0016024814 0.00034388073 0.00030113364 0.00042602012 -0.0004435326 0.00087064656 0.00034875202 0.0006754235 -8.8429726e-05 -0.0005401014 0.001344844 0.0006726525 -0.0013426861 -0.0014776275 0.00094544113 -0.0011932114 3.0712905e-05 0.00072990975 -0.000878266 -0.0007169133 -0.0010662548 0.00076939526 -0.0007698875 0.0005881807 -0.00068370596 -0.0008090105 8.830197e-05 0.0012490246 0.000976797 0.00028602383 0.0009281632 0.0006557134 -0.00054067007 0.0017287247 0.00051458075 -0.0011487108 -0.0014165452 -0.00052285334 0.001556111 0.0011536314 -0.000480232 -0.00069242384 -0.0015951133 -0.00055255054 0.0015088202 0.0005602395 0.0002232109 -0.0009696819 0.00034898394 0.0008271145 -0.00061696704 -0.00048537095 0.00016533083 -0.00018523297 -0.0016330392 0.00052491593 -0.0007403136 -0.00018225398 -0.00023988938 -0.0012519751 -0.0009867515 0.0014624929 -0.0009258937 -0.0005243546 0.0016855196 -0.00020126472 0.000935718 -0.0016799457 -0.00021411265 0.0008165891 -0.0011054466 0.0012540882 0.00030526984 -0.0016599876 0.0006940156 0.0005038232 -0.0013565972 -0.0012199584 0.0014125424 -0.00074283953 0.00069121894 -0.0010311417 0.0011169625 -0.00036145654 -0.00027425837 3.7238544e-05 0.001534671
לאכול 0.0006006315 -0.00024015844 0.00053896016 0.0010870813 -0.0016644673 -0.00083858566 -0.0004710537 -0.0018140362 0.0014995082 0.0016460561 0.0010504304 0.0016840509 -0.0023627165 -0.0020378754 -0.0010475717 -0.0005604463 -8.4273386e-05 0.0017754205 -0.0003344443 0.0005953069 -0.0017453472 0.0009193507 -0.0004392817 -0.00096907344 -0.002916962 -0.0008290185 0.0024128396 0.0014571493 -0.00027646343 -0.001298115 -0.00047420134 -0.0012825984 0.0006881562 -0.0012395877 -0.0018156779 -0.0015493968 -0.0010971167 6.39768e-05 -0.00088577985 0.0009699387 -0.0018017283 0.0001939086 -0.0018433692 0.0003432899 -0.001693709 -0.0027689566 0.0023471883 -0.0015181517 0.00093145354 0.00030265754 -0.00052779744 0.00047192798 0.00068283797 -0.00024736882 0.0026963241 -0.0003346444 -0.00220449 0.0011696969 0.00040528626 -0.0010514869 -0.0018472325 -0.00013433203 0.0013688054 -0.00024094831 -0.00080832304 0.0009385886 0.0007963688 0.0026190085 0.0003464606 -0.00024345038 -0.0011912646 0.0020326648 0.0018114602 -0.0030144807 0.001963055 0.0016288746 -0.00016855108 4.3116393e-05 -0.00270001 -0.0009660672 0.0011289803 0.0014698298 -0.0014221797 -0.0019421658 0.0014976416 0.00069861015 0.0014070562 -0.0020668374 0.0007678623 -0.00091030466 0.0003124767 -4.070527e-06 0.00034634589 -0.0011606556 0.00082426984 -0.00211833 7.323481e-05 -0.0007188565 -0.00068616524 -0.0026517806 -0.0009028535 -0.0008824153 -0.0018515898 0.00061405957 0.0015140763 0.00074493885 0.0008775933 0.00034219463 -0.0028351948 0.0017658917 0.0012170488 0.0011284265 -0.0016923597 -0.0006427104 -0.0015620617 -0.00019209798 0.0017249355 -0.0020157816 -0.0012712535 0.0022484562 -0.0002222808 -0.00024099625 0.00016022303 0.00023040906 0.00025200302 0.0002647675 0.00096485694 0.0016695051 -7.3872674e-05 0.00229571 -0.0012933213 0.00029330127 0.0021631513 0.0015828593 0.0004160709 0.00056853896 -0.0006055707 -0.0009843853 -0.0011468349 -0.0019350534 0.00062974 0.00060396927 -0.002938999 0.00034324414 0.0008181493 -0.0014475923 0.0002896459 -0.00031137883 0.00093178276 -0.0004684234 -0.0019447778 0.0018164087 -0.0013096132 -0.0012805853 0.0023897032 0.00059457484 0.0010950331 -0.0012834336 0.00073345023 -0.0025063206 0.0022036866 0.00037195487 -0.00016890343 0.00042167696 0.0011919079 -0.00055432087 -0.0013226918 0.00020736539 0.0030219164 0.00039533092 -0.0017588726 -0.00017386257 -6.276547e-05 0.00032962448 -0.0022680857 -0.002082071 -0.0007259021 -0.0009679883 -0.001347425 -0.0016052715 0.0005617931 -0.00056455797 -0.0009409913 -0.0004887937 0.0017080776 0.0004960143 0.0035231726 0.00039624987 0.00031947548 -0.0018708049 0.00088295154 2.0087942e-05 0.00032966322 -0.00042557865 0.00071266317 -0.0011929984 -0.00040900163 0.0008062517 7.753451e-05 -0.0014083536 -0.00050806836 0.0014173791 0.00036724436 -0.0014433456 0.00033525913 -0.0013925834 0.0020310574 -0.0015824906 -0.0022627898 -0.0010317856 0.00035114147 0.0025542825 -0.0009679394 0.0004530424 -0.0004431839 -0.001756411 0.0012173936 -0.00054912164 -0.00086236204 -0.0008749889 6.663305e-05 -0.00019929183 -0.0024080102 0.0018329942 0.0017020702 0.0006772017 -0.00030660225 0.0003244927 0.0032161132 0.0005141063 -0.0007127804 -0.00223248 -0.00095543556 -5.5448404e-06 -0.00106155 -0.0015033467 -0.0022014435 0.0016493462 -0.00090921327 0.00069856516 0.0009939406 -0.0009463433 -0.0010636735 4.0652132e-05 -0.0014123697 0.00082707696 -0.00014136228 0.0012097178 -0.00016899276 0.0018166965 0.00078096165 0.00050910696 0.00064093247 0.0008085328 -0.0008475481 -0.00079124025 -0.00015744602 -8.7983404e-05 0.00096681964 -0.00012589149 0.00067919417 -0.00084198004 0.00088522607 -0.0020032632 0.0014108152 -0.0015972124 0.0011631747 -2.7345028e-05 -0.001720768 -0.00029395186 0.00010988259 0.0008732298 -0.00022647808 0.0020717336 0.00024875684 0.0005506899 0.0011776774 0.0022592954 -3.821264e-05 -0.0019824863 -0.0004510243 0.0018219242 -0.0010210865 7.934037e-06 0.00056625315 -0.0004668055 -0.00368746 -0.00064635614 -0.0009513437 -0.00012517374 -0.0012090607 -0.0012826505 0.00042137472 -0.00089581904 0.00025861023 0.00063049817 -0.00086287747 0.0011664933 -0.0010087884 -0.0006742623
יאללה -0.0011403969 -0.00040830142 -0.0012091789 0.0015219324 -0.0016479632 -0.00080206397 -0.0009766287 -0.00044871465 -0.0013282695 0.0006699319 0.00079271913 -0.0002554084 0.0014226696 0.0010286914 0.0013417511 0.0011679634 0.0009477663 -0.00012970416 -0.0010934337 0.0006829876 -0.000518723 0.0014987028 0.00015391795 -0.00071780576 2.8929007e-05 -0.00038844478 0.00045692475 0.00032102247 -0.00036764075 -0.0012575216 -0.0007662692 0.0010088821 0.00094484363 0.0016094928 -0.0011650358 -0.0006356969 0.0012605218 0.0013748235 -0.0010170509 -0.0016417782 -0.00049537106 0.0004367649 -0.0011711438 0.001285712 -0.0013004324 -0.00035300164 0.0018322855 -0.0018105964 -0.0008356443 0.00011336785 0.0008093756 -1.5517118e-05 -0.00024362515 -0.00058038003 0.0008655269 -0.00085633056 -9.592976e-05 0.0002518778 0.0007749193 -0.0016140273 0.00023433352 -0.0006519685 -0.0006416951 0.0013633015 -0.00031160665 0.0014500058 -0.0009389351 0.0017503386 0.0008241469 -0.0008456448 -0.0002678425 0.0016455061 0.0014419069 0.0005847027 -0.0002207214 0.0019771715 5.9193942e-05 -8.7867695e-05 -0.0010651376 -0.0012598525 -0.0017149296 0.0009425072 0.00047671175 0.00027709507 0.0014028616 0.0016514692 -0.0004905383 -0.00039915682 -0.0008897692 0.00032767697 0.00145245 -0.00017053365 0.000845565 -0.0014131435 0.0007789711 0.0012776569 0.0012213076 0.00076297834 -0.00039359622 0.00061218394 -0.00024814202 0.00038903236 -9.717543e-05 -0.0013113114 0.0007579303 -0.00029847882 -0.0014273613 -0.00076118764 0.00087904587 -0.0007440201 -0.0013609452 0.0013886072 -0.00045302935 -0.0016230331 -0.00040479546 0.0009999513 -0.0008591524 0.0011618008 -0.00023664327 -0.00077649346 0.00037278942 0.0007859315 -0.0009184149 -0.00028428299 0.0009957354 0.00028574598 -0.0015194607 -0.0014235711 0.0013613697 0.0006958794 0.001213279 -0.00036072714 0.0014340414 0.00041468773 0.0011439653 0.00055954506 0.00061822444 -0.00024017975 -0.0014506431 -0.0010064153 -0.0006408248 -2.4181383e-05 -0.00041182621 4.0356654e-06 0.0008998137 -0.0014929798 -0.0009391428 -0.0014903292 -0.0012100278 -0.0009177309 -0.00097681 -0.00039952112 -0.0012218686 -0.0012370617 -0.00063164573 -0.0010008276 -0.0013522232 -0.0015668961 0.0013758893 0.000626738 -3.0427236e-05 0.00018543619 -0.00014493763 -0.0014608266 0.00071554584 -0.0013136122 -0.00087764586 0.000540105 -0.0011015722 -0.001035795 -0.0014607896 -0.0006217058 0.0004669006 -0.0012870679 -0.0004189188 -0.0016071456 -0.0014758332 0.00044300928 -0.0010450042 -0.0013515527 0.00033937756 0.0010701462 0.00023148688 0.00096134836 -0.0011664598 -0.0002451242 -0.00061778893 -0.0013657282 0.0010414943 0.00041226752 -0.00064535614 0.00054556946 0.0011257186 0.00090576865 -0.0012335238 -4.612427e-06 0.00035961095 0.00012253379 0.00092802476 -0.0006999972 0.00043056256 -0.0005776322 -0.00044178969 0.00057391124 0.0013357581 -0.0004880081 0.0013264297 0.00024070058 -0.0011395436 -0.0015336844 -0.0014241595 0.00016136537 -0.00042265063 -0.0016812009 0.0009346194 -0.0010027208 -0.0002088556 4.4338547e-05 0.00091772905 0.00073020597 0.00039857993 0.0012024262 -0.00041050254 0.00048337906 0.000941001 0.0006992739 0.0006087898 -0.0017730843 0.0018031922 0.00017201684 -0.00012503908 -0.00070913363 7.95687e-05 -7.908113e-06 -0.0017157226 0.00060666044 0.0010015129 0.0007027191 -0.0008437397 -0.001041465 -0.0005141889 -0.0015341656 -0.00031683667 -0.0007983863 -0.0013717128 0.0011856728 0.0012811786 -0.00070244895 -0.0013871611 -0.001011437 -0.0002502621 0.00080231886 0.0008528217 5.439484e-06 0.0014943848 -0.0012796208 -0.00113386 -0.0011447142 0.000978681 -0.0005750141 -0.0016214786 0.0004740649 -0.0006373592 0.00013480858 0.0018002924 0.0016906962 -0.0009593269 0.00021143617 -0.0016637244 -9.5371906e-05 -0.0010600848 0.000829942 0.00089230784 0.0013329261 0.0007274812 -0.001316071 -0.00020666784 0.00082285464 0.0016064184 -1.6716724e-05 0.001308862 -0.0012246297 -0.001110233 -0.0012860637 -0.00014888412 0.00023027 7.073906e-05 -0.00026021182 -0.0009735923 0.0014069248 -0.00065493886 -0.0005314543 -0.0014306639 0.001136467 0.00051051873 -0.0013198997 -0.0014307401 -0.00028324054 0.0005879899 -0.0010523149
לא 0.0018900468 -0.0015906205 0.00021398203 -1.9216472e-05 -0.0038007027 -0.0010904917 0.0009620145 -0.0023663852 0.003147969 0.002530025 0.00270436 0.0007270851 2.5469073e-05 -0.00096131605 -0.0025419914 -0.0010868541 -0.0018433265 0.0009898476 -0.001911514 0.0008478144 -0.0020480542 -0.0019963537 0.0012618289 -5.7154797e-05 -0.0026605832 0.0018402972 0.0030642683 0.0012986641 0.0021812208 -0.0013512381 -0.0016470003 -0.00044235605 -0.00050116156 -0.00059095427 -0.0034153506 -0.00032513554 0.00034637947 -0.00015725063 -0.002224443 0.0007677432 0.0008676889 0.0013411852 -0.002570823 0.0015620335 -0.0020915382 -0.0025783642 0.0023070248 -0.0031580804 0.0018937681 0.00043043215 -0.002693811 -0.00040033404 0.001316402 0.0009860123 0.004115395 -0.0008521534 -0.0036191582 -0.0016549717 0.0023358918 -0.00081470644 -0.0003644734 -0.00023699753 0.0012145471 0.0025559017 0.0020431397 0.00047751528 -0.0007839631 0.0010977405 0.0017079688 0.0015780687 -0.00044368638 0.0014400001 0.0023025267 -0.0059594847 0.0012446743 0.004453388 -0.0017481691 -0.0036385304 -0.0023807222 -0.0021318225 -0.0018815577 -0.0007376406 -0.0025122762 -0.00289484 -0.0015125148 -0.00014206063 0.0020231325 -0.0020944676 -0.0012874453 -0.0009709483 1.1613575e-05 -0.002029597 0.001661022 -0.00057411304 -0.002357876 -0.0029609604 -0.0013296884 -0.00079742406 -0.0002374703 -0.0038981442 0.0008770857 0.0012150008 -0.00091163465 0.001980081 -0.00043075968 -2.4026983e-06 0.0011212113 -0.0003041653 -0.0047389665 -0.00037363975 -0.00048757353 0.0025484688 -0.0011464218 -0.0005051148 -0.0014168994 -0.0010953081 0.00083051104 -0.00046737006 0.0015387163 0.0036461435 0.002505378 0.0012906293 -0.0016085932 0.0015197592 0.0021417753 0.00035474825 -0.0003671155 0.0025493682 0.0013799111 0.0024760573 0.0009796063 0.001985065 0.002842304 -9.633312e-05 0.0017612077 -0.0013457491 -0.0019260057 0.00057296496 0.0016371867 -0.00030527092 0.0011639479 0.00063361356 -0.004208754 -0.0007784574 0.0008956543 0.0009362192 0.0008771741 -0.0018265649 0.00018096974 -0.001607097 -0.0009297892 0.0023131468 -0.0008290201 -0.0016353389 0.0028647957 0.0016561184 -0.0006346464 -0.00043884802 0.001182124 -0.0012303977 0.0008959338 -0.0019710746 0.00079077575 0.0021849046 -0.0016394451 0.0014772655 0.0014341264 0.000975868 0.005001453 -0.0016807484 -9.8378056e-05 -0.0019069749 -0.0014157323 -0.0013854152 -0.0013277505 -0.00287378 -0.00041158288 -3.375148e-05 0.00030765837 -0.0006684952 0.0009966544 -0.0022286682 4.374425e-05 0.001156323 0.0018221956 -0.00021171277 0.0030889579 -0.00047572752 -0.00075712276 -0.0033861478 0.0010166514 -0.0016217843 -0.001986844 -0.0012051342 -0.0013942554 0.001373513 0.00037665208 0.00045193036 0.002700052 -0.0011578671 -0.001528669 -0.00047200173 0.0010353252 -0.00031851523 0.00084063463 -0.0009803025 0.00024722927 -0.0024007822 -0.0011953702 0.0007391214 -0.0024237013 0.0031244634 0.00057352823 -0.0006304885 8.253227e-05 0.0013370214 0.0016297522 -0.0020828207 -0.0028658612 -9.153526e-05 -0.003705719 -0.0012761113 -0.0007631967 0.0007027308 0.0006240753 0.00042926875 0.00058549695 -0.0010693525 0.0023185571 0.0007805588 0.0005910069 -0.002977979 0.0009941974 -0.0027521143 -0.002610024 0.0010240338 -0.0016213235 0.0020028523 -0.0005131638 0.0014616052 -0.0014671194 -0.0018621802 0.00048358453 0.0008625072 -0.0015869966 0.00021542572 0.0038057014 -0.0018295853 -0.0012856501 0.0016172646 -0.00026464328 -0.0004603588 0.0040348223 0.00079131953 -0.00063148147 -0.0014995782 0.00018380326 -0.0036687788 -0.00012154779 0.0018816252 -0.0009772961 0.0015201973 0.00072969997 -0.003139148 0.0020820426 0.0009989217 0.00062663853 0.000174404 -0.0015033726 -0.002126449 -0.00085932395 -0.0006426758 0.00066972437 0.001177101 -0.0018164848 -0.00091683137 -0.0008753174 0.0032181945 -0.0011358646 0.00028036576 -0.002218502 -0.000686199 0.0009282593 0.0005605077 0.0013333207 0.0011869207 -0.005527956 0.00036244278 0.0012308348 -0.0011432343 4.7521367e-05 -0.0010220704 -0.0014831315 0.0013956403 -0.00018249324 -0.0017019697 -0.0025552977 -2.0208356e-05 -0.0017654754 0.00037389115
כן 0.00149701 0.0004329098 0.0012502321 -0.001372399 -0.00053964177 0.00073617557 0.00046517112 0.0007948458 -0.0012979078 -9.807682e-05 0.0017602753 -0.0008022124 0.0015390004 0.0014049455 0.0010608927 0.0012197735 0.0012711624 0.00032061414 -0.00021586416 0.0013430032 -0.00074269826 -0.0012723557 1.5783391e-05 0.00070214836 0.0008736195 0.00048974657 0.0002528614 -0.0014804384 0.00035076973 -0.00092577474 -0.001254346 8.028617e-05 6.9047215e-05 -0.0014240601 -0.0016996461 0.0015109795 -0.0013475221 -0.0003093683 -0.00064734876 -0.00088346814 5.0841838e-05 0.00080525636 4.442398e-05 0.0016890143 -0.0014758661 0.0006690437 -0.00037261104 0.00062985584 0.0014202489 0.0016056488 -8.416113e-05 0.0006567543 0.0003280757 -0.001187581 0.0017290144 -0.000561327 0.00011821215 -0.00013679736 0.0017306264 -0.00014497229 0.0010569431 -0.0014641004 -0.001307842 -0.00025698627 -0.0009561205 -0.0014305888 0.0008693253 -0.001192846 0.00014605442 -0.001285268 0.0012998956 0.00051948236 0.0009036033 9.493326e-07 -3.5325742e-05 0.0006641994 0.0011922229 -0.0015885487 -0.001179906 0.0014297942 -0.00030913152 0.0012307392 -0.0003917743 0.000481148 -0.00070216204 -0.0002921598 0.00032054694 -0.0010237893 0.00055407104 0.000270074 -0.0013377572 -4.5466088e-05 0.00022375109 0.0015711909 0.0007405714 0.0013927799 -0.00015695157 -0.0012800621 -0.00025325213 0.00059597363 -0.0012253413 0.0010553868 0.0012910847 -0.0011225956 -0.0012911422 0.0010936689 -0.00040007278 0.00018177256 0.0012940783 -0.0003061712 0.00012983497 0.00063240493 -0.00023554887 -0.0004708386 0.0003153667 -0.0012801326 0.0011025432 0.0009863616 -0.00036238745 -0.00073841086 0.00071601535 -0.0007811603 0.00012448632 0.00088901154 -0.00019719593 -0.0015547472 0.0004543087 0.0014909146 -0.0009728571 0.0005959184 -0.0016647486 -0.00087579305 -0.00029535638 0.00073720474 0.0015322018 0.001088571 0.00038518777 -0.0010500501 0.0003660318 0.0007035442 0.00036168328 7.918666e-05 -0.0012342153 -0.0015177843 -0.0008338274 -0.001143701 0.0010312723 -0.00014161329 -0.00044111488 -0.0004011792 -0.00082097476 -0.0007371147 0.0015357173 -0.0012009166 -0.0011939624 0.00021337884 -9.821389e-06 0.0005807086 -0.000775879 0.00096700457 0.0014895727 0.00089255674 0.0016152139 0.0012673491 0.0015640409 8.707401e-05 0.0012203929 -0.0009680859 0.0009631221 0.0015679798 -0.0011048412 0.00022880867 0.000112771515 -7.125158e-05 0.0006330395 -0.00084029365 -0.0012219504 0.00057725614 -0.0003795731 0.0013138006 -0.0010467249 -0.00070798217 2.1448057e-05 -0.00018470654 0.00090710993 0.001319074 0.0012903026 -0.00016565014 -0.00083044235 0.0013028278 -0.0015106942 -0.0009402063 -0.0009311552 -0.0005990997 -0.001551211 0.0013331535 0.001755411 -0.0015313913 -0.0010186597 0.0008200936 -0.00039333582 0.00042182504 -0.00022352024 -0.0007917915 -0.0012917292 -0.0008312193 0.00065703754 -0.0007435658 -0.00048556377 -0.0010984245 0.0011296597 -2.9202283e-05 -0.0012488477 2.2726208e-05 3.150266e-05 0.0012631816 -0.0012913815 -0.00019441373 -0.0016046932 0.0009953112 0.00048388797 0.0002654279 2.9488252e-05 0.0010918957 0.00063292467 -0.00024834703 -0.0006596258 -0.00035096923 0.001683451 0.0006760564 0.0003529927 0.0015650326 0.0007969224 -0.0010076404 -0.00031897094 -0.00126821 -7.8728044e-05 -0.0012152388 0.00044408886 -0.00086999807 0.00031719505 0.00024181386 0.0015420957 0.0008440658 -0.00026897763 -0.0010899247 -8.420514e-06 0.000622496 -0.0015612451 0.000172779 0.0010616545 0.0014346918 0.00057307753 0.0014945182 -0.000146134 -0.0010930988 0.00052570016 0.0014910169 0.0012828824 0.0013549255 0.0013373768 -0.00078749075 -0.0010662526 -0.0010245268 0.0008127071 -2.3857187e-05 -0.00029419913 -0.0010672192 0.001141276 6.314719e-05 0.00044246553 -0.0007130558 -0.0008049632 -0.0009894845 0.00022529886 -0.0010541964 0.00016209816 0.0013519431 0.00027623083 0.001440728 -0.0010935932 0.0005346017 -0.00013035431 -0.001439845 0.00035368287 -7.96089e-05 -0.00046155654 0.0010659457 0.0011754534 0.00017504688 -0.0009331337 0.0010906722 -0.0016311615 0.0016497618 0.00033575893 -0.0014496198 -0.0010387298 8.807154e-05 0.0008408336 0.0003499825
אנחנו -0.0006511374 -0.0034350427 0.00049992016 0.002250858 -0.0010553319 -0.0011676217 -0.0011805405 -4.1791733e-05 0.0010951881 0.0011147727 0.0017313653 0.00016025276 -0.0007017596 0.00068086124 0.00020076588 0.00043651162 -0.0020759818 0.0019669256 -0.0014255256 0.0030093133 -0.0003787764 -0.000577573 -0.000602012 -0.0018006074 -0.0029976883 0.0024652146 0.0032867768 -0.001386497 -0.00042724414 -0.0006284633 0.00059214636 0.00043866833 0.00035237116 -0.0004636671 -0.0009538567 -0.001840861 0.000631366 0.0015189789 -0.002219936 -0.00027637524 0.0013267678 0.0032732126 -0.0026842935 0.0011724859 -0.002174922 -0.0021032137 -5.7552144e-05 -0.0013584638 0.00020244432 -0.00050360383 -0.0023076453 0.0009717487 6.166096e-05 0.0013983991 0.0030956573 -0.0016560542 -0.0030684273 -0.0007495163 0.002905671 3.866818e-05 -0.0021741837 -0.00016313703 0.0009763057 0.003403015 0.0017721757 0.00088382675 -0.0019539255 0.00322073 0.00256767 0.0021190238 -0.00019015015 0.00197046 0.0024357068 -0.0029295564 0.0007759069 0.003927229 -0.0013679807 -0.002230967 -0.0017332219 -0.0018064777 -0.00190797 0.0007254898 -0.0023817183 -0.0019737019 -0.00096965133 0.0014180996 0.0006773919 0.00011125342 0.00075395213 -0.0015785969 0.0011773197 -0.0015360271 0.00200022 0.00018838055 0.00025885776 -0.00054814754 -0.0030498393 0.0004956771 -0.0018456988 -0.0010754169 0.0016915894 0.00094406557 -0.002527856 0.0012847595 -0.00048676453 0.0014958988 -0.0016258127 0.0018975295 -0.003591914 0.0015777198 0.0014445602 0.0018911868 -0.0018851357 -0.0011743649 -0.0020841314 -0.001276249 -0.0004606522 0.0007049614 0.0007668313 0.0028555857 5.890683e-05 0.0017694061 -0.0014865346 -9.854477e-05 0.0004050447 -0.0013192061 -0.0015250505 0.0023615197 -0.0011615416 0.0016100386 -0.00080409023 -0.00028881794 0.0021010188 0.0013562678 0.00063830364 0.0010467822 -0.00033705318 -0.0004273664 0.0023359703 -0.0009531091 0.0029720024 -0.0012573116 -0.0027739808 -0.0030154684 0.0015689252 -0.0010535055 0.0001717964 -5.045767e-05 6.3283645e-05 -7.197832e-05 -0.0016187916 0.0016392461 -0.002282539 -0.0018880904 0.0010492742 0.0027862554 0.00040853582 0.0007940388 -3.5405355e-06 -0.0012911708 0.0018562049 -0.0020509274 0.00091373693 -6.3931526e-05 -0.0007233196 -0.00022187376 0.0012661734 -0.0009909569 0.0042981347 -0.00039123584 -0.00261521 0.00049161504 0.0010585611 -0.0011541958 -0.0001486123 -0.0026748523 -0.0021147348 -8.2463856e-05 0.00035982666 -0.0012273032 -2.8749588e-05 -0.0009351563 -0.0015466695 0.0003009591 0.001574412 0.002099524 0.0042903204 -0.0009321021 -0.0005822035 -0.0032624537 -0.0007569508 -0.0038956432 -0.0017528752 -3.81607e-05 -0.00039303486 0.00023953099 0.0018986111 0.001006788 -4.3033378e-07 -0.0003343638 0.0003674518 -0.000804349 0.0006024706 -0.0012520266 0.0018197211 -0.0021331243 0.00038601167 0.0001302814 -0.0012510376 -2.3141863e-05 -0.00014374634 0.002445561 -0.0009550378 0.00085019035 -0.00089837087 -0.0016839049 0.0016725409 -0.0033485752 -0.0022278167 6.2573105e-05 -0.0026811473 -0.00022353326 -0.0013359172 0.00027458675 0.0005129088 0.0005028014 -0.0002253823 2.308207e-05 0.0033355406 -0.0006683025 0.0019200006 -0.0018337687 0.00079277303 -0.0011318563 -0.0034636126 0.0006223801 0.00010803269 -0.0006175395 0.0017120723 0.002867738 0.0007973534 -0.0015132257 -0.00044481014 -0.0017742559 -8.3212115e-05 0.00027041463 0.0020603214 -0.0007643225 -0.0016288288 0.0026152716 -0.00036585538 -0.0021824567 0.003181621 -0.00028323647 0.0011092097 -0.00026707773 -0.0004104808 -0.0022463761 -0.00065277866 0.002374405 0.0006676643 0.0007751047 -0.0009173088 -0.0014344522 -0.00031514736 -0.0003276774 0.0027826973 0.00024524232 -0.0029421602 -0.0026981912 0.00036835662 0.0008740516 0.00051604374 0.002669162 -0.0016684878 -0.0024148168 -0.0015186605 0.0026086103 0.0005734505 -0.0011627618 -0.0023871723 -0.00021714937 -0.0009404146 -4.3843662e-05 0.00061087264 -0.0006643431 -0.0036830204 -0.0010654397 -4.3742726e-05 0.0007821347 0.000725606 -6.55429e-05 -0.00013258024 0.00058140606 0.0012321232 -0.0011953267 -0.0045172824 0.0027694518 -0.0017791886 0.00094330154
שי -0.0009978655 -0.0007144645 -0.0005226551 0.0003617146 -0.00089942146 -0.00107095 -0.0014820062 -0.00036310733 0.0027827295 0.0015795123 -0.0004465348 0.0006944193 1.1261211e-06 0.0006149037 -0.0009251096 0.00017810537 0.0004408569 -7.769361e-05 -0.0002445105 0.0010361796 -0.0010290083 -0.0002125935 -8.141415e-05 0.0006118982 -0.0009079697 0.0017560654 9.4710274e-05 -0.0013978659 0.0024954902 -8.7754386e-05 -0.0020877682 0.0006313685 0.00037324303 -0.00049737585 -0.002731667 -2.2002401e-05 -0.0018288114 0.0010826542 0.0010502326 0.00022390921 -0.0013129984 0.0005451019 -0.0015601332 0.0014712892 -0.0010197086 -0.0030516128 0.0026433163 -0.0012690052 -0.00020657665 0.0011204114 -8.0967395e-05 -0.0011613775 -0.000766784 0.0015572216 0.00038398243 -0.0017477056 -0.00030659974 0.00062105735 0.0027758956 -0.002223944 -0.0012915981 0.00013278013 0.0005442866 0.0035578974 0.0018160536 0.00049420353 8.0420454e-05 0.0005454047 0.0024297952 -0.00035435744 -0.0024017743 -0.00048048337 0.00028519615 -0.002078628 0.0024289403 0.00096497755 0.0012989901 -0.002296138 -0.001989382 -0.0008510359 -0.0013705292 0.0013495884 -0.0015438457 0.0003679462 -0.0011872625 -0.00022242274 0.00021652838 -0.0008127395 -0.0015836465 0.00092117453 0.0005481725 -0.0018337766 -0.0001204906 -0.0012822794 -0.001963777 -0.002380676 -0.00021827288 0.0006606035 -0.00075084215 -0.00242161 0.0019712073 -0.00014230909 8.94917e-05 0.00069059536 0.0014847182 -0.0002792777 0.00047646058 1.45145295e-05 -0.003483422 0.0002719195 0.0012984988 0.0025241529 -0.0005505662 -0.002692655 -0.0027231048 -0.0015854351 0.0016813817 0.000723965 -0.0005729687 0.00049059174 0.0016854189 -0.00087106455 -0.0010950643 0.0004500734 0.0009646036 -0.0018379798 -0.0016486023 7.6133685e-05 -0.0012504226 -5.2385643e-05 -0.0006249985 0.0008808984 0.0008627388 0.0014637712 0.0020022849 -0.001157456 0.00047101255 0.0012477334 -0.0008947782 -0.0013403908 0.0013244866 0.00089106214 -0.0026239164 -0.0011903904 0.0016312633 0.0006307972 0.0008873728 0.0001472876 0.00022378199 0.0008481619 -0.0017788188 -0.00031940822 0.0006306558 -0.0011151081 0.0016519714 0.0030300557 -4.2964548e-05 -5.2041446e-06 0.0026263117 -0.0028694798 0.0014650789 0.00080503774 0.0015932274 2.0718833e-06 -0.0009194983 0.0019123543 0.0002476539 0.0015861545 0.0018999374 -0.00020207792 0.00046461984 -0.0018875699 -3.14494e-05 -0.0005555811 -0.0014745939 -0.0012865945 -0.0021848672 7.162475e-05 -0.0003260718 -0.0021524152 -0.002062287 -0.0021377373 0.0014946685 -0.0015827499 0.00030153178 0.0017935202 0.003459734 -0.0016882195 -0.00058578566 -0.0019682914 0.00080331863 -0.00024499916 -0.0020035973 -0.0014902555 -0.0005049663 -4.4536555e-05 0.0014769514 0.0010395179 0.0018743745 -0.0025957008 -0.00015204024 0.0023159976 -0.0012267721 -0.0023778582 -7.178172e-05 -0.0012203297 0.0017491406 -0.0001557996 -0.0012522098 -0.0005052815 0.00096606783 0.0017730932 -0.0019188203 -0.0019203927 0.0007299098 0.0005574369 0.0018632351 -0.00039948238 0.000182923 0.002116627 0.00017726883 -0.00054721 -0.0022203948 0.0019583094 0.0011977203 -0.0017321644 -0.00137512 -0.00049679406 0.0010675195 -0.0001397592 0.0013674729 -0.0021184152 -0.001296902 0.00066107727 -0.00013423919 0.0015864096 -0.0024027794 -0.00077264156 -0.00010335528 0.00035800543 -0.001065055 0.00031281586 -0.00038659258 -8.4042775e-05 -0.0016537434 0.0007394231 0.00247591 2.0928932e-05 -0.0006084411 0.0031052544 0.0010725232 0.00013390993 0.0016885708 -0.0011331055 0.0021102785 -0.0005363746 -0.00029839575 -0.003243772 -0.0015770742 -0.00088640524 0.0014998455 0.0013991569 0.0003967492 -0.0024558809 0.0014857299 -0.00075435615 0.0017100987 0.00040238324 -0.002569581 6.567463e-05 0.00021204184 0.0019290422 0.0005811925 -0.00011302351 0.00061833696 -9.0014015e-05 1.42772715e-05 0.0012568936 -0.00077538565 -0.00036455027 -0.0020708505 0.0013462049 -0.0019591232 0.0007532703 -0.000863258 0.000552396 -0.0035381312 5.6869394e-05 -0.0014268094 -7.004216e-05 -4.077229e-05 -0.0025957949 -0.0016928725 0.00022166182 0.0022697742 -7.598731e-05 -0.0013366598 0.0013162188 -0.0011866617 0.0013812244
בחוץ 0.00019328152 0.00030457752 -0.0016382297 -0.0007927302 0.0008695471 0.00062898523 -0.001393589 0.0004144059 -0.00015857603 0.00045974643 0.0007194835 0.0005040542 0.0012260885 0.0005418788 -0.00022974236 0.0003401241 -0.0016434988 0.0007242211 -0.00066516566 -8.4081825e-05 -0.0014445921 0.00065827376 -0.00020585519 -0.00031015225 -0.00093669014 -0.0009847264 0.0008963546 -0.0015390224 0.0018445827 -0.00076189503 -0.0013343623 0.000754941 -0.0010017903 -0.00053601194 -0.0017139069 -0.00092298473 -0.0010978404 -0.00024675022 0.0012581582 -0.0011154561 0.00055559044 -0.00057230634 0.0008345641 0.0013478247 0.001002597 -0.00094630045 0.0011398586 0.0012859429 0.0009932683 0.0013276583 0.0001693884 -0.0009839354 -0.00039659432 -0.0007764531 -0.00046424984 -0.001495729 -0.0005567851 -5.3636366e-05 -0.00029148313 0.00086695096 -0.00090522063 -0.000571131 0.0015162969 0.00089503854 0.0019662064 -0.00048743215 -0.00024807092 0.0008215939 0.00063022005 0.00076176465 -0.0005361668 0.0010577051 0.00051559333 -0.0026683875 -0.0003563881 0.00041837746 -0.0012858078 0.00043150497 -0.00014461613 -0.00055963127 -0.00039403397 -0.001342723 0.000332106 0.00068961806 -0.0013047786 0.00047663675 0.0007799249 0.0010869869 0.0008153669 -0.0014262844 0.0013360725 -0.0005004938 5.953983e-05 -0.0014277312 -0.0016576502 -0.001974187 0.0005616062 0.0013628745 -0.0014547062 -0.002072591 0.00011570269 0.001189357 0.0012017208 0.0013976732 -0.0013509128 0.0015938483 -0.0009135694 0.0016451386 -0.000584491 0.0017051222 -4.1158546e-05 0.0017837952 0.0010006956 -0.0016977981 -0.0003080593 0.00032807133 0.0013486306 0.00030272792 -0.0013297017 0.002210765 0.0018549289 0.0007974868 -0.0015852944 -0.0005052272 -0.0006203187 -0.0003160144 -0.0007682373 0.0018963921 0.0015663605 0.0015836492 -0.00095948734 0.0013790181 0.0015464511 9.8855635e-05 0.00083257153 0.0014460832 -0.001754148 -0.00061922596 0.001803128 -0.00012604652 -7.043352e-07 0.00081227167 -0.0016571734 -0.0018759241 -0.0002505113 -0.001107866 -0.0005360113 -0.001370918 0.00036476323 -0.00072033756 0.00089888624 0.001471021 -0.00042971334 -0.0015684041 -0.0006617202 -0.0010421565 0.0009559374 0.0013889272 -0.0011117397 0.0010855478 0.0006824281 -0.001625772 -0.00019560212 0.000121441066 -0.00045346582 0.0016161754 -0.00018992911 0.0013549987 0.0014435707 -0.0017442123 -0.0014607119 9.549699e-05 -0.0011729583 3.23666e-05 0.0005848949 -0.0012499754 -0.00011852346 -0.0012455832 -0.00011470806 0.00065085187 0.0004251148 0.00030102127 -0.0007731343 0.0005094754 0.0019266257 0.0008304467 -0.00015368056 0.00015543745 -0.0013666071 -0.0010511755 0.00038196446 -0.0017923517 -0.001655834 0.00044059005 0.00047097722 0.0010605615 -0.00025305166 -0.00016633187 0.0018905028 -0.0017938144 -0.0015304212 0.0011334029 -0.00035994634 0.0012375367 0.0005375489 -0.0019465879 0.0007508112 -0.00082316395 -0.0019497228 0.0003603457 -0.000815464 0.00065546966 0.0002661342 0.0015447924 -0.0008552018 0.00073115376 4.354628e-06 -0.00067998015 -0.00037564553 -9.396315e-05 -0.00066364935 0.0011187021 -0.00095305603 -2.894556e-05 0.0019883579 -0.0010625658 0.00031908922 -0.0017059444 0.0015017375 -0.00046214266 -0.0008058925 -0.0014200078 0.00068896567 -0.0015462213 0.00092540344 0.001210221 -0.0013828237 -0.0012892927 0.0016393882 0.0011397304 -0.0010955798 -0.00059392315 -0.0011177098 0.0015491778 0.0011809481 0.00066936127 0.0010259836 0.0010288581 -0.0003391617 0.0021955362 -0.0013331905 0.00046098695 0.0013338567 -0.00096446497 -0.00043154927 0.000930071 -0.0012299914 0.00103079 -0.00083168567 0.0007772361 -0.0014606442 -0.0015997167 -0.001316893 -0.0014449196 -0.00027195766 0.00022892209 0.00036538014 -0.0006656705 -0.00017716901 -0.0012131121 -0.0013812657 -4.340701e-05 0.0015946506 -0.0005453955 0.00042334443 -0.0004932887 -0.0012100185 0.00066241546 -0.0007011698 0.0010188017 -0.00044154885 -0.001027525 0.0013359126 0.00035270274 -0.0011888375 -0.001096123 -0.0013251236 0.0004564344 -0.0013863608 -0.00039278727 -0.0013729678 -0.0019560766 -0.0014032059 0.0011568377 -0.00045020113 -0.00017951927 -0.0019730655 0.0013836214 7.317708e-05 0.0010681526
מה 0.0005014363 -0.0020498284 -0.0007693168 0.00034757104 -0.0010172505 0.0006866117 0.00064126344 -7.77187e-05 0.00067946065 0.00026437492 0.0024619051 0.0012437396 -0.0018572668 -0.0008763013 -0.00012206862 6.5321874e-05 -0.0003730729 0.0007162143 0.001388822 0.0026043123 -0.0023343624 -0.0019757773 0.0016668655 0.000808654 -0.0030127245 0.0018625284 0.0021898241 0.00088636257 -4.5789166e-05 0.0011186922 -0.00087675283 6.535806e-05 1.4403544e-05 -2.9594363e-05 -0.0025979574 -0.0012964776 0.0006923757 0.0012237023 0.0011664553 0.0015373697 0.000929958 0.0024870965 -0.0018144576 0.0016413014 -0.0016980245 -0.0005620129 0.0015983199 -0.0020360698 0.0008622378 -0.001567132 0.000432897 -0.0007752558 -0.0009719755 0.0015839031 0.0017163211 -0.001354518 -0.0025178068 0.0007157036 -0.000336002 0.0009178681 6.410545e-05 0.0014638247 0.00012704759 0.0028887286 0.0014996136 0.0016967031 -0.0012483338 0.0019571586 0.000991256 0.0012006074 -0.001004747 -0.00019370795 -0.0007774352 -0.0007381595 0.0023217094 0.0031450377 -0.0006854596 -0.001562765 -0.00091328844 -0.0014439756 0.000498865 0.00092514505 -0.0014115587 0.00080639846 0.00050528644 0.0011885007 0.0019241384 0.0004255073 -0.00023612242 0.00092610513 -0.000861922 -0.0015536656 -0.00050744804 0.0010125682 -0.00022425002 0.0009834523 -0.00087985944 0.00051580096 -0.00073128316 -0.00016670633 0.0008065382 -0.00033073945 -0.0012063304 -0.0007072382 -0.0017557637 0.0015262866 0.0013088023 -0.0005457298 -0.0027484042 0.00091189437 -0.0012660881 0.0002260429 -0.0024414468 -0.0019088674 -0.0007296324 -0.0012353619 0.0014473214 0.00058082474 0.00033448776 0.0013362871 0.0009952141 0.0017752384 0.0007438571 0.000562026 0.00056972646 5.9030306e-05 0.0012196614 0.0017148538 0.00061358063 0.0017260077 -0.0013537521 0.0010164503 0.0026033614 -0.001540618 0.0019346954 4.2634245e-05 -0.001632557 -0.0017836598 -0.00027199724 0.00016375032 0.0023597935 -0.0010142322 -0.0030196942 0.0005231951 -0.00073522143 -0.0008882822 0.00067941874 -0.0025928887 0.0014603481 0.000521213 -0.00061148545 0.00072179275 -0.000104161416 -0.0014381572 -3.5396708e-05 0.0016139001 -0.0013528395 0.0014670251 -0.00079101964 -0.002249061 0.0023853823 -0.001547459 0.00025771398 -0.00014694215 -0.0016648438 0.0016361512 0.00081931247 -0.00018314143 0.00011192262 0.00092304026 4.0847775e-05 -0.0008151234 0.0002847959 9.1819704e-05 -0.0027333677 -0.0022339092 -0.002114311 0.000635844 -0.0015494225 -0.0012107508 0.001120324 -0.0016286466 0.00095344684 -0.0011430915 0.0003955836 -0.0003006774 0.0016805425 0.0008399059 -0.0012396515 -0.0010275001 -0.0015639133 -0.002535002 0.0002009928 -0.0016866126 0.0012433517 0.00039941786 0.0017212308 -0.00063944823 0.0011981024 -0.000902535 0.001076116 -0.0009131947 0.0007791215 -0.0020218296 0.0009564805 -0.00022674166 0.0012501152 -0.0020429364 -0.00010247612 0.0011578623 -0.00038998298 0.0013840444 3.0192967e-05 -0.00080191577 -0.00095942646 0.00016503873 0.0007730883 -0.001424761 -0.002318717 0.0006562308 -0.0011061196 -0.00035113917 -0.0019408781 0.00040549203 0.001392372 -0.00068761245 -0.0017026387 -0.00073222513 0.002192314 0.00018788276 0.0010851248 -0.00043549863 0.00054608023 -0.00095148484 -0.0012460052 -0.00053923903 -0.0021788133 0.0017512554 0.00047986128 0.002904471 0.0011242379 0.00021134468 0.0012615075 -0.0013020316 0.00041859373 0.0018892024 0.0018718052 0.0014565976 -3.4775494e-05 0.0028796098 -0.0006760253 -0.00058535504 -3.3412187e-05 -0.00033644366 0.00061350956 -0.0008418398 0.0007246281 -0.0027163697 -0.00042965022 0.0017493572 -0.0015208337 -0.0013747468 -0.0012522758 0.0007167467 -0.0002482789 -0.00095046725 -0.0003508659 0.0012657894 -0.0011184895 -0.0015618807 0.00013253155 -0.00091487356 3.3671116e-05 0.0017032238 -0.00079727574 -0.0016724304 -0.0022167643 0.0007099683 0.0014004174 0.0010357534 -0.0007568125 0.0020258052 -0.0006116745 0.0014141186 -0.0017628868 0.0015099908 -0.0020793898 -0.0003617385 -0.0010014576 -0.0003824303 0.0009317744 -0.00069757213 -0.00019479658 -0.0012966603 0.0014963418 -0.00079575746 -1.13127035e-05 0.0021320947 -0.00034848877 0.0016756143
הולכים -0.00030764163 5.5808177e-05 0.00081346626 0.0007861315 -0.00039038146 -0.0010752485 0.00015897342 -0.0016948615 -0.0007437389 0.0023684003 0.0015018862 0.0012042703 0.00011669545 0.0011569131 0.0003039415 -0.0012959581 -0.000154921 0.0012253089 0.00030020188 -0.0006565208 -0.0018121848 -0.0015829208 -0.00035747883 -0.0012132439 -0.0021344565 -0.000114009956 -0.0009533687 -0.00072169385 -0.0005599742 -0.0017066667 -0.0010258021 -0.00062398915 0.00062821386 0.00038780714 -0.0018510326 -0.00051065016 -0.00076501636 -0.0012536647 -0.00096470467 -0.0014204829 0.0012189862 -0.00058737345 0.00016947906 -0.0008650107 -0.0006825926 -0.00030412953 0.0010948647 0.0010818464 0.0002703054 0.00026329345 0.0004696939 -0.00075496227 0.000902753 -0.0011817245 -6.837213e-05 -0.0017033366 0.0007676917 0.00038077304 0.0005817018 0.00025007364 -0.0018777455 -0.0004232807 -0.00027568196 0.0013994637 -0.0004030851 -0.0005686418 0.0010728864 2.152565e-05 0.000913211 0.001555355 -0.00069859 0.0011862483 0.0010665578 -0.00092574116 0.0011093745 0.00043171612 -0.0007774586 -0.00044172836 -0.0009978582 6.195083e-05 0.0009915399 -0.0012627689 0.0007122823 -0.001942997 -0.0007047691 0.00028471736 0.0012057733 -0.0017930634 -0.0008629403 -0.0014872851 0.0004201139 -0.0009767861 0.0010355236 -0.00045536878 -0.0019497981 0.0011888143 -0.0021838509 0.0016809487 -0.0010225265 -0.00013718253 0.00069707405 -0.0014146438 -0.00085941027 0.0014970106 -0.0011483675 -0.00056130445 -0.00064028933 0.0001495104 -0.001060355 0.001580971 0.0009793002 0.0002870347 0.0010430255 -5.2849922e-05 -0.0019531832 0.0011166555 -0.001144592 0.0008601767 0.0009410431 0.0013599047 0.000347209 -0.0001548711 0.0006735984 -0.0006749721 0.0018943924 -0.0012975608 0.000752078 -0.00041275637 0.0009416871 0.00045014918 -0.0011032602 0.00068214873 0.0024731404 0.0008670575 -0.00013971707 -0.0014379142 3.0933188e-05 -0.0014606998 0.001335524 -0.0012533901 -2.4092002e-05 0.00082957855 -0.0020242366 -0.001733452 -0.00023274706 -0.0015075062 -0.0005001935 -0.0013553555 -0.00084656605 -0.00043484656 -0.00039686973 -0.0009733509 -0.00052197115 0.0013174526 0.00057112396 0.0013524607 -0.001012921 0.0007412308 0.00044245724 -0.0011676599 0.002437485 -0.00037651748 -0.00016149275 0.0011606981 -0.0015925777 -0.000657715 -0.0006652501 0.00024718713 0.00010908291 -0.0013484124 -0.0020360884 -0.0010992334 -0.00086408155 0.0006453425 0.00021881596 0.0005473465 -0.0006983459 -0.0006522242 0.0016748123 -0.0018166846 -0.0012643143 0.0007926339 -0.00078351813 -0.0011549218 -0.00015558713 8.5769956e-05 0.00039782125 -0.0010693842 0.00021460558 -0.001994976 0.0016392836 -0.0013512119 -0.0021137598 -0.0018109508 -0.0005614221 0.00077906327 0.0013173352 0.0017498594 0.0009974865 0.00038297096 0.0006094064 0.0010224059 0.0008608934 -0.0011413135 -3.4813547e-05 -0.0005874272 -0.0011540556 0.00033069897 -4.3614586e-05 -0.00016805962 -0.00017347148 -8.0346035e-06 0.00088593765 -0.0006808576 0.00014305091 -0.0013632457 0.0003168622 -0.000793791 0.00011807554 -0.00060234586 -0.0010835555 0.0013349835 -0.00028524495 -0.00052581663 0.001410638 0.0015846726 0.0005212926 -0.0018531044 0.002562119 -0.00048644957 0.00034898185 0.0004528639 0.00035483352 0.0012527108 0.00060026825 0.0010777514 -0.00073122774 -0.0014453309 0.0013139362 -0.00045072753 0.0010277468 -0.001097621 0.0008098976 0.0008404201 -0.0009826301 -0.00068721926 4.611581e-05 -0.001410556 -0.0009195681 0.0022591178 0.0012934731 -0.0013857567 0.00051343633 0.0006256609 0.001640469 -0.00095296913 0.00035257754 -0.0021459314 -0.0005183873 0.00043196735 -0.0007895677 -0.00088726374 0.0012935604 -0.00073749624 -0.0012012274 0.0007127558 0.0015486403 4.2843626e-06 0.0004507925 -0.00043728884 -0.0010800035 0.0012365613 -3.4457023e-06 0.0016911059 0.0015694484 -6.3364816e-05 -0.0007168835 0.0020213283 -0.00015236734 -0.000778932 0.0005633458 0.001532795 -0.0014930745 0.00023534604 0.0006761921 0.00055944896 -0.0019078538 -0.001223759 0.00022885726 -9.9133584e-05 -0.0011406692 0.0003911528 0.0004647007 0.0017742387 -0.0011011908 -0.0021750205 -0.0011136015 0.00025636083 0.00077692454 -0.00091303216
בלובי 0.0008557913 0.0001176074 -0.00078203157 -0.00022438956 -0.0011152853 -0.0003639612 -0.0017535007 0.000912416 0.00078228343 0.0020164428 -0.0011677024 0.0010592671 0.00038581953 0.0006046462 0.00025692393 -0.0016649538 -0.001803474 0.0002487492 -0.0009799274 7.1835515e-05 0.0009805823 0.0006837677 -0.0010125833 0.0009019782 -9.870132e-05 -0.00044097163 -0.0009880622 -0.0015883021 0.00048050602 0.00094511494 -0.0016589067 -0.0004156385 0.00067512534 0.0010493454 -0.0015152235 0.00045518143 0.0008186273 -0.0014071256 -0.0013017528 -0.00016724535 -0.0009302601 0.0013149423 0.001070313 0.00037145865 -0.0016903225 -0.00093256094 0.0004913218 -0.0005665669 -0.0008164176 0.0003566462 0.00064143573 0.0012440957 -0.0012183752 -0.0005907979 0.0002699728 -0.00035741378 0.00023177128 -0.000108478336 0.0006123521 0.0014338449 -0.0010899238 0.0007900548 0.0018056786 0.0007729466 0.00199032 0.0010028838 -0.00089895615 0.0012896569 0.00022907712 0.00052379596 0.00074840104 0.0005494041 -0.0012772902 -0.0006406487 0.0007134136 0.001494051 -0.000780598 0.00050223555 -0.000854526 -0.00094104896 0.0014465735 -0.00024289827 -0.0017565187 0.0011533434 0.0013278191 0.00036479172 0.0015558153 0.0013406202 0.0011417608 0.0010288407 -0.001280494 0.00029192827 0.00025889344 0.0004158857 -0.0015499633 0.0005494801 -0.0018368537 0.00068556995 -0.0009214804 0.001001597 0.0008732409 -0.0012802825 0.0011608417 0.0017080475 -0.00015303168 -0.00065779884 0.0009022064 -0.0001566403 -0.0015438716 0.0019497842 0.00018184922 -0.00038998033 -0.0014651557 1.5291655e-05 -0.0005812298 0.00012324862 0.001469739 -0.0011927264 -0.00080260355 0.0022093249 0.0011522722 -2.5999123e-05 -0.0007134579 0.00048074138 -0.00019348822 0.00036441995 0.001459403 0.0005903164 8.048255e-05 -0.00051219494 -0.001279031 -0.0007171399 0.0013601627 0.0013264547 0.001059977 -0.0011588025 9.853482e-06 0.00016718368 -0.00013572222 -0.0013972139 -0.00019761267 -0.0017240256 7.94346e-05 -0.0016787753 0.0015762596 0.0006465473 -0.00032758762 -0.0011384739 -0.001571109 -0.0008473003 -0.001602083 -0.00044975616 -0.0017399213 0.0012787515 0.0010509678 -0.0010879625 -0.00045212795 0.00060273934 0.0007463845 0.00047033955 0.0005701663 0.00018789373 0.0019975165 0.0014166398 0.0011889713 -0.0013034998 -2.1438305e-05 0.001063963 0.0022344964 -0.0019006556 -0.00016856866 0.0007104988 -0.0012011562 -0.0009454516 -0.0007991189 -0.0004646083 -0.0015986245 -0.00095027476 0.0017344903 0.0003288696 5.185443e-06 0.00040392485 0.00073974667 -0.001313025 0.0018413978 -0.0005993204 0.0020842026 0.0011453088 0.0012906673 -0.0013868299 -0.0012128926 0.0004687229 -0.0015374884 -0.0011799097 0.00086533034 0.00012398926 0.00010148263 0.0013286176 -0.00018351835 0.00081081415 0.00031037614 -0.0006161049 -0.0005181769 -0.0007132882 -0.0010966649 -0.0014140214 0.0009766379 0.00050615956 -0.0013927765 -0.0003463327 0.0008034166 -0.0005339022 -0.00030780464 0.0015255691 0.0011766809 0.0011252951 0.0013523189 -0.00042178517 0.00037066542 0.0010761875 -0.001800466 -0.00037225403 -0.0005775529 -0.00036645692 -0.0004927433 0.00068286527 0.0014362022 -0.001547858 -0.00020955814 -0.0013756772 0.00015851158 0.0012619131 0.0009120009 -0.0011100041 -0.002105566 -2.0303216e-05 -0.0020254457 -0.0008695037 0.0014279579 0.0018060335 0.0006520232 -0.00075785356 0.0015386962 -0.0010786349 -0.0019260307 0.00041371686 0.0009224637 -0.0010175239 -0.0017293022 0.0019188601 -0.00021261179 2.0153087e-05 0.00035821737 -0.00049908546 0.0017178635 0.0010775856 2.4402498e-05 0.0010343305 -0.0007953003 -6.690933e-06 -0.0016008094 0.00058135606 -0.0011791068 -0.0004396775 -4.260226e-05 -8.726268e-05 0.00075060833 -0.0014563709 -0.0011581036 -0.00019769804 0.0014606932 -0.0011484907 -0.0013347669 -0.00010803518 -6.978052e-05 0.00021330689 0.0001315223 -0.00020919857 -0.0015337224 -0.0010404843 -0.00028906754 -0.00025233088 -0.00044153642 0.00036349366 -0.0006631345 0.0001919128 -0.00041235497 -0.00080443005 0.0016279793 0.00072106346 -0.00070858054 -0.0014655292 0.00083122274 0.001115008 0.001850174 -0.0014140364 -0.0018511866 0.001927206 0.0006369964 0.0013426752
היום 2.5124129e-05 -3.6588306e-05 -0.00014490225 0.0014056299 -0.0004362705 3.403169e-05 0.001099215 -0.0009310703 0.002145292 0.0026235958 0.00012276872 0.0007178288 -0.0022763107 -0.00084712723 -0.0023072963 -0.0018688313 0.00033126413 0.00073831313 -0.001513724 0.00084116356 -0.0016552161 -0.001525361 -0.00040605065 0.0007649174 -0.002699665 0.0011191284 0.0013941769 0.0006871197 0.0023448446 0.00046720743 -0.0007590943 0.00036677945 -0.0013528295 -0.0007260377 -0.0011522048 -0.0013398345 -0.00010034045 0.0020824021 0.0011498728 -0.00064721756 0.0010064123 0.00032649437 -0.0011295028 -0.00029147547 -0.0011448654 -0.0011956082 0.0011119834 -0.0022023898 -0.0011346566 0.0010840425 -0.0017181594 0.00041503855 0.00044387602 0.00089065864 0.001033253 -1.4181197e-05 -0.0016785989 0.00037306704 0.0022105263 -0.0009807041 0.00021266428 0.0016175418 -0.0004907371 0.0029674906 -0.00037324708 -0.00058396324 0.00039265485 0.0006198058 0.0019220631 0.0013939014 -0.0025912034 -0.00073873764 0.0017186697 -0.0041202623 -0.0006117654 0.003392308 -0.0008296534 -0.0013504204 -0.002529998 1.1419697e-05 -7.758917e-05 0.00035473058 -0.00020937684 0.00024601995 -7.1042974e-05 0.0014198885 0.0019677845 -0.0008442647 0.00064431224 0.00049775577 -0.0013447844 -0.0019508614 -0.00036370964 -0.0011704788 -0.00125879 -1.6297348e-05 4.1776035e-05 -0.0011601949 -0.0021972582 -0.0020388623 -0.00023559852 0.0016886573 -0.00093594973 0.00058579154 0.0012268919 -0.00026747864 0.0006770866 0.001793229 -0.0009119719 5.2205203e-05 0.0017828709 0.0027493644 -0.0018039381 -0.0012811465 -0.0020689496 -0.0008289796 0.0005392594 -0.0018204848 0.0016729989 0.0021133632 0.0012393123 -0.00040082887 0.0008932728 0.00013266837 0.0020701434 -0.0009193933 -3.4985896e-05 0.0018447745 0.0012941357 0.002341806 -0.0004120275 -0.0006461256 0.0018899363 0.0014588878 0.0006700916 3.798582e-05 -0.0021832178 0.0007096921 0.0021895024 -0.0007645799 0.00081891945 -0.00055694336 -0.0032805228 -0.0024384258 0.00070734846 -1.683889e-05 -0.00040416242 -0.0013464136 -0.0011083401 0.001190912 -0.0021201277 0.0021183416 -0.00016573309 -0.00037900129 0.00037144017 0.00013767161 0.0007454646 -0.00039045484 0.002527245 -0.001864351 0.001954972 -0.002489007 6.7637324e-05 0.00066992705 0.00088641734 0.0011780905 -0.0014738437 -0.00090651534 0.002207504 -0.002082511 -0.0017206557 -0.0009779788 -0.0007623532 -0.00028049867 -0.0026993193 -0.0013863341 -0.0007771692 0.00044175543 0.0016935618 -0.0005697672 -0.0016132026 6.031674e-05 -0.001679824 -0.0013397742 -0.0005029137 0.0016599415 0.001006024 -0.0005263393 -0.00032637108 -0.0011078015 0.0010024925 -0.0011264442 -0.00017756429 0.0013193091 0.0015226557 -0.00017242247 0.0017278306 0.00051607913 0.002129698 -0.0022337078 -0.0006080384 0.00073063927 -0.00018615421 -0.0012222985 0.0015959042 -0.0021454033 0.0005965393 -0.00083813514 0.00022697341 0.0016764164 0.0009502018 0.00045115512 -0.00060475175 -0.0016303565 0.00090690353 -0.0013806608 0.0019479236 -0.0014167689 -0.00025761832 0.0020951324 -0.0029776492 0.0008992051 -0.001589098 0.0015857716 0.0008554314 0.000108587716 -0.0022453996 -0.0020066556 0.0016124614 0.0006297845 0.0018235076 -0.0006867068 0.0008908528 -1.710385e-05 -0.002565302 -0.0012060917 -0.00085876184 0.00022108603 0.00072398916 0.0007587212 -0.00023291314 -0.00028982083 0.0011253764 0.00035094158 0.0002468017 0.0011198513 0.0011807006 -0.00043770857 -0.0024190815 0.0008751181 -0.0005506894 -9.497751e-05 0.0024364854 0.0005083689 0.0023578596 0.0011623413 -0.0012428403 -0.002636929 -0.00088708656 0.0020972313 -0.0004931124 0.00012430381 -0.0015875365 -0.0006063721 0.0013848855 0.00044082824 0.002167219 0.00040181648 -0.0010235225 -0.0018507413 -0.0011508779 0.002212225 0.00059524016 0.0014803078 0.0003183669 -0.000116318864 -0.0013956325 0.0016721912 0.00014115227 -0.002142643 0.0007302345 0.0014707124 -0.002080781 0.001174069 -0.0016800729 0.001062323 -0.0031939927 -0.0015940889 0.00047868057 -0.0008997052 -0.0002657813 -0.0008984673 -0.0016506468 -0.00017335863 5.8318692e-05 -0.00268257 -0.00289076 0.00066888484 0.00060021237 -0.00060219836
עם -3.5658875e-05 -0.0014200233 0.00014805254 -0.00010820331 -0.0020075596 -0.0010721051 -0.0014926252 -0.0008140796 0.001999786 0.0011617488 0.0015220132 0.0014532476 -0.00042569166 2.3289213e-05 0.00034572664 -0.0021588611 -0.0020171786 0.0010562981 0.00012559009 0.0024758973 -0.000463658 -0.001906862 -1.048481e-05 -0.00035729515 -0.003103364 0.00058271555 0.0017475751 -0.0010378365 0.002441374 0.00022780264 -0.00056925975 0.0003115171 -0.00083538867 0.0014214051 0.00015695875 0.00052957743 -0.00014866091 0.00011259553 -0.0011222224 -0.00025802403 0.0011194964 0.0024272185 -0.0022010359 -0.0001815924 -0.00060181716 -0.0013148834 -0.00062689907 -0.0014457131 0.00031998844 -0.00019704111 0.0005734133 -0.0002894858 -0.0009841475 -0.00059023825 0.0029576006 -0.0013874307 -0.0010056137 -0.0020142326 0.002850211 0.00081655465 -0.0019597248 -0.0005076101 0.0014293749 0.0024656362 -0.0006411306 0.00044521585 0.0013731567 0.0022043327 0.0007951634 7.3671676e-05 -0.00010433025 0.0005739493 0.0013187929 -0.0035731683 0.0006316591 0.00073572336 0.00069683895 -0.0013624612 -0.0014989411 -0.0011921112 -0.0007192397 -0.00076918624 -0.0016018454 -0.00069588254 3.319676e-05 -0.0014437552 0.001957746 -0.0009853205 -0.0014337347 -0.0011229493 -0.00021245892 0.00078907853 0.0016178697 -0.0009050137 -0.0013152544 -0.0015674122 -0.00089978677 -0.0004140716 -0.0006537237 -0.0022810714 -0.0011433401 0.00015570155 -0.0013584715 -0.0008090009 0.0009789751 -0.0010013524 0.0012516127 -0.0007687407 -0.0028977091 -0.0008191811 0.0016839517 -2.2435745e-05 -0.00217198 -0.0017240185 -0.00049224065 -0.0010802753 0.0019147274 -0.0012521589 -6.870689e-05 0.0012658929 0.0023892883 -0.0014104634 0.0011503951 0.0013076055 0.0013139847 -0.0009151413 9.5916956e-05 -0.00035518553 0.0015614525 0.0011946406 0.0008195524 0.0007477925 0.0018831716 -0.0004733241 0.0021127248 -0.001389556 -0.0010513351 0.00074787234 0.0015571228 -0.0020492633 0.0016292501 -0.00018972758 -0.0021932777 -0.0016527106 0.0011441356 0.0005721433 -0.0019327659 -0.0017308752 -0.0011511871 0.0002699485 0.00089194265 0.001932175 -0.0011874231 -0.00054892944 -0.00040648968 -0.0002478624 7.3809824e-06 0.00047951238 0.0012765474 -0.0021241538 0.0016008456 -0.00061792036 0.0019243767 -1.4249633e-05 -0.0012905541 -7.0579095e-05 -0.000648037 -0.00085478165 0.0033232754 -0.00074271456 -0.00046659188 -0.0018482809 -0.00033431358 -0.00035824854 0.0005424553 0.00012864638 -0.0013015668 -0.0023113883 0.0012061931 -0.0011626735 0.0010360237 0.00022331357 0.00021347676 -0.0014962875 0.0015453602 0.0008380215 0.002446797 0.000790534 -0.00027728878 -0.0002542537 0.00048168137 -0.0028740196 -0.0013514096 0.00019456282 0.00015960817 0.0015523187 -0.0005617403 -0.0006541515 6.2146624e-05 -0.0018529288 0.0009703481 0.0008495417 0.00066011597 -0.0018162428 0.0020446477 -0.0013466787 0.0007042924 -0.00046437752 -0.0016269856 0.0011532748 -0.0021283755 0.001317751 -0.0011809305 -0.0011648359 -0.00040882398 0.00089700124 0.0014256566 -0.00061490847 0.00047276597 0.00033523233 -0.0023472633 0.00044310855 -0.0010761875 0.0011051552 0.0024441874 -0.00096590456 -0.0012223005 0.00046732047 0.0026024317 -0.0016099506 0.0017530482 -0.00232325 -0.000977572 -0.0021385497 -0.00061218167 0.0016216373 -0.0023201474 0.0018213493 -0.0010947774 0.0011797984 -0.00052713585 0.00016805663 0.0009825248 -0.00078465894 0.0008435126 -0.0005476763 0.00070501305 -0.0016192695 -0.00062760565 0.00067016715 -0.0015605618 0.0006895597 0.0011570904 0.0009234016 0.00052408327 0.00025319427 -0.0005693277 -0.001481295 0.00069122855 0.00062307273 0.0001151053 -0.0016862794 -0.0013530322 -3.0309235e-05 0.0010640954 0.0015529457 0.0011039092 0.00093256944 -0.00078920246 -0.0018439213 0.0009951978 0.0020192903 -0.001264867 0.00018011147 0.0004376656 -0.0013174538 -0.00067868433 -0.00016861105 -0.001118232 -0.0022854442 -0.0009256363 -0.0010213543 0.00061086984 0.0005346282 0.0005641603 0.0013467377 -0.003658073 -0.00068359287 0.0013747462 0.00091024145 -0.00033208512 -0.0012564546 0.00092396804 -0.00041625564 0.0022668943 0.0002630449 -0.0007906053 0.0014387214 -0.00021641685 0.0012392991
את 0.00017072032 -0.003723749 -0.001157561 0.0011943794 -0.004783177 -0.0003284555 -0.00016448935 -0.0030264726 0.0015396795 0.0029127772 0.002875766 0.0012554958 -0.0026925155 -0.0012200109 -0.0038401072 -0.0022237923 -0.0007765113 -0.0001828068 -0.001797378 0.0017540952 -0.001395482 -0.00035507203 -0.0002427929 -0.0017707783 -0.004654315 0.0025535016 0.0015568561 0.00088905194 0.0026674864 -0.0015992275 0.00032616334 0.00020849392 0.0010536384 0.00027739527 -0.0009842105 -0.0032596986 -0.0022029695 0.0027021526 -0.00030738526 -0.0010597467 -0.0009450302 0.00304899 -0.002272454 0.0041022417 -0.0020503756 -0.0056040394 0.0039741644 -0.0014275312 0.0012183321 -0.00013123528 -0.00045101647 0.000334216 0.000748611 -0.0007864516 0.0051747356 -0.001775288 -0.0024959845 -0.0026438371 0.00217188 -0.0005450943 -0.0022692238 0.0010782332 0.0004546807 0.005452274 0.0031621978 0.0016987724 -0.0018533973 0.003874495 0.0023156118 0.0030362261 -0.003850711 0.0016094634 0.0024412978 -0.007257411 0.0028981534 0.0073531684 -0.0022213475 -0.0022029402 -0.0022715686 -0.0014795455 0.00038399623 8.895912e-05 -0.003840732 -0.0025557317 3.466017e-05 0.001322707 0.0030411433 -0.0020948085 0.001476928 -0.0010913733 0.0007620779 -0.002907244 -0.00030010007 -0.00072496483 -0.0026843408 -0.0009075288 -0.0035437443 -0.00048487564 -0.0015992972 -0.004758164 -0.00034672406 3.5701752e-05 -0.0032910707 0.0022245226 -0.0007134933 0.0018753235 0.0002788448 0.00016843877 -0.0055216877 0.0035397904 -0.0002147571 0.003998093 -0.00065114145 -0.00316343 -0.002821354 -0.0021413788 -0.00014131237 -0.0011753279 4.474778e-05 0.0039272048 0.002831751 0.0013263945 -0.0005868468 -0.0010229099 0.0020146733 -0.00092923676 -0.0014972099 0.00348462 -0.0014470071 0.0034784258 -0.00070469454 0.00086540094 0.0050567985 -0.00072610955 0.0023345926 -0.00049898826 0.00040409467 -0.00050725247 0.0022782132 -0.0014247748 0.0012191576 -0.0005252146 -0.006216588 -0.0029236376 0.0026584463 -0.0019406116 -0.0012728368 -0.0037614459 -0.00229408 -0.0009690434 -0.00092909846 0.0027843125 -0.0023502675 0.00086569786 0.003628928 0.0038043906 -0.00092459656 0.0012762314 0.0024598949 -0.0030678401 0.0032895124 -0.0030002205 0.0017579223 0.0027380208 0.00096151634 0.00062107755 -0.00046829725 -0.00093559665 0.0061525987 -0.0026730406 -0.0009795497 -0.00038290364 -0.00063098123 0.0013465064 -0.0014098578 -0.0037862498 -0.0036430873 -0.00360471 4.057861e-05 -0.001676125 -0.0012495738 -0.0022461265 0.0015128237 -0.0005265051 0.00020634518 0.0015997731 0.006759277 -0.0012294007 -8.5790845e-05 -0.004560549 0.0007766713 -0.0053065955 -0.004005633 -0.00092445896 -0.0010909071 0.0017887441 0.0010629606 -0.00050961034 0.0044046952 -0.00080066104 0.00064690557 0.002488704 0.0018068916 -0.002334418 0.0010469975 -0.0036229822 0.0003654997 -0.00055772346 -0.003283642 0.0019045587 -0.002012335 0.0024184913 -0.0005221415 0.00095572905 0.00218648 -0.0010309437 0.0024861267 -0.005279296 -0.0020777467 0.0029531966 -0.0030782674 -0.00057377806 -0.0023726076 0.0015349657 0.0037486777 -0.001570545 -0.0013298977 -0.0017426456 0.004699706 -0.0012455247 -2.6878566e-05 -0.0014540083 -0.0024538815 -0.0010112486 -0.0046403967 -0.00048711992 -0.0035282355 0.0010669713 0.002732291 0.0025061204 -0.0010128542 -0.0005039619 0.0012656447 -0.0007953155 -0.0010983802 0.0016179244 0.0032229803 -0.0019098641 -0.004049307 0.0045234226 0.0004461768 -0.0030471531 0.003330204 -0.0021198967 0.0010621679 0.0004573708 -0.00027608496 -0.0051221517 -0.0011216662 0.0019488119 0.0012448189 -0.00039913217 -0.0020014741 -0.0026683917 0.0035221563 0.0011474952 0.0049758838 -0.0016404331 -0.0036644717 -0.0036616924 0.0015938856 0.0012538605 0.00013837304 0.0037712904 -0.0006939772 -0.0007686659 -0.0017714981 0.0006749933 -0.0010341727 -0.003639659 -0.0013566529 0.0031417129 -0.0012653269 -0.0020956474 -0.0017470397 -0.00028677433 -0.007744152 -0.0016794625 0.0011286072 -0.0009724293 0.0003524672 -0.0021499572 4.5808036e-05 0.0016689203 0.0021474715 -0.002214703 -0.0058336183 0.0028873407 -0.0028593943 0.00029351324
איפה 0.0006948958 0.00090723846 7.6456694e-05 0.00011699818 -0.0014282375 -0.000812377 0.0009270071 -0.0002347212 0.0013841479 -0.00065390713 -0.00018094567 0.0018184689 0.00019335037 -0.0015073096 -0.0014829512 -0.001517814 -0.00041539638 -0.000790112 -0.0016817864 -0.0010750217 -0.0002474659 0.0009930595 0.0013856513 0.00031860764 -0.0018239851 0.00056250504 -0.0010758879 -9.218924e-05 0.0010237953 -0.0014199162 -8.812454e-05 0.0013214895 0.0005252121 0.00061862735 -0.0020774507 0.0008937916 0.0004760482 -0.001133617 0.0015522566 0.0012902084 -0.00083411764 0.0011946412 0.00090303173 0.002091356 0.0006201899 -0.00091588235 0.001807063 9.2800175e-05 0.0013102605 6.292233e-05 -0.0019433047 -0.0015142786 0.00078671594 -0.0011279854 0.0019981882 -0.0010555915 -0.0018069382 0.00034438047 0.00081462413 0.0010007761 -0.0007922423 0.0009399543 -0.00029940033 -6.950164e-05 0.0010543441 -0.0012382987 -0.000804777 0.00095198484 -0.0002714047 0.0008495831 -0.0009256421 -3.444913e-05 -0.00089735136 0.00026190036 -5.681162e-05 0.0006901002 -0.0017681676 4.4954806e-05 -0.00017185797 -0.0013607425 0.0002285746 0.0001492545 -0.0014634118 0.0010833924 0.00090663444 -0.001443736 0.001188227 0.0012612077 -0.00022436277 0.0011647173 0.0005573426 -2.0753474e-05 -3.548776e-05 -0.00023862855 0.00016299698 -0.0007504719 -0.0006684627 -0.0015628694 0.0010579646 -0.0023755676 -0.00033577607 0.0016346446 -0.00053572917 -0.001031738 -0.0014251996 0.00077751064 -0.0014240462 0.0008789274 8.964252e-05 -0.00087835547 -0.0014848482 0.0018008979 -0.00036548582 -0.0014364687 -0.0016698021 -0.0006168991 0.0007464035 -0.0010159217 -0.0003373493 -0.00074987416 0.00038767754 0.0006659291 0.0013013838 -0.00023299246 -0.0004616198 -0.0012067385 -0.0011599727 0.0007769481 -0.0015539128 0.0010654156 0.00076571223 0.00029786275 -0.0010862715 0.00010279771 0.0013286531 0.0016353658 -0.0012645953 -6.653015e-05 0.0013649551 0.00014234512 0.0016506917 -0.0005702783 -0.00052772334 7.17791e-05 -0.00019448888 0.00019365105 -0.0012978693 -0.0002692628 -0.0005136194 -0.0011251462 0.00020016346 0.0003999656 -0.0013521862 0.00037893959 0.00040934441 -0.00052358554 -0.00022497485 -0.0013744667 0.00047424098 -0.0012989821 -0.0005857364 -0.00045976552 0.002142225 -0.0013567501 -0.0015452148 -0.00058639946 -0.0009130583 -0.00038298275 -0.00049019005 -0.0015857283 -0.000118770746 -0.0016484901 -0.0014759682 -0.0008408998 -0.0022742557 -0.0006987454 -0.0019198597 0.00018764791 0.0005970863 -0.00014435292 -0.000897835 0.00031895822 -0.0011131198 -0.0005233601 -0.0014218193 0.00022807877 0.0015800964 -0.0011595368 0.0005306991 0.00029831522 -0.00037739074 0.0002863967 -0.0015581379 -0.0003920343 -0.00077589735 -0.0010727987 0.0019034552 0.0015901355 0.0015864769 -0.0014063644 0.00090684486 -0.0005358307 0.00036946073 -0.0017640728 0.0005205368 -0.00061014533 0.0018632478 0.0009822234 -0.00019427258 0.00026558296 0.0005789658 -0.00082546595 -0.00036131297 -0.0008623213 0.0009982042 -0.0011649689 0.00040279448 0.0004948829 0.0001449722 0.0011592637 -0.000718344 0.0005398665 -0.00076542026 -0.0003795807 0.0010707421 0.0003263802 0.00012803958 -0.0016086817 0.0008827333 -0.0016209143 -0.00052179705 -0.0017498601 -0.00018297235 -0.00012249942 -0.00079042296 -0.0016267092 0.00015696554 0.0007455362 0.0016881786 0.001735205 0.00084772817 0.0012954713 0.00025812705 0.0014665534 -0.001250929 0.0020446198 -0.00017290594 0.0015145794 -0.0022815662 0.0017632119 0.0007640695 0.0013237048 -0.00047525796 -0.00026872315 -0.0004714546 -0.0006549993 0.0003618169 -0.00097580656 -0.0017374841 -8.350196e-05 -0.00034897393 0.00046006413 -0.0006676648 -0.000710801 -0.0002946435 0.00049691426 0.00062594353 0.0008353975 -0.0014874794 -0.0013004917 -0.00076742994 0.0003622804 -0.00091848266 0.00094418426 0.0014010342 -0.0007454931 -0.00022672964 -0.0006423506 -0.00043018648 0.0013154418 -0.00034127725 8.671557e-05 0.0011880862 0.00024269725 -4.5618082e-05 -0.0014936188 -0.0025659387 -0.0012170938 -0.0014316945 0.0011804256 0.0009830178 0.00084439677 -0.0015368616 -0.00074872136 0.0016274296 0.00056315365 -0.0019252365 -0.00027393596 -0.0011273042 -0.0012834778
בא 0.0013446698 -0.0005488426 -0.00016504551 0.00060939917 -0.0009183721 0.00033372728 -0.0018786585 -0.000370282 -0.00068546063 0.0015218126 0.0006630358 0.0016659253 -0.0021042873 0.0012301799 0.0006979466 0.00010202646 -0.00067090755 0.0016929078 -0.00068718183 -0.0005534253 -0.0009276235 0.0013000328 -0.0007647894 -0.0017578608 -0.001624844 0.0009391104 0.0016599614 -0.0013550686 0.0010520574 -0.0012714148 -0.001986598 0.0014568073 -0.0013141409 0.00051215844 0.0011330062 -3.9112965e-05 -0.0003510736 -0.00076319324 -0.0016256963 -0.000324577 -0.0017404777 0.001902815 -0.000922712 0.00016390174 0.0013236024 0.00033883954 -1.1861657e-05 0.0006307576 0.0013890028 -0.0011732174 -7.442531e-05 -0.0012732922 0.0015252358 -0.001510898 0.0016251212 -0.0013157825 -0.0020628534 0.0006161113 0.0011092866 -0.0014941904 -7.5454074e-05 -0.0003105309 -0.00020229546 0.0016665905 0.00093565695 0.0009478949 0.001113161 -0.0008369598 0.0005730625 0.0008163242 -0.001105053 -0.00032578976 0.0019741019 -9.995148e-06 0.0005019405 0.0014862145 -0.001790969 -0.0006085923 0.00041065298 0.001043187 0.00011155925 -0.0014303355 2.839447e-05 -0.0020940558 0.001352145 -0.0009875394 0.0019814053 0.0006497724 -0.00017390162 -0.0016311471 0.0005676743 -0.0016268439 0.000460597 0.0001485501 0.000494735 -0.0018186994 -0.00094428053 0.0015627256 -0.000951563 -0.0019465254 3.773994e-05 0.0011705599 -1.4638284e-05 1.87128e-05 0.0015048673 0.00045117424 0.0011919772 -0.001216812 -0.0016336221 0.00084511185 -0.00072924024 0.0017624812 0.0008711536 0.0006255789 -0.00072915613 0.0011525379 0.0014512315 0.0002244328 0.0014934466 0.0012520006 -0.0006060561 0.0009169033 -0.0013887157 0.0013656892 0.0019478186 -0.0014376233 -0.0009975968 -0.00043650763 -0.0011464638 0.00017633093 0.00061682734 -0.0012375088 -0.0004981292 0.00035332274 0.0013672381 0.0005269264 -0.0018349399 0.0006140459 7.287213e-05 -0.0012814014 0.0015663981 -0.0017922315 -0.00070477003 -0.00011311502 0.0013631359 -0.0013428367 0.00031822332 0.00053093093 -0.0015427727 0.00047202368 -0.0016717671 0.000577527 0.00032428274 -0.001647928 -0.0010431566 0.00047395306 -0.00086161704 0.0015989125 0.00047815955 -0.00025017327 0.0010897937 -0.0012478128 -0.0011406097 0.0014422048 -0.0016086836 0.0007303736 -0.0013858331 8.8988454e-05 0.0013020833 -0.0015668159 -0.0016561954 -0.0001534629 0.0008506995 -0.0015014481 -0.0009995098 -0.0013992303 -0.0016544732 -0.0018157174 0.0012294613 -0.0005656825 0.0005541556 -0.0015215402 0.0016123727 0.0005529633 0.0018626356 -0.00039484224 0.0014319528 -0.0019521572 -0.00040598988 -0.00045595787 0.00033290838 0.0003026797 -0.0005856641 0.00046358368 0.00081969664 0.0013292315 0.0014760066 0.00021074076 0.0015318836 -0.0019542458 -0.0012539481 -0.0012366538 -0.0010991083 -0.0018059792 0.00081109407 -0.0004873759 0.0014843459 0.00022193619 -0.00093317725 0.0010184642 -1.1525498e-05 0.0013622217 -0.0014771654 -0.0007021818 0.0008662596 -0.00022368717 -0.0010919953 -0.00082225766 0.0010674633 -0.00056377926 -0.0018443246 -0.0011736224 0.00040454566 -0.00042900932 -0.00021023245 -0.000755074 -0.00075418514 0.0011440127 0.0022797878 -9.625135e-05 0.0004532543 -7.853874e-05 -0.000608565 -0.0019672958 -0.0016571927 0.0011395451 1.7438566e-05 0.001826913 0.00085154065 0.0010227773 0.0015399355 -0.00036740437 0.00034520437 0.00020262277 -0.00078376033 -0.0009133349 0.0014760671 0.00094745355 -0.00083041296 0.0006855338 0.00014879192 4.762534e-05 0.0004730082 -0.0007440708 0.00040048274 -0.0008466207 0.0017319865 -0.00039564128 0.00038265352 0.00066642405 0.0010354797 -0.00063717924 -0.0001934439 -0.00044243797 0.000481984 -7.196512e-05 0.0014983498 0.0016026909 0.00048340115 -0.0017458152 -0.00040886633 0.0016216511 0.00027621922 -0.00025358814 0.000718417 -0.001772949 -0.0008809003 0.0013242862 -0.00022283911 2.0259733e-05 0.00043978554 0.0011444669 -0.0013023805 -0.00093801547 0.00022524141 0.0006964622 -0.0019786728 -0.00028297066 -0.0015351219 -0.0002462291 0.00063554617 0.0011428972 -0.0011064259 0.00040061455 -0.0001640579 -7.3890056e-05 -0.0023855725 -0.00095225923 -0.0008509881 -0.0013425126
ליאור 0.00022636673 0.00069896394 0.0013504245 -0.0012997609 0.0007985369 0.0015814604 -0.00068538403 -4.914656e-05 0.0020957952 0.0021309715 0.00091501366 0.0002777405 -0.002301535 0.0003215163 2.6287753e-05 -0.00028281516 0.0008492172 -0.0007359678 -0.0015104986 0.0023532598 -0.00090167753 0.0007925141 0.00128679 -0.00027289172 8.157663e-05 0.0010700688 0.0009494353 -0.0007875567 0.0016806173 0.00097141805 -0.00022147961 -0.0001461821 0.001156753 -0.00041958768 -0.0011007568 0.00062595634 -0.0010579318 -0.0011007953 0.0010769359 0.00058551785 -0.00044747675 0.00065676495 0.0006189765 0.0017089573 -0.0008491696 -0.001819216 0.00037097133 -0.00045369865 -0.001205206 -1.3394379e-05 0.0010519313 0.00048554857 0.000695769 0.0011781225 -0.00022068656 -0.0011712265 -0.002286667 0.0012309647 0.0022396334 -0.0011716087 0.00043423043 0.00039651679 -0.00048138478 0.00084337435 0.0010715332 0.0013378839 -0.0011540987 1.5961878e-05 0.001887093 0.0018758005 -0.0016133711 0.0012777813 -0.0006357337 -0.00017639164 -0.0005171351 6.976191e-05 0.0010167899 0.00027177375 -0.0025346305 -0.00012006942 0.00018309649 0.0006302285 -0.0014350577 0.0004645421 -0.00095344713 -0.00036740163 0.0017867844 0.00037876703 -0.00045002636 0.0010755718 0.0003182373 0.0012476434 -0.00068820803 0.0009076241 0.0010780479 -0.0014818965 -0.000458944 0.0008570166 -0.0019360664 -0.002068956 0.00056199555 -8.0017795e-05 0.00091165863 0.0007312 0.0011055447 0.00027969046 0.0013751921 0.00040718043 -0.0007416816 0.0010295521 0.0016298838 0.00076587073 -0.0020845565 -0.0012636259 0.0007261059 0.00017727687 0.0011855584 -0.0012361393 -0.0012138139 0.00030922116 0.0021555496 0.0006678231 0.0012117914 -0.0005314747 0.0010663748 0.00062257296 -0.0010947698 0.00093738624 -0.0013188627 -0.00040689736 0.0013931132 0.00033528122 0.0018561607 -0.00081035326 -0.00035279308 0.0009354226 0.0012552082 -0.0012509433 0.00055421755 -0.0001981929 0.00026556067 0.0002586472 -0.0020826191 -0.0022113367 0.000909436 -0.0007256189 0.00019911029 0.00024760896 -0.0012831859 0.00056871946 0.00028731755 0.0017527598 -0.00018200613 -0.0010404434 0.0018803339 0.0006583215 0.0005567894 -9.628028e-05 0.00011833659 0.0008721882 0.0018009378 3.4565517e-05 0.0009969684 0.0018961078 -0.00046856527 -0.00032643636 0.000843903 -0.0010407437 0.003110897 -0.0012326252 0.00077424775 -0.0012658293 -0.0008734057 -0.0010960826 -0.0009780315 -0.0017492389 -0.0010343385 -0.0011560943 0.00112052 0.00050582003 -0.00038418116 -0.00029225022 -0.0011453931 0.0010055717 -0.0010533783 -0.0011316704 0.0011158333 -0.001994505 -3.8640082e-05 -8.787242e-05 -0.0011924515 -0.00032557614 0.00044880254 0.0010658648 0.0013044936 0.0015207741 0.0014273176 -0.00077829947 -0.00010056339 -0.0009242687 -0.0016191377 0.0018227687 -0.00040619273 0.00068183173 0.0015735367 -0.00042129247 -0.0011136988 0.000474599 -0.00028310326 0.0014064572 0.0001777479 0.0026164455 0.00014528622 -0.0002778658 0.00083273416 0.0011572198 0.0005452219 -0.0024977734 -0.00028120636 -0.00043357085 -0.0019890147 -0.00061102497 -0.0011557699 0.0007031451 0.00040851015 0.000718907 -0.0017970346 -0.0016271492 0.0018621794 -0.00054608023 -0.0011267018 0.00022851083 -0.0011974148 -0.0014462137 0.00044280832 -0.0014369338 0.0007902951 0.00010431972 0.0020458407 0.00046392437 0.0014677668 0.0012240268 -0.0005800266 -0.00059345237 -0.0004835972 -0.00018416297 0.0005791388 -0.00083778123 -0.0019066776 0.0021642656 -5.9990773e-05 -0.00020941938 0.002169575 -0.00038807132 0.0017643963 -0.0011410402 0.0014128505 -0.00082060904 -0.00021804048 0.00034627208 0.0012159639 8.671162e-05 0.001217999 -0.0010789065 0.0009392188 0.0013256444 0.00017724432 -0.0004271393 -0.0005501261 -0.0020592904 0.0012093963 0.00036237418 0.000261872 0.0022073076 0.0013499644 -0.0012197631 0.00013692307 0.00056177867 0.0013646667 0.0008844155 -0.00074671546 -0.0013015333 -0.00034039147 0.0010652082 0.001044972 -0.00075577415 -0.0015727447 0.00015154238 0.0013961904 -0.0015213694 -0.00073208404 0.00043981973 0.0012346283 0.0013172196 -0.0007376903 -0.0011220031 -0.0014299758 -0.00027903024 0.00052543706 0.00056916417
מזמינה 0.00025395432 -0.0012818301 -0.00078084075 0.00041688033 -0.0011105133 -0.0011391958 -0.0015956502 0.0007704428 -0.0016086794 0.00023547778 1.7728837e-05 -0.001560412 4.3656873e-05 -0.0004466498 -3.477914e-05 0.00082887994 0.00034731394 0.0016146537 0.0015635744 -3.516801e-05 -0.0012215103 -5.1365652e-05 -0.0013004806 0.000760084 -0.0009452329 -0.0003330271 0.0008180998 0.000778275 0.0015959471 -0.000102565544 0.00038960305 -0.0012983382 -0.00028017347 -0.0009563254 -0.000991312 0.0010349044 -0.0002569251 -0.00053113484 -0.00018267203 0.0012035179 -0.00079336186 -0.0014018891 -0.0005089895 -0.0013880377 -0.0005997828 0.0016385225 -0.00030120145 0.0008518407 -0.0005669151 -0.0012751278 -0.00055748224 0.00028257733 0.0008597198 -0.0007317468 -0.00064956216 -0.0005090179 -0.0005324771 -0.0004071836 -0.0012446134 0.00035873996 -0.00094019173 -0.00038028436 -0.00052560284 -2.1689517e-05 0.0013201857 0.0010245934 0.0005702185 -0.001359945 0.0009683924 -0.0004882106 -0.0002812169 0.0005173826 0.00024259061 -0.0015021013 0.0008427208 0.00011511358 -0.0010853899 -0.0005612676 0.0015866114 -0.000526276 -0.0010794139 -0.0012271961 -0.00046665545 0.00040986013 0.001651824 -0.0014450043 -0.001185374 0.0016368945 0.00024780285 0.00017779785 -0.0011386804 9.804301e-05 0.0011926728 -0.0013098916 -0.00014715189 -0.0014947274 0.00010084753 0.00078808615 0.00045557125 0.0013794702 0.00047688204 -0.0010241102 -0.00030576822 0.00015242705 0.00091250136 0.0013726131 0.0008503093 -0.0010965918 -0.0013039313 -0.00156115 -0.00022007569 0.00012430527 0.0010301152 0.00051654346 -0.0012275417 0.0007600018 -0.0013382516 0.0011251305 0.00023221092 0.00067401875 0.001196822 4.6983147e-05 -0.0006679127 0.0008933867 0.0010454574 0.0012409451 -0.001491685 -0.00011643299 0.0005444181 0.0015438918 0.00020503314 0.0008157152 -0.00066580664 0.0011914385 0.0009105533 0.0007961967 0.0006570315 -0.00035222858 -0.0006738805 0.0016120012 0.0011508054 0.0012671037 -0.0011310696 -0.0013917265 0.0011309178 -0.0015541799 0.0005293528 -0.0011165505 0.00079011655 -0.00020389586 -0.0009044902 0.0009477928 -0.00023354017 -0.0012459328 -0.0011139032 -0.0011105406 6.947642e-05 -0.0016406641 9.1929294e-05 -0.00089505716 0.0016330627 -0.00024356066 -0.0015463076 0.00092211965 -0.00024579064 0.000762054 0.00070479204 0.00078256655 -0.0014554388 0.0015596319 7.3925366e-06 0.0004770112 0.00018046604 0.00032925716 0.0012692179 -0.0013474174 -0.0013762274 0.00031611367 0.0005926961 0.00010526208 8.706565e-05 0.0009836276 -0.0002761593 0.0011428645 -0.001611516 0.0004459598 0.0010090563 -0.00031423016 -0.0005741009 -0.00057700765 -0.000597405 -0.00034315872 -0.0015146025 0.0002708327 -0.00014895659 -0.00068512687 0.00023738592 -0.00019619089 -0.001528266 0.0009916036 0.0005767652 -0.00025905008 0.0011720662 0.0002553293 -0.0012617154 -0.00010168371 -8.110801e-05 -0.00085094856 -0.0016176555 0.00019001654 -0.00073198235 -0.00088773144 0.0005864259 0.00019930993 -0.0008310052 -2.0950656e-05 0.00037758247 0.0013683202 -0.000701736 -0.0011088627 0.000429957 -4.666388e-05 0.00051447965 0.0007341951 -0.0010788054 -0.001457209 0.0010613635 -0.00034308553 -0.0012332925 0.0005181366 -0.00074786344 0.0005686134 0.0015177194 -0.0012217141 -0.0016008911 0.0010882538 -0.0008893477 -0.0009275686 -0.00081610016 0.00078010454 -0.00059886527 0.00036539865 -0.00085247343 8.754646e-06 0.0005860607 0.0008965104 0.0011215912 -0.0002016824 -8.06148e-05 -0.00018814283 -0.0011964745 -0.0014142971 0.0015431957 0.0005316111 0.0008972406 0.0014478882 6.25633e-05 -0.0013596499 0.0008142234 0.00027727196 -0.00027710217 0.0001264496 0.0014292328 -0.00063829566 -0.0014095032 -0.0012127705 9.046541e-06 0.000621227 0.00028299884 -0.0013339864 -0.00047243026 0.00070098514 0.0012023598 0.00047063042 -0.00130375 0.00075413584 -0.00010455921 -0.0013597814 0.00044694112 -0.0015052278 -0.0012501418 0.0013616412 0.0012328788 -0.0009518567 -0.0009858393 0.0013325897 0.0009195448 -0.0013268337 -0.0015842015 0.0010509084 0.00088170724 0.00119561 -0.0010296821 -0.0010805868 0.00020623865 0.0013907325 -0.0013133624 -0.0004219434 -0.0011221028 0.0014155505
מישהו 0.0014523132 -0.0011130371 0.0014243262 -0.0001538507 0.0010080497 -7.6092037e-06 0.00085361255 0.00038424088 0.00064629223 0.002186409 -0.0001692019 0.00034333207 -0.0012222748 -0.000793941 -0.0006340601 -0.00014861321 0.0009806205 0.0013812457 -0.0008871571 0.0020915563 -0.0011202826 0.0009507291 -0.00069308263 0.00035234366 0.00038274055 0.00084123254 8.591012e-05 0.0002999923 8.7640256e-05 0.00076309044 -4.667932e-05 -0.0015596338 0.0015001593 0.00016100766 0.00094079814 0.0010069548 0.00011462228 -0.001290063 -8.9831956e-05 -0.0011462361 -0.0017580532 0.0007315436 0.00031157336 -0.0010115762 -0.0002200717 -0.00093386235 0.001712174 0.0006203791 -0.0013986871 0.0005766746 -0.00080725667 -0.00066781964 -0.0005429888 -0.00018718312 -0.0004463507 -0.0012183014 -0.0018156406 -0.0014113896 0.00069457793 -0.0008996558 -7.436294e-05 -0.0016103334 0.0015908994 0.0010753303 -0.00033062394 0.00027513158 -0.0013354385 0.0018694021 -0.00020083613 0.0011759526 -0.0010074329 0.00035949989 0.0017277405 -0.0013543825 -0.0010138754 -0.00021925647 -0.000763223 -0.00013916659 -0.00085114484 -0.0010960181 -0.00033803002 -0.0004887365 -8.0561995e-07 -0.0018330243 -0.0010231816 2.430508e-05 0.0020297475 0.00088788045 0.0017473231 0.00086253736 -0.00036864248 -0.0018610666 -2.8140743e-05 0.001429617 0.00018332573 0.00038038375 0.00064165104 0.00026903555 0.0011684691 -0.0018702174 -0.00029769607 -0.0014976871 -0.0017167731 -0.0006331632 0.0014330943 -0.0011262964 0.0015569926 -0.0008128324 0.0002319221 -4.550648e-05 0.0011118529 0.0005059361 -3.6424033e-05 -0.0018821764 -0.000261048 6.0459708e-05 0.0017971843 0.0006610839 -0.0011762948 0.00020681435 0.0006067752 0.00036418674 -0.00064613693 -0.0015251009 0.0004618519 0.0005111836 -5.1173694e-05 0.0012744099 -0.0006907728 0.000184122 -1.4805927e-05 0.0018332663 0.0020388733 -0.0015090257 -0.0005674456 0.0015131438 -6.899317e-05 -0.0006304386 0.0007214389 0.00022560761 0.0004707347 -0.0013628991 -0.0011505473 0.00042194233 0.00041880194 -0.00066524267 -0.0017738917 0.00035129575 0.001527886 -0.0016447201 0.0009673178 0.00024046384 0.00027497642 0.00079032255 0.0008882161 -0.0009524726 0.00073501206 0.00046222273 0.0015610737 -0.0016802537 -0.0010604333 -0.001465606 0.0018354092 0.00046381183 -0.0008535683 -0.0014425567 0.0011427343 -0.000964306 0.0014572365 -0.0002404599 -0.0010547887 -0.00036643085 -0.0007508603 0.0011465531 -0.0018867514 -0.0007452148 0.00012463955 -0.0017387674 0.0016733052 -0.0017069499 -0.0005024647 -0.0018758082 0.0016424415 0.0014558673 -0.00059378095 -0.00036041279 0.0021294693 -0.0011941948 7.3460134e-05 0.00024648232 -0.0010934289 -0.00010747622 -0.0007240647 0.0008660893 -0.0012896967 0.0012628755 0.0005457982 -0.0013357829 0.0012393275 -0.0013582853 0.0014702483 -0.001264601 0.00070645986 -0.0018136591 -0.0007716538 0.00034461461 0.0018903462 -0.0005376586 0.00017896389 -0.0006794116 0.0013037743 -0.0005487515 -0.0015241869 0.0013737774 0.000912982 0.0008560072 0.0012361862 -0.0014418263 -9.6096985e-05 -0.00074952695 -0.0002321103 0.0011672336 0.0010252013 0.0017011133 0.00073530304 -0.0011293781 -0.001103295 -0.0017180212 0.0013705423 -0.0004276267 -0.00070512516 -0.0004152379 0.00049573975 -0.0017062175 0.0007714897 0.0008440189 8.583454e-06 0.00023155836 0.00031968483 0.0016200381 0.0013995148 -0.00054862857 0.0010812907 -0.00030098975 -0.00056075334 -0.00012925745 0.00052589015 -0.001633819 -0.0018860993 -0.0009158213 -0.0011070392 0.0010828198 -2.5940271e-05 0.001325322 0.001335286 0.0014764159 -0.0002041742 0.00097488 0.001378019 0.0009944182 0.00051670684 0.001136236 -0.00089997065 0.00022458263 -0.000238252 -0.0006695963 0.0014185769 -0.0014862675 0.00022092237 -0.0014549483 -0.0008760348 -0.00013458882 0.00066825206 0.0015425084 0.0014027421 0.0014056424 -0.00045536234 0.0007478788 -4.6673722e-05 0.0010917138 -0.001470493 0.0012955094 0.0009793406 0.0007097047 -0.0013565859 -0.0006435796 -0.0017594678 0.0003643596 8.032156e-05 -0.0001440284 0.0010302523 -0.0010127363 0.0007519385 0.0018355133 0.0004369354 -0.0010464491 -0.0023060567 0.0017487293 -0.001437701 -0.00060981925
מזמין -0.00063036196 -0.00075230014 0.0002576547 0.00039847504 -0.0010837031 -0.0011562685 -5.93994e-06 -0.00076944625 -0.00041070563 0.0007936798 0.0015799443 0.0016611646 0.0011786286 -0.0008098407 0.00051600026 0.00078552397 -0.000996952 -0.000111291076 -0.0012785817 -0.0013930837 0.00041024585 -0.0014463504 -0.0007988728 0.001114767 0.00041851282 -0.001262423 -0.00059634616 0.00036101497 3.7411475e-05 -0.00042075003 -0.0010835049 0.0004819245 -0.0008369542 0.001123127 -0.00070448907 -0.00012154856 0.0010229723 0.001166434 -0.0015342466 0.00014173759 0.00037885853 0.001805951 -0.00045592326 -0.0012879682 0.0013387166 -0.0007133776 -0.0007777892 0.0003448981 0.0010313569 0.0011007579 -0.00021380995 -2.6876867e-05 0.0014793512 -0.0013565379 -0.00024235745 0.00039917044 -0.00071086205 -0.0015379189 -0.0003310829 0.0011516105 -0.0014103386 0.00019727297 0.0002949413 0.0015584964 0.0005759389 0.00014548768 -0.001013912 0.0016267553 0.0014424913 -0.00069463934 0.001359193 -0.000222858 0.00092684163 -0.0005220683 -0.0011152439 -0.00012586155 0.0010926336 0.00023960503 0.00080110185 -0.0010670561 0.0006649334 -0.00087643525 0.00085680565 0.00035586883 -0.0012730806 -0.0007486433 0.00034235307 0.0011465085 -0.0013307282 0.0006732887 -0.0001262755 -0.00013186966 -0.00028508215 0.0007930107 -0.00033019073 0.00037470798 0.00025920477 -0.0012583946 0.00062853814 -0.0010993253 -0.0009998917 -0.00025255227 0.0011109299 0.0006546015 0.0004075662 0.00031355763 -0.00092451397 -0.0008461918 -0.000775054 0.0012386701 -0.0013408432 0.0010332331 -0.0016217524 0.00033917947 -0.0018562692 0.00086611294 0.001303694 0.0001421517 0.00097599806 8.6456654e-05 -0.0012206985 2.5781872e-05 -0.0013137683 0.00052638986 -0.0014004388 -6.895651e-05 0.00026483028 0.0014506144 0.0012179385 0.0010810051 -0.0014714776 -0.00023292727 0.00025460936 0.0009411412 -0.00013153863 -0.000485766 -0.001499286 -0.00041973774 -0.00079457095 -0.0017241638 -0.0014690937 0.0004795999 0.000581856 -0.0016272569 -0.0007888473 0.0014081241 0.00060605665 -2.7307922e-05 -0.001490928 -0.0009915185 -0.0008911141 -0.0010900521 0.0014237704 0.0011269436 0.0003481414 0.0016849586 9.3632036e-05 0.0015216722 -0.00089799886 -0.0005207386 -3.8727267e-05 0.0013236438 0.0005497314 -0.00042942783 -0.0007427552 0.0012198284 0.0008428765 0.00076912006 0.0017738941 -0.0009423125 -0.0008480208 0.0004848894 0.0016515054 -0.0013014063 -0.0014451152 -5.174577e-05 -0.000758969 0.0011625993 0.0016454145 -0.00036674226 0.00012745631 -0.00012793021 0.00014401838 -0.0011607765 -0.0006244785 0.00058973767 0.0014052945 0.0010992954 0.0005142636 0.0005927618 -0.0010114021 0.00036484754 0.0012116524 -0.00016461962 0.0003546051 0.0008493792 -0.0007225445 -0.00013672287 0.000602401 1.3202007e-05 0.0015657423 7.7232e-05 0.0016323193 -0.00057381176 -0.0007098202 -0.000578092 0.0010047853 -0.00028420304 -0.00041039413 -0.00071540434 -0.0008102784 0.0015587265 -0.0013460426 -0.0014479836 -0.00052218983 0.0007087389 0.0016014627 0.0008890422 -0.0007966454 -0.00035901717 8.438866e-05 -0.0014065697 -0.0014185692 -0.0008117599 -0.0009827625 -0.0015868068 -0.0010427777 -0.0014165536 -0.0006766604 0.0009841364 0.0014053679 -0.0013292512 0.00023783786 -3.6050682e-05 -0.0016372502 0.0003578577 0.0011332853 0.0014431657 -0.0012105152 0.0011823837 -0.00031129157 -0.00059238536 0.0016775728 -0.00027445445 -0.0017029498 -0.00012820264 -0.00044483668 -0.0014857779 0.0013010362 0.00073315395 0.001284907 0.00015842624 0.0005344626 -0.0010968236 7.1155526e-05 -0.00021398083 0.00019670078 0.0010311286 0.0013526197 0.00034554343 -0.0016164249 0.0010313554 -0.000101319405 -0.00022636657 -0.0009806629 0.00028473025 0.0016130877 -0.0012482571 0.0011587681 -0.00054658554 -0.000732637 -0.00017441346 0.0016092851 9.741682e-05 -0.00032811696 0.0010592662 -0.00027979937 -0.0007757208 -0.00017883495 -0.0017255761 -0.0008847964 0.00088939327 0.0009981582 -0.0015698476 0.00023954097 -1.1252992e-05 -0.0011692904 -0.0003384419 -0.00026341976 0.0014501654 0.0007758418 -0.0016380689 0.0015593851 0.0006897048 0.0012611737 0.00034631064 0.00048059077 0.0013808552 0.0009845995 0.0014344429
אתם 0.00076750264 -0.0026376094 -0.0016015025 -0.00018881261 -0.00078085146 -0.0007178054 -0.00024490553 -0.00048493317 0.00040458646 0.0011552165 0.0021321126 -0.00020781113 -0.0004848208 0.0008592801 -0.00064104365 6.947873e-05 0.00073307945 0.0014216754 0.001205545 0.002446069 -0.001099499 -0.0015065834 -0.0011663605 -0.0003687698 0.00025330734 0.0008046692 -2.186431e-05 0.0016062219 0.00047585322 -0.000557932 -0.0005769677 -0.00010394895 -0.00023327062 -0.00079736166 -0.00012924803 -0.0018878663 0.00019359218 0.001707554 -0.0020596369 -0.00011249667 -0.00026218218 0.00091244373 -0.0017223409 0.001930506 0.0011357334 -0.0005610788 0.00023090995 -0.0005522332 0.00090732804 0.0002296304 5.2113806e-05 -0.0014945595 0.0006314164 -0.00032691332 3.5971476e-05 0.0013152385 -0.002211871 -0.00043710007 0.0004733542 -0.0010364697 0.0005863791 -0.0014549595 9.013898e-05 0.0017453561 0.0013486219 0.00041993713 -0.0017150092 0.0020603195 -0.0010245196 0.0017043181 -0.00081280264 -0.0011974018 -0.0004715741 -0.0020002532 0.0005791581 0.0016961809 -0.00120399 0.0004236032 -0.0012900644 -0.00031730387 0.0007697087 -0.00074988435 0.0008817748 -0.0022864006 -0.00092234224 0.00035017787 -3.006657e-05 -0.002060717 -0.0006970101 -0.0017189635 0.0002892454 -0.0010819898 0.0005836946 -0.0017772806 0.00082607404 0.0007348777 -0.0004435792 0.0012727003 -0.0022292796 -0.00065061706 -0.00042155053 0.0017852038 0.00043206647 -0.00038107779 0.0013044641 -0.00070184167 -0.0006533955 0.0010009852 -0.002999165 -0.00023112747 0.0017194921 0.0021454983 -0.0019782726 -0.0016666825 -0.0010810684 -0.0013512596 -0.00061461824 0.0007126771 7.209739e-05 0.0022188157 -0.0002125795 0.0015151243 -0.0012675356 -0.00040267012 0.0010319762 -0.0016459113 -0.000813337 -2.1822234e-05 -0.0010186656 -0.00072455424 0.0012944485 -0.0005123783 0.0002437373 0.0006110756 -0.0009284433 -0.0006093848 -0.001772881 -0.0005103659 0.0018332258 -0.0016191237 0.0010345909 0.00036581355 -0.002072026 0.00030817237 0.000118897755 0.0012223781 -0.00030986898 -0.002119594 -0.00030202878 -0.0005439968 0.0006436123 0.0012080956 0.0010486977 -0.0016568339 -3.869001e-05 0.0020924378 0.0007817486 -0.0009679642 0.002107764 -0.00206166 0.00097254186 0.00074095465 0.000666056 0.0007604019 0.0011905157 -0.001160507 -0.00073420967 -0.0015918247 0.0012049468 -2.4402354e-05 -0.001210271 0.00027646395 0.001096606 0.0013519317 0.0001983292 0.00082266383 -0.0010206584 -0.0001497031 -0.00064080214 0.0007173092 -0.0004697321 -0.00036656353 -0.0015914672 -0.0010997523 0.0021754235 0.002060164 0.002618741 -0.0014713858 -0.00038347117 0.00018110703 0.00022982145 -0.0023345146 -0.00021356385 0.0008308614 -0.0012790266 0.0004030886 0.00016148988 -0.0013145624 0.00078040524 -0.00017529541 -0.001328009 -0.0007074381 -0.00048802613 -0.002105887 0.0006644663 -0.001193387 0.0015007013 0.0010489117 -0.0009565689 -0.00033906926 0.00024410243 0.0027828696 -0.0007084223 -0.0013503518 0.0017707623 -0.000982684 0.0013860472 -0.00019299761 -0.0009204503 0.0003352113 -0.0009269306 -0.0014064981 -0.0007080828 0.00036791892 0.0012722276 -0.0016322408 -0.0019935265 -0.001340719 0.0011080167 4.9830225e-05 -0.0016453535 -0.0013991348 -2.4739515e-05 0.001080545 0.00036409337 -0.0013008203 -0.0018844134 -4.5813773e-05 -0.0004743553 0.00077337836 -0.0010313792 -0.0014000742 0.0012302304 -0.0001453753 -0.0005510926 -4.515451e-05 0.00096512714 -0.0014826537 -0.0023975573 0.0009731844 0.0010831907 -0.0010339755 0.0016204035 0.0005915683 0.000743041 0.0002912537 -0.001267282 -0.0024990323 -0.00102917 0.0020655012 -0.00071903015 0.0012751773 0.0006698426 -0.0019185405 0.0011364486 0.0004907307 0.0024119907 9.027334e-05 -0.0020747497 -0.0009170917 -0.0008527305 0.0011083753 0.00041474908 0.0023327433 0.0013289563 -0.001240437 0.0006450762 0.0020154298 0.00036283824 -0.00062888337 -0.0006266312 0.0002751532 0.00020926454 0.0011423691 -0.0016003152 0.0005330587 -0.0025254302 0.00077342504 -0.0010939272 -0.0010866978 0.00037361067 -0.0021777505 -0.00070998614 0.0011269596 0.00055017933 -0.0022617502 -0.0019591795 -0.00071322557 -0.0010163427 -0.00057140744
